42 42
6.624973115331536e-07  -1.5878774991508422e-08  -2.1360583353184246e-08  -1.8503158484559403e-08  -2.2821597798087408e-08  -2.7072127079283587e-08  -2.3722239033348877e-08  -2.3297204464371787e-08  -2.2354889350597758e-08  -2.2092887787675223e-08  -2.329847394866624e-08  -2.275815353934624e-08  -1.2294246405691949e-08  -1.4702202867466452e-08  -2.277623182452431e-08  -1.538750794684143e-08  -1.4717335996705417e-08  -1.4480786272818526e-08  -1.4093425094099394e-08  -1.2227678679095995e-08  -1.547067151955472e-08  -1.549180458823382e-08  -1.4229571988845466e-08  -1.3190128098009586e-08  0.0  0.0  -1.594494837531492e-08  -1.3068499117368828e-08  -1.658499161675336e-08  -2.0694561635035612e-08  -2.3960835450821463e-08  3.53617951786149e-09  1.1193244256757366e-08  5.090961094474156e-09  -7.621898515244874e-09  2.107630818213374e-09  4.560679540249726e-09  -1.4375636134370144e-08  -1.39981536890191e-08  1.5105146807668807e-08  -1.4043285867273844e-08  1.5752122399705746e-08  
-1.5878774991508452e-08  1.2784525258028811e-06  -2.8481457133566722e-08  -4.448675389706649e-08  -4.556539400661967e-08  -2.9981433017308005e-08  -1.5196239473639198e-08  -1.458969405157069e-08  -1.6589690152497766e-08  -1.3673406341558737e-08  -1.68438642828778e-08  -1.4891889236265148e-08  -2.9635950105566426e-08  -2.9387313951621748e-08  -1.8053474233185787e-08  -4.134282637867428e-08  -4.748721784455239e-08  -4.606037754825746e-08  -4.4093679478973386e-08  -3.9197417853283e-08  -3.376067353383235e-08  -2.9514384769965733e-08  -3.21485522109728e-08  -3.380863339630151e-08  0.0  0.0  -4.5067494097943076e-08  -4.129923285891172e-08  -3.6081875618057146e-08  -2.8065313242715664e-08  -2.2120724321121223e-08  2.4769587330865998e-08  2.026688946051453e-08  2.425703268291844e-08  -5.46957724611143e-09  2.573241156340765e-09  3.4466222120782726e-09  -4.19171505919829e-08  -4.219011351127795e-08  4.326442142059977e-08  -4.2480144330574e-08  3.772272884394869e-08  
-2.136058335318425e-08  -2.84814571335667e-08  1.0029103475659759e-06  -3.317850129434866e-08  -4.1106292178291394e-08  -3.8332275418766274e-08  -2.0483021187206738e-08  -1.9908417017552375e-08  -2.2497573301103464e-08  -1.8717309574509537e-08  -2.290804804348946e-08  -2.0395935888123497e-08  -2.25742630271962e-08  -2.7000293859051247e-08  -2.4499814738524534e-08  -2.8136054040093575e-08  -2.7122425668830883e-08  -2.6698388395586436e-08  -2.5699453384696996e-08  -2.2552260140003408e-08  -2.82064751185819e-08  -2.814944373615904e-08  -2.5708236613307113e-08  -2.4063284784164934e-08  0.0  0.0  -2.9408320870203792e-08  -2.384685662318869e-08  -3.006307619304535e-08  -3.1148787160606153e-08  -2.815891292607901e-08  1.0804942027090113e-08  8.463090810100354e-09  7.605115986110408e-09  -6.784384490417649e-09  -2.660069260479823e-09  2.7489071677400555e-09  -2.535072641794182e-08  -2.483816157523745e-08  3.769762757779148e-08  -2.5176199498170295e-08  3.3719224011607e-08  
-1.8503158484559396e-08  -4.448675389706654e-08  -3.317850129434864e-08  1.3981786957411353e-06  -5.00304720128098e-08  -3.472380146975152e-08  -1.7936996542033538e-08  -1.7614902481467273e-08  -2.0009715885621595e-08  -1.6278967955169626e-08  -2.0347740473208394e-08  -1.787492633370548e-08  -2.9043818753880532e-08  -3.369486183714735e-08  -2.122391715534826e-08  -3.920132981616822e-08  -4.931427691631321e-08  -5.127897817215121e-08  -4.895677183244801e-08  -4.468447669623072e-08  -3.406147440617622e-08  -3.346718207796564e-08  -3.35832727145228e-08  -3.254358134943512e-08  0.0  0.0  -4.224978020255715e-08  -4.28381586278929e-08  -3.502321997961523e-08  -3.205311261428215e-08  -2.618435986243264e-08  4.771646399615965e-09  5.303107235191808e-10  5.786051401258702e-08  -6.414706822974504e-09  5.316819443291963e-09  2.7941403221763546e-09  -4.706743640155015e-08  -4.5220502563839054e-08  5.1833156476127856e-08  -4.745200015451041e-08  7.053793662312377e-08  
-2.2821597798087418e-08  -4.556539400661963e-08  -4.1106292178291374e-08  -5.0030472012809756e-08  1.407582193565897e-06  -4.3188450097404025e-08  -2.1823783832005935e-08  -2.1000586709477888e-08  -2.3933307576705097e-08  -1.9911628130109515e-08  -2.4210635864713096e-08  -2.1581840840247366e-08  -3.478988077433549e-08  -3.996849410005119e-08  -2.6066030706309547e-08  -4.45765604410289e-08  -4.4290496349418264e-08  -4.3266040161548636e-08  -4.152202544835021e-08  -3.6685258192055804e-08  -4.057803217786126e-08  -3.848805309356088e-08  -3.838417714377912e-08  -3.6762798476336864e-08  0.0  0.0  -4.463378813653561e-08  -3.863010438511157e-08  -4.235643435579673e-08  -3.9973574296958205e-08  -3.053715200140609e-08  2.254119957114322e-08  1.9358801496449373e-08  3.0274133553298206e-09  -7.686240182239402e-09  1.0999245737513247e-08  8.144466360223233e-09  -3.927899520360532e-08  -3.9402975686271633e-08  4.417299340844654e-08  -4.061404807059325e-08  5.111101351786537e-08  
-2.7072127079283597e-08  -2.998143301730799e-08  -3.833227541876629e-08  -3.4723801469751496e-08  -4.3188450097404025e-08  1.0945625623534973e-06  -2.5840137484494355e-08  -2.5094801341732068e-08  -2.847301751741703e-08  -2.3832133907052614e-08  -2.9056292497957957e-08  -2.5959419866192444e-08  -2.3557919397742296e-08  -2.813999718640617e-08  -3.110199271216439e-08  -2.9640655213307102e-08  -2.8404373666134027e-08  -2.774905072207815e-08  -2.6925310865986197e-08  -2.3425602494609805e-08  -2.943870721770601e-08  -2.8916078841684117e-08  -2.706223576515507e-08  -2.5103540006315398e-08  0.0  0.0  -3.033725077727524e-08  -2.500857384660413e-08  -3.155493208881522e-08  -3.5119180871941635e-08  -3.5881799017701905e-08  3.7176555536714494e-10  1.7468239914231987e-08  1.8611339846596916e-08  -8.838026248311622e-09  9.081063190872968e-09  3.231232107840083e-09  -2.727568753813863e-08  -2.644699707601115e-08  3.248976329977156e-08  -2.6542960197127005e-08  2.9040498091950827e-08  
-2.3722239033348884e-08  -1.51962394736392e-08  -2.0483021187206748e-08  -1.7936996542033528e-08  -2.182378383200595e-08  -2.5840137484494358e-08  6.583429638342507e-07  -2.9204482006930403e-08  -2.6136672223098293e-08  -2.6669406593583453e-08  -2.4420701692398835e-08  -2.5063212264095555e-08  -1.2555898528879159e-08  -1.4997070638665702e-08  -2.254043944968271e-08  -1.6195735528690526e-08  -1.5752729773414265e-08  -1.4668434396033847e-08  -1.4120024237514875e-08  -1.2583545910543386e-08  -1.540704661395982e-08  -1.5815025718703546e-08  -1.4671761112656716e-08  -1.3124318512649264e-08  0.0  0.0  -1.5395643459617673e-08  -1.3307867347676169e-08  -1.6417242450561172e-08  -2.0362162477539404e-08  -2.3822527780518496e-08  -1.7925882186601176e-09  1.3906887215384542e-08  1.2424246599740403e-08  -1.0868989851462188e-08  1.0564905752366543e-08  5.3700967839995705e-09  -1.4185659264303315e-08  -1.3805091043825474e-08  1.0579494107769336e-08  -1.3333345297852543e-08  3.4323919290529974e-09  
-2.3297204464371787e-08  -1.4589694051570701e-08  -1.990841701755237e-08  -1.7614902481467273e-08  -2.1000586709477885e-08  -2.5094801341732068e-08  -2.9204482006930406e-08  6.43542624137375e-07  -2.5481280920317538e-08  -2.582232206810078e-08  -2.4440674668274564e-08  -2.4612643441107047e-08  -1.2715354614710356e-08  -1.5215603285286707e-08  -2.250685451022161e-08  -1.650082413225347e-08  -1.632068225080387e-08  -1.4831704130922868e-08  -1.40568710470538e-08  -1.2908795246248547e-08  -1.5376261879679594e-08  -1.5915877814360003e-08  -1.4915417288747658e-08  -1.3092625467183712e-08  0.0  0.0  -1.531125183853118e-08  -1.33484436788489e-08  -1.6167482491982484e-08  -2.012545636319844e-08  -2.332768070585414e-08  3.9729860517359005e-09  1.1432108363840547e-08  8.060768373921186e-09  -9.142509684934537e-09  4.924380857108272e-09  7.588382519032661e-09  -1.3448618477577262e-08  -1.3347702815899794e-08  1.0051255067368769e-08  -1.2657964047909294e-08  -1.110488059515091e-09  
-2.2354889350597778e-08  -1.6589690152497756e-08  -2.2497573301103428e-08  -2.0009715885621595e-08  -2.39333075767051e-08  -2.847301751741702e-08  -2.6136672223098283e-08  -2.5481280920317548e-08  7.072126440138416e-07  -2.4211940684142962e-08  -2.5675765237654577e-08  -2.4989678476921008e-08  -1.4559635138781356e-08  -1.752975724443406e-08  -2.5016480126483322e-08  -1.9070982060677966e-08  -1.8868196987196207e-08  -1.7049697141164357e-08  -1.6037562777002616e-08  -1.5026576962954095e-08  -1.765612436855411e-08  -1.8226221462137247e-08  -1.7115543986227326e-08  -1.5039596159047087e-08  0.0  0.0  -1.7571837936117862e-08  -1.5476057141925923e-08  -1.8378437125098856e-08  -2.3069308416665216e-08  -2.626488768411212e-08  9.608921429498766e-09  9.022933608839386e-09  1.5073418014268134e-08  -8.087691089548206e-09  4.98035399797887e-09  5.804940891688015e-09  -1.506662895684675e-08  -1.528789829247056e-08  -4.56938308559943e-09  -1.4093040266665833e-08  -1.4345843864609116e-09  
-2.2092887787675183e-08  -1.3673406341558747e-08  -1.8717309574509514e-08  -1.6278967955169623e-08  -1.991162813010952e-08  -2.3832133907052627e-08  -2.6669406593583447e-08  -2.5822322068100775e-08  -2.4211940684142946e-08  6.148298647676891e-07  -2.354770310269309e-08  -2.4834801743223514e-08  -1.2119691869084632e-08  -1.453877765277745e-08  -2.171683038898802e-08  -1.564654820720971e-08  -1.5481803440478976e-08  -1.4263706243318208e-08  -1.3349990394651623e-08  -1.2424478497739363e-08  -1.4637539046388185e-08  -1.4999848951756014e-08  -1.4149680199518482e-08  -1.24781409305862e-08  0.0  0.0  -1.498588220299801e-08  -1.2699109670552202e-08  -1.5251728727102676e-08  -1.9249610394974943e-08  -2.289052806211662e-08  6.930204033852757e-09  -1.2900711074303833e-09  1.16122820724751e-08  -8.647726625601539e-09  -1.2784407993802742e-09  6.232603737770137e-10  -1.2163181591775637e-08  -1.223976722999898e-08  1.235075322001047e-08  -1.180489725338564e-08  7.199146789737216e-09  
-2.3298473948666263e-08  -1.6843864282877848e-08  -2.2908048043489465e-08  -2.0347740473208417e-08  -2.4210635864713093e-08  -2.9056292497958e-08  -2.442070169239884e-08  -2.4440674668274567e-08  -2.5675765237654577e-08  -2.35477031026931e-08  7.080103384270237e-07  -2.449142724629975e-08  -1.474928384245894e-08  -1.7700345172055034e-08  -2.5262174473195605e-08  -1.9014787193643236e-08  -1.8866505619253106e-08  -1.7243368472519284e-08  -1.6383516197321296e-08  -1.533965784762654e-08  -1.791929135329778e-08  -1.842827016156843e-08  -1.7137407344648873e-08  -1.524597445878068e-08  0.0  0.0  -1.8233307120473818e-08  -1.560199572127547e-08  -1.8638127019694597e-08  -2.3464664127215168e-08  -2.6528940886364938e-08  5.769568406203466e-09  1.3728637985257771e-08  1.2535889386687699e-09  -7.471228197715532e-09  -5.910719848933526e-10  1.4870550463954493e-09  -1.478237513292593e-08  -1.5106587253580186e-08  -3.0720488265888332e-09  -1.404262643846354e-08  1.3109473056645158e-08  
-2.275815353934624e-08  -1.4891889236265138e-08  -2.039593588812352e-08  -1.7874926333705493e-08  -2.1581840840247356e-08  -2.5959419866192438e-08  -2.506321226409556e-08  -2.461264344110705e-08  -2.498967847692101e-08  -2.4834801743223517e-08  -2.4491427246299762e-08  6.596539515724229e-07  -1.3423390290678403e-08  -1.6079772814269262e-08  -2.3748515712613418e-08  -1.751633645693907e-08  -1.7412313720402942e-08  -1.5757236566845525e-08  -1.4727634880300056e-08  -1.3872119662862456e-08  -1.619246490343671e-08  -1.66355860738187e-08  -1.57105717936467e-08  -1.3797282685248984e-08  0.0  0.0  -1.6414534222133195e-08  -1.4085317170205178e-08  -1.6801968630599572e-08  -2.1203810240972368e-08  -2.462089923383144e-08  7.486418596833312e-09  -3.5698646706268895e-10  1.0280106425752597e-08  -7.785587208948706e-09  -6.605098687724899e-10  4.524960757645983e-09  -1.3305342192096879e-08  -1.3432505871756853e-08  9.570208622984242e-09  -1.2774822270452063e-08  8.71636015441819e-09  
-1.2294246405691937e-08  -2.963595010556642e-08  -2.257426302719621e-08  -2.9043818753880502e-08  -3.478988077433551e-08  -2.3557919397742282e-08  -1.2555898528879156e-08  -1.2715354614710366e-08  -1.4559635138781341e-08  -1.2119691869084632e-08  -1.4749283842458927e-08  -1.3423390290678392e-08  8.916317695889932e-07  -2.556550382174877e-08  -1.527884245187634e-08  -3.052448760712227e-08  -3.2771271984061596e-08  -3.051964830536232e-08  -2.8770635785582334e-08  -2.6613638216812065e-08  -2.6127987857767472e-08  -2.5117552728212532e-08  -2.5722225240825154e-08  -2.444521313305876e-08  0.0  0.0  -3.0462534794430127e-08  -2.7361043118272037e-08  -2.9261173716024435e-08  -2.3528088337751985e-08  -1.8739744476705235e-08  2.0354552081397e-08  7.531310581581751e-09  8.067034228170443e-09  -4.093485128447488e-09  3.2831382265709638e-09  5.599806210890976e-09  -2.5337672412588326e-08  -2.610152393026995e-08  1.1045277190105436e-08  -2.5852757632534233e-08  2.3465827808884043e-08  
-1.4702202867466429e-08  -2.9387313951621774e-08  -2.7000293859051244e-08  -3.369486183714734e-08  -3.9968494100051204e-08  -2.813999718640618e-08  -1.4997070638665712e-08  -1.5215603285286693e-08  -1.7529757244434065e-08  -1.4538777652777456e-08  -1.770034517205505e-08  -1.6079772814269265e-08  -2.5565503821748775e-08  9.515670894966298e-07  -1.8297438588360926e-08  -3.1857717281859205e-08  -3.2895148334160684e-08  -3.046323163341166e-08  -2.8882959989466462e-08  -2.6674738283808816e-08  -2.75483620916699e-08  -2.795666990925726e-08  -2.837174786166429e-08  -2.488423910357377e-08  0.0  0.0  -3.0217711376374104e-08  -2.7397111662230878e-08  -2.9046659754337588e-08  -2.7703485648034152e-08  -2.2538690132189862e-08  8.08241769458954e-09  8.448871877677574e-09  7.101545466558536e-09  -4.928439647944809e-09  4.851684131139901e-09  8.877540940316291e-09  -2.5180917454176713e-08  -2.5684650006468886e-08  1.8898010851226996e-08  -2.560384136053173e-08  3.415138482266615e-08  
-2.277623182452431e-08  -1.805347423318577e-08  -2.4499814738524564e-08  -2.1223917155348243e-08  -2.6066030706309563e-08  -3.1101992712164365e-08  -2.2540439449682707e-08  -2.25068545102216e-08  -2.5016480126483322e-08  -2.171683038898802e-08  -2.5262174473195605e-08  -2.374851571261343e-08  -1.527884245187634e-08  -1.829743858836092e-08  7.319359940325554e-07  -1.969608074466247e-08  -1.9219711323284203e-08  -1.7945249128377246e-08  -1.7148781979277783e-08  -1.576863213859627e-08  -1.881812307699698e-08  -1.9030045528749812e-08  -1.7688442314921838e-08  -1.6026427487998555e-08  0.0  0.0  -1.9394499466388436e-08  -1.6213519564009896e-08  -1.970328841546175e-08  -2.3790014833328438e-08  -2.5860428625744877e-08  3.04784958718998e-09  5.768907402862657e-09  1.1293679840453442e-08  -7.0023267585344165e-09  -8.100536379611364e-10  1.5091760816643315e-09  -1.594882415691589e-08  -1.600928828816512e-08  2.780343334519494e-09  -1.5390673090627447e-08  2.2914047314402124e-08  
-1.5387507946841447e-08  -4.134282637867429e-08  -2.81360540400936e-08  -3.9201329816168235e-08  -4.457656044102889e-08  -2.9640655213307122e-08  -1.6195735528690513e-08  -1.6500824132253465e-08  -1.9070982060677976e-08  -1.5646548207209715e-08  -1.901478719364325e-08  -1.7516336456939068e-08  -3.052448760712228e-08  -3.185771728185921e-08  -1.969608074466248e-08  1.3265889995713461e-06  -5.5184260168664784e-08  -5.106868254204275e-08  -4.843314591054802e-08  -4.494474622076077e-08  -3.460410812315554e-08  -3.0402608504601977e-08  -3.310668198946649e-08  -3.468636119267903e-08  0.0  0.0  -4.9630061104149495e-08  -4.3307146844467204e-08  -3.594506893537744e-08  -2.9596242716407725e-08  -2.34878382874214e-08  4.9440187776264385e-08  2.346001781438837e-08  -1.0617373681988514e-08  -5.3502597779783536e-09  -1.081783812076396e-09  -2.1328923187505396e-09  -4.3337573375411554e-08  -4.430538640673122e-08  2.8802401387971197e-08  -4.3149485881260083e-08  2.3585265673150316e-08  
-1.4717335996705402e-08  -4.748721784455244e-08  -2.7122425668830863e-08  -4.93142769163132e-08  -4.4290496349418337e-08  -2.8404373666134044e-08  -1.575272977341426e-08  -1.6320682250803887e-08  -1.88681969871962e-08  -1.548180344047897e-08  -1.8866505619253126e-08  -1.7412313720402946e-08  -3.2771271984061596e-08  -3.28951483341607e-08  -1.9219711323284213e-08  -5.518426016866482e-08  1.5601975063813397e-06  -6.761199994314045e-08  -6.428085077912959e-08  -6.02195141543785e-08  -3.576112473645533e-08  -3.246460211099857e-08  -3.551753314978505e-08  -3.71449809595171e-08  0.0  0.0  -5.892827532955726e-08  -5.699096572240912e-08  -3.7188014068096466e-08  -2.930049107799278e-08  -2.3430032997974257e-08  4.458012977624715e-08  3.356401407128082e-08  1.5509705807442333e-08  -5.132618107694762e-09  -2.264455028495099e-09  2.8113440439594792e-09  -5.713098254103696e-08  -5.762242541075367e-08  2.89918660673574e-08  -5.7647260041502547e-08  3.84653250892344e-08  
-1.4480786272818506e-08  -4.606037754825748e-08  -2.669838839558642e-08  -5.1278978172151226e-08  -4.3266040161548597e-08  -2.7749050722078133e-08  -1.4668434396033863e-08  -1.4831704130922863e-08  -1.704969714116435e-08  -1.4263706243318221e-08  -1.7243368472519284e-08  -1.5757236566845525e-08  -3.051964830536233e-08  -3.046323163341167e-08  -1.794524912837724e-08  -5.106868254204271e-08  -6.761199994314042e-08  1.6249857643278303e-06  -6.745553926901444e-08  -6.608944961457142e-08  -3.366400928773756e-08  -3.0152511242734144e-08  -3.280293274416235e-08  -3.503199569997548e-08  0.0  0.0  -5.846842010154629e-08  -5.7049922670895615e-08  -3.551772887502426e-08  -2.7747012949292744e-08  -2.20395096338803e-08  3.642973609829506e-08  5.426531321517555e-08  3.1777786591204545e-08  -4.862620778962483e-09  7.398688638945726e-09  1.2849625386637606e-08  -6.509855844606947e-08  -6.110043199129019e-08  3.259352685224668e-08  -6.650017392151038e-08  4.980640002358371e-08  
-1.4093425094099379e-08  -4.40936794789734e-08  -2.5699453384696973e-08  -4.895677183244799e-08  -4.152202544835022e-08  -2.6925310865986167e-08  -1.4120024237514859e-08  -1.40568710470538e-08  -1.6037562777002616e-08  -1.334999039465162e-08  -1.638351619732129e-08  -1.4727634880300052e-08  -2.8770635785582328e-08  -2.8882959989466462e-08  -1.7148781979277796e-08  -4.8433145910548035e-08  -6.428085077912956e-08  -6.745553926901442e-08  1.5749705329606e-06  -6.465155564996949e-08  -3.192356667609416e-08  -2.8415933188024655e-08  -3.122351328375572e-08  -3.3354548206248795e-08  0.0  0.0  -5.5985198686611046e-08  -5.413206565638067e-08  -3.358963858280806e-08  -2.6299245451984465e-08  -2.1001536710699483e-08  6.854933643004821e-08  2.7434672171228708e-08  2.9192823728980475e-08  -4.625796773024391e-09  1.1468160858736132e-08  1.0163288488068637e-08  -6.3975825425198e-08  -5.7556392762846695e-08  3.75917154577347e-08  -6.587652479680894e-08  4.1926444068452395e-08  
-1.2227678679095982e-08  -3.9197417853283006e-08  -2.2552260140003362e-08  -4.468447669623068e-08  -3.6685258192055784e-08  -2.342560249460981e-08  -1.2583545910543381e-08  -1.2908795246248572e-08  -1.5026576962954095e-08  -1.2424478497739356e-08  -1.5339657847626526e-08  -1.3872119662862454e-08  -2.661363821681208e-08  -2.6674738283808823e-08  -1.5768632138596288e-08  -4.4944746220760736e-08  -6.021951415437848e-08  -6.60894496145714e-08  -6.465155564996953e-08  1.5154539343350762e-06  -2.902623051746107e-08  -2.63451487796054e-08  -2.895245718214441e-08  -3.024671214265994e-08  0.0  0.0  -5.1240668371117324e-08  -5.1172396381814524e-08  -3.0517929358493754e-08  -2.3714911396126928e-08  -1.900252355441105e-08  5.181495671632458e-08  4.1757352714981564e-08  3.202590258457478e-08  -4.0459251680193045e-09  1.2879641056815079e-08  1.14517840971001e-08  -6.542890221035723e-08  -5.607592960801479e-08  5.226619042231731e-08  -6.675658053741988e-08  3.376708011391331e-08  
-1.5470671519554708e-08  -3.376067353383233e-08  -2.8206475118581916e-08  -3.406147440617624e-08  -4.057803217786124e-08  -2.9438707217706022e-08  -1.5407046613959823e-08  -1.537626187967957e-08  -1.765612436855412e-08  -1.4637539046388188e-08  -1.791929135329778e-08  -1.6192464903436702e-08  -2.6127987857767482e-08  -2.754836209166991e-08  -1.8818123076996975e-08  -3.460410812315552e-08  -3.576112473645534e-08  -3.366400928773757e-08  -3.192356667609416e-08  -2.9026230517461062e-08  1.0457896248601468e-06  -2.8120985273764396e-08  -2.9326038658215003e-08  -2.9625300088324303e-08  0.0  0.0  -3.5476253872753074e-08  -3.010783731869864e-08  -3.344285308160573e-08  -2.865724606607923e-08  -2.278004933431023e-08  1.6675818273669028e-08  1.9050706518378948e-08  1.0753307224393368e-08  -5.242249040742945e-09  2.9050279263763235e-09  1.2697577795281878e-09  -2.9629237916166112e-08  -3.014522309012334e-08  2.7893902641423065e-08  -2.923893853183796e-08  1.3141453405785906e-08  
-1.5491804588233814e-08  -2.9514384769965746e-08  -2.814944373615904e-08  -3.3467182077965634e-08  -3.848805309356086e-08  -2.891607884168411e-08  -1.581502571870356e-08  -1.591587781436001e-08  -1.822622146213725e-08  -1.499984895175601e-08  -1.8428270161568432e-08  -1.6635586073818698e-08  -2.5117552728212522e-08  -2.7956669909257232e-08  -1.9030045528749812e-08  -3.040260850460199e-08  -3.246460211099858e-08  -3.015251124273416e-08  -2.8415933188024655e-08  -2.634514877960538e-08  -2.8120985273764393e-08  9.71375758921352e-07  -2.8516039063718617e-08  -2.5822390052151898e-08  0.0  0.0  -3.109164356581554e-08  -2.6942219395796163e-08  -3.0060453286822245e-08  -2.6798407307119903e-08  -2.335951061396227e-08  1.5017060143409792e-08  -7.546638112035304e-10  1.639574321021168e-08  -4.966150255802761e-09  -3.3925826689436783e-09  4.868394832236147e-09  -2.5616505951964915e-08  -2.5982909438675186e-08  1.8987140916543146e-08  -2.5465037993537386e-08  2.9543493433640503e-08  
-1.4229571988845458e-08  -3.21485522109728e-08  -2.5708236613307106e-08  -3.3583272714522786e-08  -3.838417714377909e-08  -2.7062235765155047e-08  -1.4671761112656716e-08  -1.4915417288747664e-08  -1.7115543986227336e-08  -1.4149680199518477e-08  -1.7137407344648863e-08  -1.5710571793646707e-08  -2.5722225240825144e-08  -2.837174786166429e-08  -1.7688442314921832e-08  -3.310668198946653e-08  -3.551753314978506e-08  -3.2802932744162355e-08  -3.122351328375574e-08  -2.895245718214442e-08  -2.932603865821501e-08  -2.851603906371861e-08  9.990200206056725e-07  -2.63164963484862e-08  0.0  0.0  -3.1580757482939364e-08  -2.9447102305819388e-08  -3.01609140208288e-08  -2.749041460003368e-08  -2.183457440435438e-08  6.24140152226422e-09  1.5882323539651315e-08  8.697956925268836e-09  -4.724761609200383e-09  -2.5423126337969025e-09  3.4329983775546314e-09  -2.788482873176523e-08  -2.8338110276709988e-08  1.0964897086654089e-08  -2.7394218200250633e-08  3.5628044672237144e-08  
-1.3190128098009587e-08  -3.380863339630152e-08  -2.406328478416497e-08  -3.254358134943514e-08  -3.676279847633687e-08  -2.51035400063154e-08  -1.3124318512649262e-08  -1.3092625467183692e-08  -1.5039596159047097e-08  -1.2478140930586212e-08  -1.5245974458780697e-08  -1.379728268524898e-08  -2.444521313305876e-08  -2.488423910357379e-08  -1.6026427487998552e-08  -3.468636119267904e-08  -3.71449809595171e-08  -3.503199569997549e-08  -3.335454820624881e-08  -3.024671214265994e-08  -2.9625300088324303e-08  -2.582239005215189e-08  -2.6316496348486197e-08  1.0121007562934298e-06  0.0  0.0  -3.6963026312494336e-08  -3.1371112634814076e-08  -3.0273958640482636e-08  -2.4437666426785253e-08  -1.940221293644941e-08  1.4910301696583666e-08  2.396471737610525e-08  1.2381242999768078e-08  -4.490504169548761e-09  2.2923767356559434e-09  1.725246530699897e-09  -3.0649904911203696e-08  -3.121880966121861e-08  2.606699699641258e-08  -3.062648859439146e-08  1.4817662288451914e-08  
0.0  0.0  0.0  0.0  0.0  0.0  0.0  0.0  0.0  0.0  0.0  0.0  0.0  0.0  0.0  0.0  0.0  0.0  0.0  0.0  0.0  0.0  0.0  0.0  1.9698926603994346e-05  -2.1430530640129463e-06  0.0  0.0  0.0  0.0  0.0  0.0  0.0  0.0  0.0  0.0  0.0  0.0  0.0  0.0  0.0  0.0  
0.0  0.0  0.0  0.0  0.0  0.0  0.0  0.0  0.0  0.0  0.0  0.0  0.0  0.0  0.0  0.0  0.0  0.0  0.0  0.0  0.0  0.0  0.0  0.0  -2.1430530640129463e-06  2.2154227955910094e-05  0.0  0.0  0.0  0.0  0.0  0.0  0.0  0.0  0.0  0.0  0.0  0.0  0.0  0.0  0.0  0.0  
-1.5944948375314917e-08  -4.506749409794304e-08  -2.940832087020381e-08  -4.224978020255716e-08  -4.46337881365356e-08  -3.0337250777275234e-08  -1.5395643459617676e-08  -1.5311251838531173e-08  -1.7571837936117852e-08  -1.4985882202998e-08  -1.8233307120473798e-08  -1.64145342221332e-08  -3.046253479443013e-08  -3.021771137637411e-08  -1.9394499466388413e-08  -4.963006110414949e-08  -5.8928275329557235e-08  -5.846842010154631e-08  -5.5985198686611026e-08  -5.124066837111727e-08  -3.5476253872753054e-08  -3.1091643565815534e-08  -3.158075748293936e-08  -3.696302631249434e-08  0.0  0.0  1.4528078988987538e-06  -4.874198720998556e-08  -3.779362778228697e-08  -2.915234787685525e-08  -2.3423407367206482e-08  4.8062771746178066e-08  4.042539505821958e-08  2.027325677658706e-08  -4.936492546126042e-09  2.5049426318956124e-08  1.4046580110217608e-08  -4.9352335411285134e-08  -5.0070695869408405e-08  3.5215547430291996e-08  -5.074791366700031e-08  1.0318090367009381e-08  
-1.3068499117368816e-08  -4.1299232858911723e-08  -2.3846856623188694e-08  -4.283815862789293e-08  -3.863010438511159e-08  -2.5008573846604116e-08  -1.3307867347676167e-08  -1.3348443678848886e-08  -1.5476057141925923e-08  -1.2699109670552197e-08  -1.560199572127547e-08  -1.4085317170205188e-08  -2.736104311827205e-08  -2.739711166223087e-08  -1.621351956400989e-08  -4.33071468444672e-08  -5.6990965722409125e-08  -5.704992267089565e-08  -5.413206565638067e-08  -5.117239638181454e-08  -3.0107837318698606e-08  -2.6942219395796183e-08  -2.9447102305819384e-08  -3.137111263481408e-08  0.0  0.0  -4.874198720998556e-08  1.3575577418592822e-06  -3.1897362395818537e-08  -2.4817895533224413e-08  -1.9740135312834705e-08  2.649350967747315e-08  3.757712110121405e-08  2.3802162466090082e-08  -4.5684481250044065e-09  -1.1304013533444047e-09  8.585650801825402e-09  -5.063441850465192e-08  -5.0976477746859445e-08  4.5160294171256744e-08  -5.094549960090654e-08  3.442830671275974e-08  
-1.6584991616753372e-08  -3.608187561805714e-08  -3.0063076193045354e-08  -3.5023219979615265e-08  -4.235643435579676e-08  -3.1554932088815235e-08  -1.6417242450561172e-08  -1.616748249198247e-08  -1.8378437125098856e-08  -1.525172872710267e-08  -1.863812701969459e-08  -1.680196863059957e-08  -2.9261173716024448e-08  -2.9046659754337608e-08  -1.970328841546176e-08  -3.5945068935377455e-08  -3.718801406809646e-08  -3.551772887502423e-08  -3.3589638582808056e-08  -3.051792935849375e-08  -3.344285308160575e-08  -3.006045328682222e-08  -3.016091402082881e-08  -3.027395864048263e-08  0.0  0.0  -3.779362778228696e-08  -3.189736239581852e-08  1.1072837319195901e-06  -3.0299650695479325e-08  -2.4028564606125004e-08  2.9780296980319055e-08  1.228753218522529e-08  1.137820288311302e-08  -5.513707382965759e-09  -7.552412765705989e-10  -1.5810751279270013e-10  -3.196592349492806e-08  -3.2231048850059245e-08  2.0213534585840225e-08  -3.124152280701611e-08  1.8346393530343383e-08  
-2.0694561635035592e-08  -2.8065313242715634e-08  -3.114878716060616e-08  -3.205311261428219e-08  -3.997357429695821e-08  -3.5119180871941635e-08  -2.0362162477539414e-08  -2.0125456363198437e-08  -2.306930841666521e-08  -1.924961039497493e-08  -2.3464664127215148e-08  -2.120381024097237e-08  -2.3528088337751968e-08  -2.7703485648034136e-08  -2.3790014833328448e-08  -2.959624271640771e-08  -2.9300491077992777e-08  -2.774701294929273e-08  -2.6299245451984442e-08  -2.3714911396126938e-08  -2.865724606607921e-08  -2.67984073071199e-08  -2.749041460003369e-08  -2.4437666426785263e-08  0.0  0.0  -2.9152347876855293e-08  -2.481789553322439e-08  -3.029965069547931e-08  9.93472474427447e-07  -2.7594006486156407e-08  1.8019794209583244e-08  2.3152129155674295e-08  8.465833531499941e-10  -6.74576990898809e-09  3.1053574522799378e-09  7.791649346886382e-10  -2.515339662713501e-08  -2.5154422482232692e-08  2.9129078720326742e-08  -2.4325795284515763e-08  -8.982300816445631e-10  
-2.3960835450821466e-08  -2.2120724321121233e-08  -2.815891292607899e-08  -2.6184359862432622e-08  -3.0537152001406094e-08  -3.588179901770191e-08  -2.3822527780518496e-08  -2.3327680705854137e-08  -2.626488768411211e-08  -2.289052806211661e-08  -2.6528940886364938e-08  -2.462089923383144e-08  -1.8739744476705248e-08  -2.2538690132189872e-08  -2.586042862574487e-08  -2.3487838287421387e-08  -2.3430032997974247e-08  -2.2039509633880302e-08  -2.1001536710699506e-08  -1.9002523554411034e-08  -2.278004933431024e-08  -2.3359510613962264e-08  -2.1834574404354385e-08  -1.940221293644941e-08  0.0  0.0  -2.3423407367206463e-08  -1.974013531283469e-08  -2.4028564606125017e-08  -2.7594006486156414e-08  8.698523458124607e-07  4.181153991572071e-09  1.4025735040384674e-08  2.4433606477470804e-08  -7.333809949804258e-09  -9.90608916021166e-11  -3.776226495388398e-09  -1.9888526094794307e-08  -1.9883690766457577e-08  1.572334309347022e-08  -1.9118754416871412e-08  -3.2890411612166984e-10  
3.536179517861491e-09  2.4769587330865982e-08  1.0804942027090108e-08  4.771646399615939e-09  2.2541199571143206e-08  3.7176555536715254e-10  -1.7925882186601184e-09  3.972986051735897e-09  9.608921429498768e-09  6.930204033852758e-09  5.769568406203464e-09  7.48641859683331e-09  2.0354552081396993e-08  8.082417694589542e-09  3.047849587189974e-09  4.944018777626442e-08  4.458012977624714e-08  3.642973609829505e-08  6.854933643004821e-08  5.1814956716324584e-08  1.667581827366902e-08  1.5017060143409792e-08  6.2414015222642114e-09  1.4910301696583676e-08  0.0  0.0  4.8062771746178066e-08  2.6493509677473152e-08  2.9780296980319052e-08  1.8019794209583247e-08  4.181153991572071e-09  3.767153161956215e-06  1.3108702020251113e-06  1.0392501438020238e-06  5.493437976531208e-09  3.60093097762713e-07  2.833748553885971e-07  3.119163476648939e-08  -4.438361639044631e-09  1.1286183000148821e-06  -1.43482324812684e-08  1.275555147900522e-06  
1.1193244256757373e-08  2.0266889460514525e-08  8.463090810100372e-09  5.303107235192028e-10  1.9358801496449363e-08  1.7468239914231987e-08  1.3906887215384534e-08  1.1432108363840543e-08  9.022933608839384e-09  -1.290071107430378e-09  1.3728637985257756e-08  -3.5698646706268606e-10  7.53131058158175e-09  8.448871877677579e-09  5.768907402862653e-09  2.3460017814388375e-08  3.35640140712808e-08  5.426531321517551e-08  2.7434672171228705e-08  4.175735271498157e-08  1.9050706518378944e-08  -7.546638112035184e-10  1.588232353965131e-08  2.3964717376105253e-08  0.0  0.0  4.042539505821957e-08  3.757712110121404e-08  1.2287532185225287e-08  2.315212915567429e-08  1.4025735040384676e-08  1.310870202025111e-06  3.529291090549889e-06  9.848422339267348e-07  2.5459467047675734e-09  3.381499336321788e-07  2.588602607713964e-07  9.635478845655158e-10  -6.3208815340630125e-09  1.073238477740909e-06  1.9117746430704292e-10  1.1999746270361957e-06  
5.090961094474158e-09  2.4257032682918428e-08  7.605115986110426e-09  5.786051401258703e-08  3.0274133553298074e-09  1.8611339846596913e-08  1.24242465997404e-08  8.060768373921186e-09  1.507341801426813e-08  1.1612282072475106e-08  1.2535889386687678e-09  1.0280106425752598e-08  8.067034228170448e-09  7.101545466558538e-09  1.1293679840453436e-08  -1.0617373681988508e-08  1.5509705807442333e-08  3.1777786591204545e-08  2.9192823728980472e-08  3.202590258457479e-08  1.075330722439337e-08  1.6395743210211688e-08  8.69795692526883e-09  1.238124299976809e-08  0.0  0.0  2.027325677658706e-08  2.380216246609009e-08  1.1378202883113021e-08  8.465833531499973e-10  2.4433606477470817e-08  1.0392501438020244e-06  9.848422339267348e-07  2.5643157505949868e-06  5.2837168705796865e-09  2.756996346402961e-07  2.1054903113324423e-07  -7.083812215645015e-09  -2.908276476755018e-09  8.541206836744994e-07  -1.722619364632398e-08  9.574875550316985e-07  
-7.621898515244874e-09  -5.469577246111429e-09  -6.7843844904176485e-09  -6.414706822974507e-09  -7.686240182239394e-09  -8.838026248311627e-09  -1.0868989851462191e-08  -9.142509684934533e-09  -8.087691089548208e-09  -8.647726625601539e-09  -7.471228197715533e-09  -7.785587208948698e-09  -4.093485128447485e-09  -4.928439647944811e-09  -7.002326758534415e-09  -5.35025977797836e-09  -5.132618107694757e-09  -4.862620778962482e-09  -4.625796773024392e-09  -4.045925168019306e-09  -5.242249040742942e-09  -4.966150255802757e-09  -4.724761609200378e-09  -4.490504169548761e-09  0.0  0.0  -4.9364925461260354e-09  -4.568448125004399e-09  -5.513707382965763e-09  -6.745769908988092e-09  -7.333809949804258e-09  5.4934379765312075e-09  2.5459467047675734e-09  5.2837168705796865e-09  2.2938085222076964e-07  9.720305781743896e-09  5.955646874744202e-09  -5.223384445134608e-09  -5.151483520675685e-09  -2.2303402499621226e-09  -4.921926301951573e-09  -1.0983388605720248e-09  
2.1076308182133747e-09  2.573241156340763e-09  -2.660069260479822e-09  5.31681944329196e-09  1.0999245737513247e-08  9.081063190872968e-09  1.0564905752366543e-08  4.924380857108273e-09  4.980353997978868e-09  -1.278440799380274e-09  -5.910719848933549e-10  -6.605098687724907e-10  3.283138226570963e-09  4.8516841311398995e-09  -8.100536379611382e-10  -1.0817838120763947e-09  -2.264455028495104e-09  7.398688638945727e-09  1.146816085873613e-08  1.2879641056815084e-08  2.905027926376323e-09  -3.3925826689436804e-09  -2.542312633796903e-09  2.292376735655947e-09  0.0  0.0  2.504942631895612e-08  -1.1304013533444035e-09  -7.55241276570599e-10  3.1053574522799386e-09  -9.906089160211702e-11  3.6009309776271294e-07  3.381499336321788e-07  2.75699634640296e-07  9.720305781743899e-09  6.7585510996629e-07  7.58166376708755e-08  -1.706251089691762e-08  -8.533574023174043e-09  2.7750477257193395e-07  -9.430176031322434e-09  3.2727713452420845e-07  
4.56067954024973e-09  3.446622212078274e-09  2.7489071677400555e-09  2.7941403221763538e-09  8.144466360223233e-09  3.231232107840084e-09  5.370096783999568e-09  7.58838251903266e-09  5.804940891688013e-09  6.232603737770134e-10  1.4870550463954485e-09  4.5249607576459835e-09  5.599806210890975e-09  8.877540940316293e-09  1.5091760816643309e-09  -2.1328923187505384e-09  2.8113440439594784e-09  1.2849625386637604e-08  1.0163288488068633e-08  1.1451784097100101e-08  1.269757779528189e-09  4.868394832236147e-09  3.4329983775546314e-09  1.7252465306999e-09  0.0  0.0  1.404658011021761e-08  8.585650801825403e-09  -1.581075127927009e-10  7.7916493468864e-10  -3.776226495388397e-09  2.833748553885971e-07  2.588602607713964e-07  2.105490311332442e-07  5.955646874744202e-09  7.58166376708755e-08  4.890737008393352e-07  -1.306821465365938e-08  -6.405788818991508e-09  2.1893846573863337e-07  -1.156063109324614e-08  2.493650791598237e-07  
-1.4375636134370126e-08  -4.191715059198294e-08  -2.5350726417941824e-08  -4.706743640155017e-08  -3.927899520360532e-08  -2.7275687538138605e-08  -1.4185659264303315e-08  -1.3448618477577267e-08  -1.5066628956846745e-08  -1.2163181591775649e-08  -1.4782375132925913e-08  -1.3305342192096866e-08  -2.5337672412588352e-08  -2.518091745417672e-08  -1.59488241569159e-08  -4.333757337541157e-08  -5.7130982541036907e-08  -6.509855844606943e-08  -6.3975825425198e-08  -6.542890221035722e-08  -2.9629237916166128e-08  -2.5616505951964902e-08  -2.788482873176524e-08  -3.064990491120369e-08  0.0  0.0  -4.935233541128515e-08  -5.063441850465193e-08  -3.1965923494928056e-08  -2.5153396627135006e-08  -1.988852609479432e-08  3.11916347664894e-08  9.63547884565513e-10  -7.083812215645016e-09  -5.223384445134607e-09  -1.706251089691762e-08  -1.3068214653659379e-08  1.8497245869897553e-06  -8.182601809511866e-08  1.5873630194997852e-08  -1.0702680550090055e-07  4.260732332876877e-08  
-1.3998153689019111e-08  -4.219011351127789e-08  -2.4838161575237428e-08  -4.522050256383898e-08  -3.940297568627159e-08  -2.644699707601115e-08  -1.3805091043825458e-08  -1.33477028158998e-08  -1.5287898292470552e-08  -1.2239767229998998e-08  -1.5106587253580182e-08  -1.3432505871756867e-08  -2.6101523930269983e-08  -2.568465000646887e-08  -1.600928828816511e-08  -4.430538640673122e-08  -5.7622425410753683e-08  -6.11004319912902e-08  -5.755639276284666e-08  -5.607592960801478e-08  -3.014522309012334e-08  -2.5982909438675196e-08  -2.8338110276709985e-08  -3.12188096612186e-08  0.0  0.0  -5.0070695869408425e-08  -5.097647774685948e-08  -3.223104885005924e-08  -2.515442248223269e-08  -1.9883690766457577e-08  -4.438361639044627e-09  -6.320881534063009e-09  -2.9082764767550133e-09  -5.151483520675685e-09  -8.533574023174041e-09  -6.405788818991506e-09  -8.182601809511863e-08  1.7582044568159179e-06  3.652575538176616e-08  -8.895554382168599e-08  4.294663528459113e-08  
1.5105146807668827e-08  4.3264421420599763e-08  3.769762757779149e-08  5.183315647612786e-08  4.417299340844655e-08  3.2489763299771553e-08  1.0579494107769336e-08  1.0051255067368767e-08  -4.569383085599433e-09  1.2350753220010472e-08  -3.072048826588836e-09  9.570208622984248e-09  1.1045277190105436e-08  1.8898010851227006e-08  2.7803433345194895e-09  2.8802401387971203e-08  2.8991866067357396e-08  3.259352685224667e-08  3.759171545773471e-08  5.2266190422317294e-08  2.7893902641423058e-08  1.8987140916543146e-08  1.0964897086654084e-08  2.60669969964126e-08  0.0  0.0  3.521554743029199e-08  4.516029417125675e-08  2.0213534585840222e-08  2.9129078720326745e-08  1.572334309347022e-08  1.1286183000148823e-06  1.0732384777409091e-06  8.541206836744992e-07  -2.2303402499621235e-09  2.77504772571934e-07  2.1893846573863334e-07  1.5873630194997855e-08  3.652575538176615e-08  2.7350138935675125e-06  -1.772716570988923e-08  1.0551723761956397e-06  
-1.4043285867273864e-08  -4.248014433057394e-08  -2.5176199498170282e-08  -4.745200015451042e-08  -4.0614048070593246e-08  -2.6542960197127042e-08  -1.3333345297852547e-08  -1.2657964047909327e-08  -1.4093040266665825e-08  -1.180489725338564e-08  -1.4042626438463527e-08  -1.2774822270452071e-08  -2.585275763253422e-08  -2.5603841360531733e-08  -1.5390673090627434e-08  -4.314948588126005e-08  -5.7647260041502566e-08  -6.650017392151038e-08  -6.587652479680893e-08  -6.675658053741986e-08  -2.9238938531837957e-08  -2.5465037993537366e-08  -2.739421820025064e-08  -3.062648859439145e-08  0.0  0.0  -5.074791366700027e-08  -5.094549960090654e-08  -3.124152280701612e-08  -2.4325795284515773e-08  -1.9118754416871386e-08  -1.4348232481268384e-08  1.911774643070493e-10  -1.722619364632397e-08  -4.9219263019515795e-09  -9.430176031322432e-09  -1.1560631093246138e-08  -1.0702680550090053e-07  -8.895554382168602e-08  -1.772716570988922e-08  2.0377370243078643e-06  9.797054759167092e-09  
1.5752122399705756e-08  3.772272884394868e-08  3.371922401160702e-08  7.053793662312377e-08  5.1111013517865344e-08  2.9040498091950817e-08  3.432391929052994e-09  -1.110488059515098e-09  -1.4345843864609083e-09  7.199146789737221e-09  1.3109473056645153e-08  8.716360154418188e-09  2.3465827808884037e-08  3.415138482266615e-08  2.2914047314402107e-08  2.358526567315033e-08  3.846532508923441e-08  4.980640002358371e-08  4.192644406845239e-08  3.376708011391333e-08  1.3141453405785899e-08  2.954349343364049e-08  3.562804467223713e-08  1.4817662288451939e-08  0.0  0.0  1.0318090367009383e-08  3.4428306712759756e-08  1.8346393530343386e-08  -8.982300816445658e-10  -3.289041161216766e-10  1.275555147900522e-06  1.1999746270361957e-06  9.574875550316983e-07  -1.0983388605720275e-09  3.2727713452420845e-07  2.493650791598237e-07  4.2607323328768784e-08  4.2946635284591126e-08  1.0551723761956397e-06  9.797054759167075e-09  3.2902018431495143e-06  
