48 48
5.351323699394351e-07  -1.2050417398666722e-08  -1.5223771825374054e-08  -1.7164874641966428e-08  -1.7803325061904204e-08  -1.540209000440403e-08  -1.8770840533599263e-08  -1.88638811733511e-08  -2.0221073110827405e-08  -1.9433608728413306e-08  -2.0078426070037647e-08  -1.1675415827311221e-08  -1.944881819481988e-08  0.0  -9.057640044551986e-09  -7.618477479411024e-09  -1.023627898606498e-08  -6.6917408737641485e-09  -8.003809890911359e-09  -1.1352234679341843e-08  0.0  -1.2560593249411376e-08  -1.1417038616685468e-08  0.0  0.0  0.0  -1.2612611249240074e-08  -1.4515774728057169e-08  -1.49237454691599e-08  -1.719063470281178e-08  -1.768204505955691e-08  -1.9451099527670773e-08  -1.4705837416219246e-08  -2.1103954110164037e-08  -2.531368137265569e-08  -4.0945006426918974e-08  -2.4109979441173622e-08  0.0  0.0  -9.785485402165487e-09  -1.3433827371969791e-08  -1.335731949626463e-08  -1.0133250908258556e-09  -1.1083628979224505e-10  -4.602674942905878e-09  2.3898880180357097e-09  -4.172577832359319e-09  -2.977396846419968e-09  
-1.2050417398666713e-08  6.563982814685597e-07  -1.6675195425918568e-08  -1.4862882838766295e-08  -1.4086675182755959e-08  -1.7147806984353588e-08  -8.496090112952038e-09  -1.1512071568971223e-08  -1.1026091077104737e-08  -1.2041671192468013e-08  -9.263073548699425e-09  -1.7861740792779367e-08  -1.3153676817758383e-08  0.0  -1.0493407554195282e-08  -1.065755766591083e-08  -6.77271176859725e-09  -8.273275378836198e-09  -9.210903645019207e-09  -5.220292539406813e-09  0.0  -5.670422456439617e-09  -5.13170701937264e-09  0.0  0.0  0.0  -2.2368632874316635e-08  -2.70842419963747e-08  -2.6146422319007305e-08  -3.138140559569194e-08  -3.0892616240916764e-08  -3.59973147508868e-08  -2.701349260121068e-08  -3.8532602724842936e-08  -4.575099458069453e-08  -6.838255379968213e-08  -3.214504083578071e-08  0.0  0.0  -1.3224452827296223e-08  -1.4580859244692123e-08  -1.5587842149145025e-08  4.9739280220491426e-09  -6.2956172648220825e-09  -7.35164658569569e-09  4.432732211335487e-09  -7.331561878333509e-09  -5.318809094881847e-09  
-1.5223771825374038e-08  -1.6675195425918578e-08  6.147957670679635e-07  -1.6583155080361037e-08  -1.741340347521328e-08  -1.8475266805749296e-08  -1.0695036426468703e-08  -1.4449520002596347e-08  -1.3718127327631249e-08  -1.370642266269353e-08  -1.1574455871725403e-08  -1.6537129852583494e-08  -1.4576886861010278e-08  0.0  -1.0758968880299361e-08  -1.0904256955288246e-08  -8.937704571160143e-09  -8.64824617946978e-09  -9.387802858331674e-09  -6.506359628088794e-09  0.0  -7.089568951192534e-09  -6.442273308178185e-09  0.0  0.0  0.0  -1.87310984624384e-08  -2.1884058340357943e-08  -2.112242609256939e-08  -2.5199140194022447e-08  -2.5517361972953397e-08  -2.9774906521115097e-08  -2.1400805244715212e-08  -3.090681828490671e-08  -3.7166647805355314e-08  -6.061943582788156e-08  -3.112596341541132e-08  0.0  0.0  -1.9748969316789773e-08  -1.4717453246685608e-08  -1.006307286136261e-08  -2.697727543212959e-10  -6.664326775328574e-09  -6.771878690053362e-09  7.029003364662763e-09  -6.2159051274061485e-09  -4.537336068577894e-09  
-1.7164874641966404e-08  -1.4862882838766279e-08  -1.658315508036104e-08  5.707428776259435e-07  -1.6981449755590135e-08  -1.7731074158328962e-08  -1.2051082442741395e-08  -1.516306344404793e-08  -1.560159344156445e-08  -1.702953865834893e-08  -1.3065392344689864e-08  -1.4139077042588304e-08  -1.807726342655891e-08  0.0  -1.085744941355133e-08  -9.40789757599311e-09  -8.828805275284048e-09  -8.225252777946522e-09  -8.88354388749598e-09  -7.301636447307975e-09  0.0  -8.057999870548254e-09  -7.228830653759276e-09  0.0  0.0  0.0  -1.5893083891268596e-08  -1.8607361147125495e-08  -1.9079651753919533e-08  -2.0865092429894266e-08  -2.2468682655246836e-08  -2.4305980776727287e-08  -1.8775706469500266e-08  -2.7190672835268573e-08  -3.1641062446786916e-08  -5.127975716270556e-08  -2.818957321992442e-08  0.0  0.0  -8.677853628502657e-09  -2.1680485186641975e-08  -1.4395069849138782e-08  -6.177835974066393e-10  -2.1609621895814284e-09  -5.393321556934704e-09  2.5157397075845383e-09  -4.817920742520964e-09  -3.2529247597078072e-09  
-1.7803325061904194e-08  -1.4086675182755959e-08  -1.7413403475213298e-08  -1.6981449755590135e-08  5.471700159236943e-07  -1.780095639859759e-08  -1.2452999082162013e-08  -1.5606135365025488e-08  -1.5524173726637407e-08  -1.620410055644758e-08  -1.3522843565798636e-08  -1.3598864310617305e-08  -1.5982439115217106e-08  0.0  -9.485462281469616e-09  -8.889021846989468e-09  -8.751189731561491e-09  -7.86136049721265e-09  -8.696162147989983e-09  -7.507461146602554e-09  0.0  -8.204526269078681e-09  -7.537462804478948e-09  0.0  0.0  0.0  -1.4688889108629268e-08  -1.7207299435358718e-08  -1.662833974613028e-08  -2.1239510207633593e-08  -1.9831237875664428e-08  -2.3301954384126425e-08  -1.7171970534880008e-08  -2.4264796796373816e-08  -2.934922757473178e-08  -4.825945895996288e-08  -2.774511076103705e-08  0.0  0.0  -1.5234164751220136e-08  -8.025308615445976e-09  -1.4562645814538208e-08  -1.4517493076404536e-09  -7.102495245538668e-09  -4.827823252817647e-09  1.791899812246705e-09  -4.500807630537128e-09  -3.1286151276940627e-09  
-1.5402090004404012e-08  -1.714780698435358e-08  -1.8475266805749286e-08  -1.773107415832896e-08  -1.7800956398597582e-08  6.009707137194883e-07  -1.0716421567282466e-08  -1.455478908511921e-08  -1.3887001530414663e-08  -1.4758314780627346e-08  -1.160543169213122e-08  -1.623550726114342e-08  -1.559067964790006e-08  0.0  -1.0596452550220146e-08  -9.872509006780418e-09  -7.897872449973987e-09  -8.55104432853988e-09  -9.431122342099737e-09  -6.476364607771284e-09  0.0  -7.02294683865664e-09  -6.426215791788549e-09  0.0  0.0  0.0  -1.7648426147895626e-08  -2.126972788875539e-08  -2.0642286510544082e-08  -2.5250920149252658e-08  -2.4630329986718628e-08  -2.812528820716648e-08  -2.120713562115192e-08  -2.954433988733407e-08  -3.546011292098091e-08  -5.879568520149273e-08  -2.907789808583212e-08  0.0  0.0  -1.557281557205954e-08  -1.2315417409340812e-08  -1.440590705111108e-08  1.7665211616349905e-09  -5.91935250521675e-09  -5.527660956499374e-09  -7.160638208984521e-10  -5.061450912448698e-09  -3.3452378364846166e-09  
-1.877084053359927e-08  -8.496090112952035e-09  -1.0695036426468703e-08  -1.2051082442741396e-08  -1.245299908216203e-08  -1.0716421567282472e-08  3.938252932575251e-07  -1.3501087870841732e-08  -1.437809777617404e-08  -1.3919850965602873e-08  -1.7288252160075344e-08  -8.004635373438717e-09  -1.4072500546212709e-08  0.0  -6.417092044715508e-09  -5.361437665546078e-09  -7.581030039660524e-09  -4.6788409361794e-09  -5.481925889224621e-09  -1.0098365087176377e-08  0.0  -1.180785027259743e-08  -1.076184567439159e-08  0.0  0.0  0.0  -8.247728838203486e-09  -1.0260202633983298e-08  -1.013140873881274e-08  -1.190704360762084e-08  -1.2066563798579921e-08  -1.3545632876443666e-08  -1.0124267601160756e-08  -1.4066055855977727e-08  -1.7262392563918516e-08  -2.8945233108045584e-08  -1.7029202820190226e-08  0.0  0.0  -6.593644534694914e-09  -6.787841549199678e-09  -6.642557043342736e-09  -8.377994306722991e-10  2.0333950978227768e-09  -4.215212209782362e-09  -2.7206179229212304e-09  -4.013817753395673e-09  -3.201448446568667e-09  
-1.886388117335109e-08  -1.1512071568971241e-08  -1.4449520002596359e-08  -1.516306344404794e-08  -1.56061353650255e-08  -1.4554789085119227e-08  -1.350108787084172e-08  4.792051495652246e-07  -1.5632504831276476e-08  -1.5557843366787903e-08  -1.4746890747021864e-08  -1.0987771907377563e-08  -1.6088348645715245e-08  0.0  -8.670714891772913e-09  -7.2674288184097235e-09  -8.306476651975258e-09  -6.3596871569181556e-09  -7.495436013730929e-09  -8.143724947495085e-09  0.0  -9.001393894930354e-09  -8.209438510167797e-09  0.0  0.0  0.0  -1.1468641050252074e-08  -1.402154126307699e-08  -1.3737925701616412e-08  -1.6547168153454292e-08  -1.646901037860405e-08  -1.8680443164676282e-08  -1.3828882008521621e-08  -1.8999129059139505e-08  -2.3458357611291597e-08  -3.908301171477434e-08  -2.305943177795187e-08  0.0  0.0  -1.2286987398977807e-08  -9.180243802456535e-09  -9.258069620529746e-09  -1.486026116157219e-09  1.2349465667984564e-09  -4.898856605453193e-09  -2.966437289197306e-09  -4.4799490296031105e-09  -3.3447957605777844e-09  
-2.0221073110827435e-08  -1.1026091077104717e-08  -1.3718127327631227e-08  -1.560159344156445e-08  -1.5524173726637404e-08  -1.3887001530414671e-08  -1.4378097776174048e-08  -1.5632504831276463e-08  4.779500698686824e-07  -1.593620752297162e-08  -1.569347922240602e-08  -1.0274688004922735e-08  -1.6215840684038086e-08  0.0  -8.38039441592053e-09  -6.982127114536335e-09  -8.467451678733675e-09  -6.186574350321076e-09  -7.129476481421201e-09  -8.686282875519881e-09  0.0  -9.66982148329338e-09  -8.758658381769768e-09  0.0  0.0  0.0  -1.1845293713597806e-08  -1.3692381615406557e-08  -1.3970590412010229e-08  -1.6016724095986338e-08  -1.6410659672529163e-08  -1.8515707485675885e-08  -1.3803153347094804e-08  -1.9950186460949973e-08  -2.405083642082275e-08  -3.805495301100479e-08  -2.213643402420847e-08  0.0  0.0  -9.089848808583889e-09  -1.2535667114180842e-08  -1.2281642293662679e-08  -4.166854738135853e-09  1.2849986304878996e-09  -4.145035155981295e-09  3.224430695004392e-09  -3.6124015834892175e-09  -2.4790274166945478e-09  
-1.943360872841327e-08  -1.2041671192467995e-08  -1.370642266269354e-08  -1.7029538658348913e-08  -1.620410055644758e-08  -1.4758314780627344e-08  -1.3919850965602892e-08  -1.5557843366787884e-08  -1.5936207522971612e-08  5.037798580936352e-07  -1.5223002090081025e-08  -1.139607889954088e-08  -1.9268048308647427e-08  0.0  -9.108481850052692e-09  -7.615139279560268e-09  -8.899556749486895e-09  -6.599048635061691e-09  -7.842771145788443e-09  -8.423600903147469e-09  0.0  -9.312225567205454e-09  -8.427894267660936e-09  0.0  0.0  0.0  -1.2358964862711294e-08  -1.527415243725815e-08  -1.5190913057718776e-08  -1.721410398397355e-08  -1.7791896169519666e-08  -1.93186958320611e-08  -1.5383877405134288e-08  -2.147003198591776e-08  -2.4668791857741178e-08  -4.16107935129472e-08  -2.3645705213531316e-08  0.0  0.0  -5.716806532706604e-09  -1.6745847408192775e-08  -1.1516950688761511e-08  2.3533330210881267e-09  -3.968007130366551e-09  -4.5299213945256406e-09  -4.260066841314265e-09  -4.070654993114116e-09  -2.8035042051739847e-09  
-2.0078426070037647e-08  -9.263073548699437e-09  -1.15744558717254e-08  -1.306539234468984e-08  -1.3522843565798632e-08  -1.1605431692131197e-08  -1.7288252160075334e-08  -1.474689074702187e-08  -1.569347922240602e-08  -1.5223002090081018e-08  4.32057795214734e-07  -8.462503255187611e-09  -1.559937963578963e-08  0.0  -7.037804270932935e-09  -5.828074444357303e-09  -8.935068032919028e-09  -5.110951992622963e-09  -5.991092714139856e-09  -1.1518831923211237e-08  0.0  -1.3314232231569544e-08  -1.2097462550681436e-08  0.0  0.0  0.0  -9.656756841454643e-09  -1.1544817830360682e-08  -1.1578733976630876e-08  -1.257416194288219e-08  -1.3776567640171597e-08  -1.535014760396157e-08  -1.1254372090080843e-08  -1.6644633580129074e-08  -1.9942853375570714e-08  -3.198645952189901e-08  -1.829612996954574e-08  0.0  0.0  -6.488402872815878e-09  -1.01209446814278e-08  -5.837656004422779e-09  -6.150368503516419e-09  4.3851665585427925e-10  -4.080226540684769e-09  1.8546006562945543e-09  -3.7029262146498424e-09  -2.6908276421683317e-09  
-1.1675415827311226e-08  -1.7861740792779386e-08  -1.6537129852583517e-08  -1.4139077042588335e-08  -1.3598864310617318e-08  -1.623550726114344e-08  -8.004635373438712e-09  -1.0987771907377593e-08  -1.0274688004922726e-08  -1.1396078899540895e-08  -8.462503255187608e-09  7.503617280440354e-07  -1.2371429475119286e-08  0.0  -9.615618111022751e-09  -1.1635817713652795e-08  -6.744806740527989e-09  -1.1278975942768528e-08  -1.2916462703367264e-08  -4.750294607840198e-09  0.0  -5.141192942496681e-09  -4.6695441030685275e-09  0.0  0.0  0.0  -2.687576338235451e-08  -3.381940034577015e-08  -3.2876012314505186e-08  -3.6420592583242014e-08  -3.951228354985403e-08  -4.33246551469855e-08  -3.261067318054551e-08  -4.7608457231230064e-08  -5.6182175327352055e-08  -7.62284540150012e-08  -4.533218328424376e-08  0.0  0.0  -1.2066842519211838e-08  -1.845126279208497e-08  -9.556893070631022e-09  -9.745294710713744e-09  -9.565518986649426e-09  -8.316949258844166e-09  -3.390504392497844e-09  -1.1074120088491864e-08  -8.206915404838803e-09  
-1.94488181948199e-08  -1.3153676817758422e-08  -1.457688686101027e-08  -1.8077263426558925e-08  -1.598243911521708e-08  -1.5590679647900065e-08  -1.407250054621272e-08  -1.608834864571525e-08  -1.6215840684038083e-08  -1.926804830864743e-08  -1.559937963578962e-08  -1.2371429475119292e-08  5.357766599824355e-07  0.0  -9.924062377416734e-09  -8.302978258525045e-09  -9.49012897477839e-09  -7.145491310673089e-09  -8.506710220277735e-09  -8.56553111646794e-09  0.0  -9.559651475898502e-09  -8.620516350275002e-09  0.0  0.0  0.0  -1.3332655204514444e-08  -1.6790908063065383e-08  -1.6678755428387613e-08  -1.8048927656258104e-08  -1.9657344021608296e-08  -2.092389341152041e-08  -1.6680100414206245e-08  -2.3425001272038375e-08  -2.670022835096807e-08  -4.546743939049904e-08  -2.5100443614095577e-08  0.0  0.0  -5.145112217579804e-09  -2.0142019204723425e-08  -9.199541249542046e-09  2.0901719492535487e-09  -3.878042158064684e-09  -5.326218864075096e-09  -5.757257971561857e-09  -4.9189407202490466e-09  -3.4942346929190375e-09  
0.0  0.0  0.0  0.0  0.0  0.0  0.0  0.0  0.0  0.0  0.0  0.0  0.0  4.053006066329793e-05  0.0  0.0  0.0  0.0  0.0  0.0  -1.64572733490379e-06  0.0  0.0  -2.0249188643642395e-06  -1.524410112828361e-06  -7.957072065984711e-07  0.0  0.0  0.0  0.0  0.0  0.0  0.0  0.0  0.0  0.0  0.0  -2.1961677251354653e-08  -2.7933704656359103e-08  0.0  0.0  0.0  0.0  0.0  0.0  0.0  0.0  0.0  
-9.057640044551993e-09  -1.0493407554195275e-08  -1.075896888029936e-08  -1.0857449413551346e-08  -9.485462281469611e-09  -1.059645255022014e-08  -6.417092044715502e-09  -8.670714891772923e-09  -8.380394415920533e-09  -9.108481850052692e-09  -7.037804270932935e-09  -9.615618111022751e-09  -9.924062377416732e-09  0.0  3.7342918986559784e-07  -6.44218820906562e-09  -5.094369271966444e-09  -5.575351221786708e-09  -5.886592606441247e-09  -3.94320227845496e-09  0.0  -4.368499536809751e-09  -3.909992485024359e-09  0.0  0.0  0.0  -1.1250473670577686e-08  -1.3451276690230237e-08  -1.3284086718221647e-08  -1.5319324586250274e-08  -1.5595677070967374e-08  -1.7919060177631983e-08  -1.344424872306278e-08  -1.9305228139087478e-08  -2.2822038962405015e-08  -3.705133463219469e-08  -1.8456863396323242e-08  0.0  0.0  -6.983086431868208e-09  -1.2055825103023697e-08  -9.066372622632554e-09  6.314387680852841e-10  -8.833413278331154e-10  -4.552003272881306e-09  2.109251804674344e-09  -4.131190478198831e-09  -3.1273110509553133e-09  
-7.618477479411024e-09  -1.0657557665910836e-08  -1.0904256955288253e-08  -9.407897575993107e-09  -8.889021846989459e-09  -9.872509006780413e-09  -5.361437665546077e-09  -7.267428818409723e-09  -6.982127114536336e-09  -7.615139279560267e-09  -5.828074444357301e-09  -1.1635817713652794e-08  -8.302978258525046e-09  0.0  -6.442188209065622e-09  3.9640150144081227e-07  -4.567029228928796e-09  -6.112078504375772e-09  -6.799252487921959e-09  -3.2635445548721793e-09  0.0  -3.5693831493702576e-09  -3.2499586214053777e-09  0.0  0.0  0.0  -1.2841919713629643e-08  -1.5860704886735007e-08  -1.5135128748092118e-08  -1.7864420076076845e-08  -1.7947789698239512e-08  -2.0752947637726792e-08  -1.5491628854727445e-08  -2.2589140012078987e-08  -2.6506993119476795e-08  -4.293866992823609e-08  -2.148188291377501e-08  0.0  0.0  -6.487893129185747e-09  -8.140936022970798e-09  -7.560704119270958e-09  -2.3788217085540306e-09  -6.840431677093382e-09  -4.792221008502519e-09  5.695470541982054e-10  -5.2018423313677354e-09  -3.91994142074649e-09  
-1.0236278986064986e-08  -6.772711768597239e-09  -8.937704571160138e-09  -8.828805275284055e-09  -8.751189731561497e-09  -7.897872449973987e-09  -7.581030039660524e-09  -8.306476651975258e-09  -8.46745167873368e-09  -8.899556749486895e-09  -8.935068032919024e-09  -6.7448067405279935e-09  -9.490128974778394e-09  0.0  -5.094369271966442e-09  -4.5670292289287955e-09  2.938305571157595e-07  -3.869057075106646e-09  -4.16623368396428e-09  -4.825380122011692e-09  0.0  -5.6446886578931545e-09  -5.117078988219261e-09  0.0  0.0  0.0  -8.299587948250531e-09  -9.316227482563858e-09  -9.215963025434554e-09  -9.704736728506456e-09  -1.12789513634784e-08  -1.2567155798268904e-08  -8.991854424715391e-09  -1.35296026885643e-08  -1.557891901151807e-08  -2.5193126189707236e-08  -1.4494655152966033e-08  0.0  0.0  -8.856141723276036e-09  -1.2696505263932378e-08  -1.477265860048465e-09  7.399047722999763e-10  -4.521956555479415e-09  -2.730776746343672e-09  6.088731171084997e-09  -2.4387773587694617e-09  -1.7035168577499124e-09  
-6.6917408737641435e-09  -8.273275378836181e-09  -8.648246179469784e-09  -8.225252777946517e-09  -7.861360497212632e-09  -8.551044328539874e-09  -4.678840936179399e-09  -6.359687156918158e-09  -6.186574350321066e-09  -6.5990486350616805e-09  -5.110951992622962e-09  -1.1278975942768514e-08  -7.145491310673089e-09  0.0  -5.575351221786708e-09  -6.1120785043757745e-09  -3.869057075106644e-09  4.1810297473682296e-07  -7.1394404092976516e-09  -2.783028228673151e-09  0.0  -3.1401551049041393e-09  -2.8342675224660038e-09  0.0  0.0  0.0  -1.55744286952788e-08  -2.1174451857411982e-08  -1.9856418334879647e-08  -2.1727727966747727e-08  -2.3370536752303213e-08  -2.588614742517788e-08  -2.0200329756026987e-08  -2.9206239262304472e-08  -3.332283751542757e-08  -3.5827292729673555e-08  -2.4650866475141835e-08  0.0  0.0  -4.2091296103721604e-10  -1.214531767486239e-08  -4.045150292594692e-09  -9.658836517106732e-09  -9.843563054737676e-09  -3.859831790712595e-09  -9.785438113949488e-09  -5.104661977647596e-09  -5.531413079023007e-09  
-8.003809890911359e-09  -9.210903645019207e-09  -9.387802858331666e-09  -8.883543887495986e-09  -8.696162147989974e-09  -9.431122342099744e-09  -5.481925889224613e-09  -7.495436013730925e-09  -7.129476481421197e-09  -7.84277114578844e-09  -5.991092714139852e-09  -1.2916462703367269e-08  -8.506710220277737e-09  0.0  -5.886592606441248e-09  -6.799252487921957e-09  -4.166233683964286e-09  -7.139440409297654e-09  4.351189380435416e-07  -3.285530609907188e-09  0.0  -3.6350180253910293e-09  -3.31760606312984e-09  0.0  0.0  0.0  -1.4234572401065312e-08  -1.9218329232717607e-08  -1.837131545441254e-08  -2.1018702303189503e-08  -2.1724435860692018e-08  -2.3969356315230576e-08  -1.8614924457645046e-08  -2.5877218688596835e-08  -3.086308835097626e-08  -4.4772335432742307e-08  -2.467903558925665e-08  0.0  0.0  -4.292587474445649e-09  -8.590362974817367e-09  -7.52554540309771e-09  -5.8449575318019886e-09  -1.271250290905975e-09  -5.255256526275191e-09  -1.173052110485805e-08  -6.5503900653694924e-09  -4.974107536199459e-09  
-1.1352234679341833e-08  -5.220292539406819e-09  -6.506359628088794e-09  -7.301636447307984e-09  -7.507461146602549e-09  -6.476364607771278e-09  -1.0098365087176385e-08  -8.143724947495083e-09  -8.686282875519876e-09  -8.423600903147477e-09  -1.1518831923211239e-08  -4.750294607840196e-09  -8.565531116467943e-09  0.0  -3.943202278454961e-09  -3.263544554872178e-09  -4.825380122011691e-09  -2.783028228673151e-09  -3.285530609907188e-09  2.4245684830490816e-07  0.0  -9.020584318356096e-09  -7.926704260430772e-09  0.0  0.0  0.0  -4.936761923020268e-09  -6.491086778171464e-09  -6.2624102643032616e-09  -7.210579147423604e-09  -7.3844908178463144e-09  -8.235966467579243e-09  -6.254582454134299e-09  -8.8282894741531e-09  -1.0712084970765466e-08  -1.7739418497464424e-08  -1.0084745856559724e-08  0.0  0.0  -2.6634654429533504e-09  -2.776262794905088e-09  -3.5877338699997726e-09  -6.087161671714768e-09  -2.888582843879641e-10  -2.0841424498022784e-09  -3.603661869896847e-09  -1.7934268365695714e-09  -1.141403267770334e-09  
0.0  0.0  0.0  0.0  0.0  0.0  0.0  0.0  0.0  0.0  0.0  0.0  0.0  -1.64572733490379e-06  0.0  0.0  0.0  0.0  0.0  0.0  4.111427950537174e-05  0.0  0.0  -2.181258652660684e-06  -1.630979993696032e-06  -8.444347821518145e-07  0.0  0.0  0.0  0.0  0.0  0.0  0.0  0.0  0.0  0.0  0.0  -2.683085926016478e-08  -2.343589274271949e-08  0.0  0.0  0.0  0.0  0.0  0.0  0.0  0.0  0.0  
-1.2560593249411373e-08  -5.670422456439623e-09  -7.089568951192531e-09  -8.057999870548253e-09  -8.204526269078674e-09  -7.022946838656645e-09  -1.1807850272597431e-08  -9.001393894930348e-09  -9.669821483293383e-09  -9.312225567205452e-09  -1.3314232231569532e-08  -5.1411929424966776e-09  -9.559651475898499e-09  0.0  -4.3684995368097476e-09  -3.5693831493702576e-09  -5.644688657893163e-09  -3.1401551049041397e-09  -3.6350180253910264e-09  -9.020584318356092e-09  0.0  2.7586378194452844e-07  -1.0722583677395143e-08  0.0  0.0  0.0  -5.6582374360519834e-09  -7.283405473116042e-09  -6.56098906674238e-09  -8.734431743054988e-09  -7.769149647427434e-09  -9.562325774477661e-09  -7.068129143105501e-09  -9.643532646154748e-09  -1.1644849470695574e-08  -1.981725093772915e-08  -1.1548135726098138e-08  0.0  0.0  -5.7043015214558875e-09  -1.7345017086423341e-09  -4.28467710510367e-09  -1.7321959091434481e-09  -3.7443796101100584e-09  -2.3395097733273033e-09  -2.8124177827075716e-09  -1.9752416009424594e-09  -1.3878657898984118e-09  
-1.1417038616685463e-08  -5.131707019372646e-09  -6.442273308178185e-09  -7.228830653759277e-09  -7.537462804478952e-09  -6.426215791788548e-09  -1.0761845674391585e-08  -8.209438510167802e-09  -8.75865838176977e-09  -8.427894267660933e-09  -1.2097462550681436e-08  -4.6695441030685275e-09  -8.620516350275e-09  0.0  -3.909992485024359e-09  -3.2499586214053727e-09  -5.117078988219259e-09  -2.834267522466002e-09  -3.3176060631298433e-09  -7.926704260430772e-09  0.0  -1.0722583677395148e-08  2.526553234911159e-07  0.0  0.0  0.0  -5.433636123094718e-09  -6.655077103816475e-09  -6.700868733207132e-09  -6.936099794924504e-09  -7.930781349963636e-09  -8.540743688980888e-09  -6.5478568636751914e-09  -9.389419057410323e-09  -1.090087407354758e-08  -1.7900822268601713e-08  -1.0295793968871674e-08  0.0  0.0  -3.0571567873773376e-09  -8.872114938853719e-09  -2.8635547811125644e-09  -6.807751774748763e-10  2.9084475101540263e-10  -2.1094576242840714e-09  -3.878730418012821e-10  -1.9219345113645426e-09  -1.3584143188878508e-09  
0.0  0.0  0.0  0.0  0.0  0.0  0.0  0.0  0.0  0.0  0.0  0.0  0.0  -2.024918864364239e-06  0.0  0.0  0.0  0.0  0.0  0.0  -2.1812586526606846e-06  0.0  0.0  0.00012402488847241717  -1.99546053780967e-06  -1.0171017244213306e-06  0.0  0.0  0.0  0.0  0.0  0.0  0.0  0.0  0.0  0.0  0.0  -2.143632377475469e-08  -3.000599523069667e-09  0.0  0.0  0.0  0.0  0.0  0.0  0.0  0.0  0.0  
0.0  0.0  0.0  0.0  0.0  0.0  0.0  0.0  0.0  0.0  0.0  0.0  0.0  -1.5244101128283614e-06  0.0  0.0  0.0  0.0  0.0  0.0  -1.630979993696032e-06  0.0  0.0  -1.9954605378096704e-06  0.00021136739636876117  -8.193868805966695e-07  0.0  0.0  0.0  0.0  0.0  0.0  0.0  0.0  0.0  0.0  0.0  -6.36150495906027e-09  -4.408815939596883e-08  0.0  0.0  0.0  0.0  0.0  0.0  0.0  0.0  0.0  
0.0  0.0  0.0  0.0  0.0  0.0  0.0  0.0  0.0  0.0  0.0  0.0  0.0  -7.957072065984712e-07  0.0  0.0  0.0  0.0  0.0  0.0  -8.444347821518144e-07  0.0  0.0  -1.0171017244213306e-06  -8.193868805966695e-07  0.00024369845393739796  0.0  0.0  0.0  0.0  0.0  0.0  0.0  0.0  0.0  0.0  0.0  3.648374833896414e-10  -4.8192428491539046e-08  0.0  0.0  0.0  0.0  0.0  0.0  0.0  0.0  0.0  
-1.2612611249240135e-08  -2.236863287431663e-08  -1.8731098462438527e-08  -1.5893083891268623e-08  -1.4688889108629328e-08  -1.764842614789568e-08  -8.247728838203525e-09  -1.1468641050252099e-08  -1.1845293713597786e-08  -1.2358964862711299e-08  -9.656756841454656e-09  -2.6875763382354516e-08  -1.3332655204514428e-08  0.0  -1.1250473670577717e-08  -1.2841919713629673e-08  -8.299587948250528e-09  -1.5574428695278844e-08  -1.4234572401065305e-08  -4.936761923020236e-09  0.0  -5.65823743605198e-09  -5.433636123094744e-09  0.0  0.0  0.0  4.498533460325468e-06  -3.433230014585719e-07  -4.1282533280902095e-07  -4.232679586164473e-07  -3.630003329848626e-07  -3.741383793938217e-07  -5.055087177736365e-07  -3.5019758951010546e-07  -3.179852200602511e-07  -9.64684302916652e-08  -6.084757747501919e-08  0.0  0.0  3.614492561623354e-08  5.099435034314041e-08  2.3183402909677028e-08  1.4448446620908702e-08  2.3479217334715906e-08  -1.7591040171120972e-08  -3.1563466090393456e-08  -2.4322339343905888e-08  -5.1483848392985645e-08  
-1.4515774728057128e-08  -2.708424199637473e-08  -2.1884058340357913e-08  -1.8607361147125614e-08  -1.720729943535871e-08  -2.1269727888755355e-08  -1.0260202633983321e-08  -1.402154126307698e-08  -1.3692381615406573e-08  -1.5274152437258144e-08  -1.1544817830360672e-08  -3.3819400345770186e-08  -1.6790908063065377e-08  0.0  -1.3451276690230219e-08  -1.586070488673505e-08  -9.316227482563877e-09  -2.1174451857412006e-08  -1.9218329232717597e-08  -6.4910867781714485e-09  0.0  -7.283405473116042e-09  -6.655077103816456e-09  0.0  0.0  0.0  -3.4332300145857206e-07  4.4997439797494165e-06  -3.856703861864759e-07  -4.480514790544201e-07  -4.0913894600674917e-07  -3.941627800475816e-07  -5.11573305171751e-07  -4.0810191840098506e-07  -3.68953577463467e-07  -1.2166544255937215e-07  -7.808793263544214e-08  0.0  0.0  1.305683488579486e-08  3.155835519609453e-08  -2.1721799462555633e-08  1.5013577569502287e-08  2.592873826859925e-08  -3.040394348177203e-08  3.7479707177467396e-08  -4.539903485963201e-08  -6.012081081719692e-08  
-1.4923745469159846e-08  -2.614642231900729e-08  -2.112242609256935e-08  -1.907965175391953e-08  -1.6628339746130257e-08  -2.064228651054404e-08  -1.0131408738812723e-08  -1.3737925701616377e-08  -1.3970590412010184e-08  -1.5190913057718783e-08  -1.15787339766309e-08  -3.287601231450514e-08  -1.6678755428387603e-08  0.0  -1.3284086718221616e-08  -1.5135128748092098e-08  -9.215963025434566e-09  -1.985641833487962e-08  -1.8371315454412484e-08  -6.262410264303238e-09  0.0  -6.56098906674236e-09  -6.70086873320714e-09  0.0  0.0  0.0  -4.12825332809021e-07  -3.8567038618647537e-07  4.649590317407156e-06  -3.9868079502167954e-07  -4.5946232567260015e-07  -4.004133605613365e-07  -5.211244705568828e-07  -4.028252374899186e-07  -3.950693386863103e-07  -1.161639849266098e-07  -7.534412833270267e-08  0.0  0.0  -1.6791633774486734e-08  7.049870618873242e-08  7.95212260550941e-09  2.2116875094812863e-08  -1.5526715945470407e-08  -2.964658959675199e-08  3.92009916001977e-09  -3.793198080693638e-08  -5.11788274727694e-08  
-1.719063470281174e-08  -3.138140559569186e-08  -2.5199140194022473e-08  -2.086509242989424e-08  -2.123951020763357e-08  -2.525092014925272e-08  -1.1907043607620847e-08  -1.6547168153454292e-08  -1.6016724095986378e-08  -1.7214103983973582e-08  -1.2574161942882252e-08  -3.642059258324194e-08  -1.804892765625808e-08  0.0  -1.5319324586250284e-08  -1.7864420076076825e-08  -9.704736728506443e-09  -2.1727727966747684e-08  -2.1018702303189493e-08  -7.210579147423624e-09  0.0  -8.734431743055e-09  -6.936099794924477e-09  0.0  0.0  0.0  -4.232679586164473e-07  -4.480514790544206e-07  -3.9868079502167954e-07  5.065476689666347e-06  -3.832486257561713e-07  -5.050141529601906e-07  -5.369010493379929e-07  -3.90731650406334e-07  -3.8223274743071463e-07  -1.3897678735490695e-07  -8.025831368098474e-08  0.0  0.0  8.512495796087075e-08  -1.8853127549175735e-08  1.2135752107753907e-07  -2.9381301185231863e-09  4.71914552437966e-08  -2.8503510498479324e-08  5.450636623522271e-08  -4.3707524545186394e-08  -5.228839771480897e-08  
-1.7682045059556905e-08  -3.089261624091683e-08  -2.5517361972953334e-08  -2.2468682655246863e-08  -1.983123787566443e-08  -2.463032998671863e-08  -1.2066563798579908e-08  -1.6469010378603994e-08  -1.6410659672529153e-08  -1.7791896169519726e-08  -1.3776567640171607e-08  -3.951228354985406e-08  -1.9657344021608316e-08  0.0  -1.559567707096737e-08  -1.794778969823949e-08  -1.1278951363478436e-08  -2.3370536752303184e-08  -2.172443586069203e-08  -7.384490817846304e-09  0.0  -7.769149647427454e-09  -7.930781349963648e-09  0.0  0.0  0.0  -3.6300033298486294e-07  -4.091389460067495e-07  -4.594623256725999e-07  -3.832486257561709e-07  4.59572279361614e-06  -4.2931227413881193e-07  -4.487197801064315e-07  -4.2646550244391374e-07  -4.119136350668166e-07  -1.3651993621491467e-07  -8.924326351463892e-08  0.0  0.0  2.1300850838960356e-10  7.969538004848406e-08  -2.658630728241074e-08  2.69127106747665e-08  -1.7318173945522112e-08  -2.976787251758345e-08  -3.496840125000061e-09  -3.7124889904158825e-08  -4.170936921998148e-08  
-1.9451099527670816e-08  -3.599731475088685e-08  -2.9774906521115044e-08  -2.4305980776727273e-08  -2.3301954384126415e-08  -2.8125288207166456e-08  -1.3545632876443676e-08  -1.868044316467631e-08  -1.851570748567584e-08  -1.931869583206104e-08  -1.535014760396155e-08  -4.332465514698552e-08  -2.0923893411520437e-08  0.0  -1.7919060177631973e-08  -2.0752947637726805e-08  -1.2567155798268906e-08  -2.5886147425177894e-08  -2.3969356315230553e-08  -8.23596646757926e-09  0.0  -9.56232577447765e-09  -8.54074368898091e-09  0.0  0.0  0.0  -3.741383793938218e-07  -3.9416278004758134e-07  -4.004133605613363e-07  -5.05014152960191e-07  -4.293122741388118e-07  4.8343871683188705e-06  -4.3988027974408504e-07  -4.554669444322546e-07  -4.754461826816294e-07  -1.6077922865402171e-07  -9.939950117279505e-08  0.0  0.0  6.492848861564256e-08  6.053891112902598e-09  -7.238454158021504e-09  6.10926452486236e-09  5.688245924858842e-09  -3.336925297841682e-08  -1.594042559501257e-08  -4.1936244086325645e-08  -4.653487090624344e-08  
-1.4705837416219227e-08  -2.7013492601210665e-08  -2.140080524471529e-08  -1.8775706469500246e-08  -1.7171970534879985e-08  -2.1207135621151947e-08  -1.0124267601160746e-08  -1.3828882008521667e-08  -1.380315334709484e-08  -1.5383877405134295e-08  -1.1254372090080811e-08  -3.261067318054552e-08  -1.6680100414206228e-08  0.0  -1.3444248723062807e-08  -1.549162885472751e-08  -8.991854424715384e-09  -2.0200329756027004e-08  -1.8614924457645132e-08  -6.25458245413434e-09  0.0  -7.068129143105488e-09  -6.547856863675193e-09  0.0  0.0  0.0  -5.055087177736362e-07  -5.11573305171751e-07  -5.211244705568832e-07  -5.369010493379925e-07  -4.4871978010643155e-07  -4.3988027974408477e-07  5.4419016661969464e-06  -4.607848058108472e-07  -4.20410745765648e-07  -1.197213263667422e-07  -7.44868965116015e-08  0.0  0.0  -8.945050460014735e-10  3.427252197078084e-08  2.4018370631740395e-08  -7.622834523953276e-09  1.1766631344826996e-08  -3.041897220640839e-08  2.7310334921801245e-08  -5.7081714677366394e-08  -9.042216314887309e-08  
-2.110395411016405e-08  -3.853260272484283e-08  -3.0906818284906654e-08  -2.7190672835268523e-08  -2.426479679637387e-08  -2.9544339887334138e-08  -1.4066055855977706e-08  -1.899912905913948e-08  -1.9950186460949936e-08  -2.1470031985917687e-08  -1.6644633580129057e-08  -4.760845723123002e-08  -2.3425001272038322e-08  0.0  -1.9305228139087455e-08  -2.2589140012078938e-08  -1.3529602688564304e-08  -2.9206239262304432e-08  -2.587721868859673e-08  -8.828289474153067e-09  0.0  -9.643532646154746e-09  -9.389419057410322e-09  0.0  0.0  0.0  -3.501975895101055e-07  -4.0810191840098485e-07  -4.028252374899185e-07  -3.9073165040633415e-07  -4.264655024439142e-07  -4.554669444322548e-07  -4.607848058108475e-07  4.7493301587159875e-06  -4.785415739721246e-07  -1.693524838999305e-07  -1.1119632568497054e-07  0.0  0.0  -6.071023110778007e-08  5.228669598351792e-08  5.595024923889276e-09  2.9468703470351667e-08  3.426170392970153e-08  -3.339394138973827e-08  -5.022716631453289e-08  -4.6328202693362014e-08  -5.4616288108753104e-08  
-2.531368137265571e-08  -4.5750994580694483e-08  -3.716664780535528e-08  -3.1641062446786916e-08  -2.9349227574731747e-08  -3.546011292098085e-08  -1.7262392563918466e-08  -2.3458357611291613e-08  -2.4050836420822812e-08  -2.4668791857741198e-08  -1.994285337557067e-08  -5.618217532735203e-08  -2.670022835096807e-08  0.0  -2.2822038962404975e-08  -2.650699311947675e-08  -1.557891901151806e-08  -3.3322837515427586e-08  -3.086308835097627e-08  -1.0712084970765507e-08  0.0  -1.164484947069559e-08  -1.0900874073547547e-08  0.0  0.0  0.0  -3.1798522006025123e-07  -3.6895357746346677e-07  -3.9506933868631023e-07  -3.8223274743071484e-07  -4.1191363506681623e-07  -4.7544618268162923e-07  -4.2041074576564795e-07  -4.785415739721247e-07  4.722361978378598e-06  -2.0472132960856202e-07  -1.2996251027960564e-07  0.0  0.0  -2.5155041150820198e-08  -1.24562293834535e-08  1.1813809873877965e-09  2.8913741564772575e-08  -3.9210492819858426e-08  -3.5404210756835484e-08  -7.444867261900242e-08  -4.8663226267477304e-08  -6.126089078487041e-08  
-4.0945006426919014e-08  -6.838255379968213e-08  -6.06194358278815e-08  -5.1279757162705485e-08  -4.8259458959962857e-08  -5.8795685201492735e-08  -2.8945233108045587e-08  -3.908301171477432e-08  -3.8054953011004785e-08  -4.161079351294715e-08  -3.1986459521899016e-08  -7.62284540150012e-08  -4.5467439390499034e-08  0.0  -3.705133463219469e-08  -4.293866992823608e-08  -2.5193126189707246e-08  -3.582729272967356e-08  -4.477233543274231e-08  -1.7739418497464397e-08  0.0  -1.9817250937729118e-08  -1.7900822268601717e-08  0.0  0.0  0.0  -9.646843029166517e-08  -1.2166544255937194e-07  -1.1616398492660964e-07  -1.389767873549069e-07  -1.3651993621491485e-07  -1.6077922865402148e-07  -1.197213263667423e-07  -1.6935248389993068e-07  -2.04721329608562e-07  2.5138727215769512e-06  -1.4601432024324089e-07  0.0  0.0  -5.253141483126821e-08  -4.871507383586365e-08  -6.24887368647518e-08  -1.6563091806525062e-08  -1.214011835947144e-09  -3.2464530913923605e-08  -6.47591736196016e-09  -3.6963814422849455e-08  -2.7541862146765692e-08  
-2.4109979441173602e-08  -3.214504083578071e-08  -3.112596341541136e-08  -2.8189573219924414e-08  -2.7745110761037054e-08  -2.9077898085832113e-08  -1.7029202820190246e-08  -2.305943177795191e-08  -2.2136434024208463e-08  -2.3645705213531312e-08  -1.8296129969545757e-08  -4.533218328424379e-08  -2.5100443614095603e-08  0.0  -1.8456863396323232e-08  -2.1481882913775003e-08  -1.4494655152966028e-08  -2.4650866475141825e-08  -2.4679035589256678e-08  -1.0084745856559711e-08  0.0  -1.154813572609815e-08  -1.0295793968871689e-08  0.0  0.0  0.0  -6.08475774750192e-08  -7.808793263544201e-08  -7.53441283327027e-08  -8.025831368098465e-08  -8.924326351463897e-08  -9.939950117279505e-08  -7.448689651160147e-08  -1.1119632568497049e-07  -1.2996251027960571e-07  -1.4601432024324083e-07  1.556202090048816e-06  0.0  0.0  -1.3875280564248133e-08  -4.618953835350826e-08  -1.6251121450089393e-08  -5.405837433048162e-08  -1.898767012370644e-08  -1.6250996797941194e-08  -5.027861551524183e-09  -2.062206830436194e-08  -1.8063489060641118e-08  
0.0  0.0  0.0  0.0  0.0  0.0  0.0  0.0  0.0  0.0  0.0  0.0  0.0  -2.1961677251354653e-08  0.0  0.0  0.0  0.0  0.0  0.0  -2.6830859260164775e-08  0.0  0.0  -2.1436323774754687e-08  -6.361504959060268e-09  3.648374833896414e-10  0.0  0.0  0.0  0.0  0.0  0.0  0.0  0.0  0.0  0.0  0.0  0.0003001778833896024  -2.4002357239822033e-08  0.0  0.0  0.0  0.0  0.0  0.0  0.0  0.0  0.0  
0.0  0.0  0.0  0.0  0.0  0.0  0.0  0.0  0.0  0.0  0.0  0.0  0.0  -2.7933704656359103e-08  0.0  0.0  0.0  0.0  0.0  0.0  -2.343589274271949e-08  0.0  0.0  -3.000599523069667e-09  -4.408815939596882e-08  -4.8192428491539046e-08  0.0  0.0  0.0  0.0  0.0  0.0  0.0  0.0  0.0  0.0  0.0  -2.400235723982203e-08  0.00035178575466996906  0.0  0.0  0.0  0.0  0.0  0.0  0.0  0.0  0.0  
-9.785485402165483e-09  -1.3224452827296226e-08  -1.9748969316789773e-08  -8.677853628502653e-09  -1.5234164751220132e-08  -1.5572815572059547e-08  -6.593644534694909e-09  -1.2286987398977804e-08  -9.089848808583887e-09  -5.716806532706601e-09  -6.488402872815879e-09  -1.2066842519211841e-08  -5.145112217579804e-09  0.0  -6.983086431868211e-09  -6.487893129185746e-09  -8.856141723276037e-09  -4.209129610372182e-10  -4.2925874744456504e-09  -2.6634654429533533e-09  0.0  -5.704301521455887e-09  -3.0571567873773372e-09  0.0  0.0  0.0  3.614492561623353e-08  1.3056834885794833e-08  -1.6791633774486737e-08  8.512495796087074e-08  2.130085083896085e-10  6.492848861564257e-08  -8.945050460014588e-10  -6.071023110778004e-08  -2.5155041150820207e-08  -5.253141483126822e-08  -1.3875280564248136e-08  0.0  0.0  8.319318424979318e-07  1.8004304924803934e-07  1.4077271773550297e-07  1.1985574493612587e-07  1.4206593957669305e-07  5.238049862004738e-09  1.1047307301915332e-07  2.250495215893816e-09  7.0489477072154765e-09  
-1.3433827371969795e-08  -1.458085924469212e-08  -1.471745324668561e-08  -2.168048518664197e-08  -8.02530861544598e-09  -1.2315417409340817e-08  -6.78784154919968e-09  -9.180243802456528e-09  -1.2535667114180837e-08  -1.6745847408192775e-08  -1.0120944681427806e-08  -1.8451262792084972e-08  -2.0142019204723422e-08  0.0  -1.2055825103023704e-08  -8.140936022970798e-09  -1.2696505263932381e-08  -1.2145317674862399e-08  -8.590362974817366e-09  -2.776262794905087e-09  0.0  -1.7345017086423347e-09  -8.872114938853716e-09  0.0  0.0  0.0  5.0994350343140385e-08  3.15583551960945e-08  7.049870618873242e-08  -1.8853127549175715e-08  7.969538004848406e-08  6.0538911129025816e-09  3.4272521970780836e-08  5.228669598351794e-08  -1.2456229383453504e-08  -4.871507383586362e-08  -4.618953835350827e-08  0.0  0.0  1.8004304924803932e-07  1.0014992897740036e-06  1.8777531611031435e-07  1.427879229976872e-07  1.399364979436802e-07  -4.411122920559287e-09  1.5021951455460744e-07  5.367210190987561e-09  -9.940198197972389e-10  
-1.3357319496264629e-08  -1.5587842149145028e-08  -1.0063072861362604e-08  -1.4395069849138778e-08  -1.4562645814538216e-08  -1.4405907051111083e-08  -6.642557043342733e-09  -9.258069620529753e-09  -1.2281642293662685e-08  -1.1516950688761513e-08  -5.837656004422779e-09  -9.55689307063102e-09  -9.199541249542045e-09  0.0  -9.066372622632556e-09  -7.560704119270961e-09  -1.4772658600484634e-09  -4.0451502925946944e-09  -7.525545403097712e-09  -3.587733869999775e-09  0.0  -4.284677105103673e-09  -2.863554781112562e-09  0.0  0.0  0.0  2.3183402909677048e-08  -2.172179946255566e-08  7.952122605509395e-09  1.2135752107753907e-07  -2.658630728241074e-08  -7.2384541580215005e-09  2.4018370631740392e-08  5.5950249238892965e-09  1.1813809873878035e-09  -6.248873686475181e-08  -1.6251121450089396e-08  0.0  0.0  1.4077271773550297e-07  1.8777531611031435e-07  8.817569937655075e-07  1.1809793104450869e-07  1.2363077624645804e-07  1.110559693034323e-09  1.4164382711868242e-07  2.933524826150904e-09  9.156753811669455e-09  
-1.0133250908258554e-09  4.973928022049134e-09  -2.697727543212958e-10  -6.17783597406642e-10  -1.4517493076404569e-09  1.766521161634988e-09  -8.377994306722982e-10  -1.4860261161572156e-09  -4.166854738135852e-09  2.353333021088127e-09  -6.150368503516421e-09  -9.745294710713741e-09  2.0901719492535512e-09  0.0  6.314387680852834e-10  -2.378821708554031e-09  7.399047722999751e-10  -9.658836517106735e-09  -5.844957531801987e-09  -6.087161671714767e-09  0.0  -1.7321959091434498e-09  -6.807751774748749e-10  0.0  0.0  0.0  1.4448446620908686e-08  1.501357756950228e-08  2.211687509481286e-08  -2.938130118523189e-09  2.69127106747665e-08  6.10926452486235e-09  -7.622834523953276e-09  2.946870347035167e-08  2.891374156477256e-08  -1.656309180652506e-08  -5.40583743304816e-08  0.0  0.0  1.1985574493612587e-07  1.4278792299768716e-07  1.1809793104450869e-07  8.878500643632794e-07  1.8540253645081615e-07  1.683164869245858e-08  1.7499246063750477e-07  1.3375768992931466e-08  -2.5501685940398403e-09  
-1.1083628979224742e-10  -6.2956172648220874e-09  -6.664326775328574e-09  -2.1609621895814317e-09  -7.10249524553867e-09  -5.919352505216753e-09  2.033395097822776e-09  1.2349465667984588e-09  1.2849986304878992e-09  -3.968007130366551e-09  4.385166558542793e-10  -9.565518986649426e-09  -3.878042158064681e-09  0.0  -8.833413278331164e-10  -6.840431677093386e-09  -4.521956555479414e-09  -9.843563054737681e-09  -1.271250290905975e-09  -2.888582843879632e-10  0.0  -3.74437961011006e-09  2.9084475101540346e-10  0.0  0.0  0.0  2.3479217334715923e-08  2.592873826859924e-08  -1.55267159454704e-08  4.7191455243796595e-08  -1.7318173945522116e-08  5.688245924858846e-09  1.1766631344826992e-08  3.426170392970154e-08  -3.921049281985844e-08  -1.2140118359471446e-09  -1.8987670123706447e-08  0.0  0.0  1.4206593957669305e-07  1.3993649794368022e-07  1.236307762464581e-07  1.8540253645081615e-07  8.727607014020646e-07  1.2554314283440615e-08  1.6862054161783297e-07  9.609819643639204e-09  4.867102096683867e-09  
-4.602674942905868e-09  -7.3516465856956965e-09  -6.771878690053363e-09  -5.3933215569347e-09  -4.827823252817656e-09  -5.527660956499378e-09  -4.21521220978236e-09  -4.898856605453195e-09  -4.14503515598129e-09  -4.529921394525652e-09  -4.080226540684769e-09  -8.31694925884417e-09  -5.3262188640751005e-09  0.0  -4.552003272881307e-09  -4.792221008502521e-09  -2.7307767463436733e-09  -3.8598317907125936e-09  -5.25525652627519e-09  -2.0841424498022812e-09  0.0  -2.3395097733273013e-09  -2.109457624284074e-09  0.0  0.0  0.0  -1.759104017112097e-08  -3.040394348177205e-08  -2.9646589596752035e-08  -2.8503510498479344e-08  -2.976787251758348e-08  -3.336925297841684e-08  -3.041897220640838e-08  -3.339394138973825e-08  -3.540421075683546e-08  -3.246453091392364e-08  -1.625099679794118e-08  0.0  0.0  5.238049862004737e-09  -4.411122920559287e-09  1.1105596930343241e-09  1.6831648692458588e-08  1.2554314283440619e-08  4.793892737773072e-07  1.5189799659636425e-08  -1.7133583308483337e-08  -1.5816639577419504e-08  
2.38988801803571e-09  4.432732211335481e-09  7.029003364662765e-09  2.515739707584539e-09  1.7918998122467027e-09  -7.160638208984508e-10  -2.7206179229212304e-09  -2.966437289197304e-09  3.2244306950043908e-09  -4.260066841314266e-09  1.8546006562945504e-09  -3.3905043924978436e-09  -5.757257971561856e-09  0.0  2.1092518046743423e-09  5.695470541982046e-10  6.088731171084998e-09  -9.785438113949495e-09  -1.173052110485805e-08  -3.603661869896847e-09  0.0  -2.812417782707573e-09  -3.8787304180128104e-10  0.0  0.0  0.0  -3.156346609039346e-08  3.7479707177467377e-08  3.920099160019762e-09  5.450636623522273e-08  -3.4968401250000824e-09  -1.5940425595012577e-08  2.7310334921801262e-08  -5.0227166314532844e-08  -7.444867261900247e-08  -6.47591736196016e-09  -5.027861551524178e-09  0.0  0.0  1.1047307301915333e-07  1.5021951455460744e-07  1.4164382711868242e-07  1.7499246063750477e-07  1.68620541617833e-07  1.5189799659636425e-08  8.120974305790227e-07  1.5347463857032155e-08  7.133023677348781e-09  
-4.172577832359315e-09  -7.3315618783335085e-09  -6.215905127406151e-09  -4.817920742520959e-09  -4.500807630537123e-09  -5.061450912448693e-09  -4.013817753395675e-09  -4.4799490296031155e-09  -3.612401583489213e-09  -4.070654993114111e-09  -3.7029262146498358e-09  -1.1074120088491864e-08  -4.918940720249049e-09  0.0  -4.131190478198838e-09  -5.201842331367733e-09  -2.4387773587694617e-09  -5.104661977647603e-09  -6.55039006536949e-09  -1.79342683656957e-09  0.0  -1.9752416009424573e-09  -1.9219345113645364e-09  0.0  0.0  0.0  -2.432233934390589e-08  -4.539903485963199e-08  -3.7931980806936385e-08  -4.3707524545186374e-08  -3.712488990415884e-08  -4.193624408632566e-08  -5.7081714677366374e-08  -4.6328202693362034e-08  -4.866322626747733e-08  -3.6963814422849395e-08  -2.062206830436194e-08  0.0  0.0  2.250495215893812e-09  5.367210190987558e-09  2.933524826150902e-09  1.3375768992931463e-08  9.609819643639199e-09  -1.713358330848334e-08  1.5347463857032152e-08  6.389848006319039e-07  -2.388836974444172e-08  
-2.9773968464199663e-09  -5.31880909488184e-09  -4.537336068577909e-09  -3.2529247597077998e-09  -3.1286151276940727e-09  -3.3452378364846013e-09  -3.201448446568674e-09  -3.3447957605777886e-09  -2.4790274166945544e-09  -2.8035042051739653e-09  -2.6908276421683325e-09  -8.206915404838793e-09  -3.4942346929190474e-09  0.0  -3.127311050955308e-09  -3.919941420746495e-09  -1.7035168577499078e-09  -5.531413079023004e-09  -4.974107536199458e-09  -1.1414032677703302e-09  0.0  -1.3878657898984112e-09  -1.3584143188878487e-09  0.0  0.0  0.0  -5.1483848392985645e-08  -6.01208108171969e-08  -5.11788274727694e-08  -5.228839771480902e-08  -4.170936921998141e-08  -4.65348709062435e-08  -9.042216314887306e-08  -5.461628810875309e-08  -6.126089078487046e-08  -2.7541862146765685e-08  -1.806348906064112e-08  0.0  0.0  7.048947707215476e-09  -9.940198197972374e-10  9.156753811669452e-09  -2.5501685940398407e-09  4.867102096683869e-09  -1.5816639577419497e-08  7.133023677348782e-09  -2.3888369744441713e-08  8.230454820768633e-07  
