45 45
2.880546445792878e-07  -8.157910666127042e-09  -8.786117061378104e-09  -8.070521528685912e-09  -7.632780300414413e-09  -6.780390776481738e-09  -5.651473008415629e-09  -1.2019432260880424e-08  -1.174541027601492e-08  -1.2446627863956944e-08  0.0  -6.201147219743577e-09  -5.762199952426033e-09  -6.913886242544732e-09  -1.0823160100656714e-08  -8.246432460537369e-09  -7.8192150480402e-09  0.0  -9.47343692179839e-09  -5.739032976084771e-09  -7.616299359480829e-09  -3.7050143701184225e-09  -6.794540629034191e-09  -6.125055661708603e-09  -4.31593330674527e-09  0.0  0.0  0.0  -1.2688807742627698e-08  -4.876232428064508e-09  -5.685684991804309e-09  -1.6069421095077294e-09  -2.121890454227762e-09  -2.1351294521781114e-09  -1.43376024136333e-09  -1.891682105058241e-09  -1.6286600385060767e-09  -1.8898540304965834e-09  -4.5053524842518787e-10  -2.7971855148022785e-09  -5.205441894673887e-10  -1.0605404243783252e-09  -6.236483438002982e-10  -1.4795584980738317e-09  -6.919965066826572e-10  
-8.157910666127044e-09  2.5378507409301377e-07  -7.743948615439313e-09  -7.236444610032419e-09  -6.792942575197848e-09  -6.254828861470549e-09  -5.308531551306725e-09  -1.0303094043255734e-08  -1.0582874932015817e-08  -1.126340762463687e-08  0.0  -5.554354067801748e-09  -5.201736890919526e-09  -6.053705217876144e-09  -9.259964231945757e-09  -7.376210182443795e-09  -6.80752209923364e-09  0.0  -8.687251075239062e-09  -4.771293607364272e-09  -6.84542575505255e-09  -3.240059546104899e-09  -5.900721987755863e-09  -5.559737318776216e-09  -3.9631186796762884e-09  0.0  0.0  0.0  -1.0598555948765482e-08  -5.516380724154767e-09  -5.156112921021486e-09  -1.4800888495189474e-09  -2.0425946501100273e-09  -1.781936225370836e-09  -1.6458815219474399e-09  -1.4856841051942511e-09  -1.74655652482255e-09  -1.4861887448058767e-09  -5.056357422626332e-10  -2.2175983138252843e-09  -4.936541481950468e-10  -1.2248458849124369e-09  -7.373876282931632e-10  -1.6181907007045223e-09  -7.55281865038318e-10  
-8.786117061378103e-09  -7.74394861543932e-09  2.9368843713852035e-07  -8.551321760836634e-09  -8.110255911972882e-09  -6.7900538878615486e-09  -6.120920959955738e-09  -1.1736366066675245e-08  -1.3527931046621868e-08  -1.3681251431334261e-08  0.0  -6.3210963592151015e-09  -6.036478287735799e-09  -7.352799214217992e-09  -1.1134630191372104e-08  -8.410765317586103e-09  -7.324903880981535e-09  0.0  -1.0097823483767608e-08  -6.030889238613928e-09  -8.674239774442709e-09  -3.9855012456849155e-09  -6.836388551490402e-09  -6.39739704750608e-09  -4.595415702057366e-09  0.0  0.0  0.0  -1.2365745221984101e-08  -2.0627122798715848e-09  1.248530580225801e-09  -1.500243686173606e-09  -2.423436234469576e-09  -2.0630687824155634e-09  -1.068581967715376e-09  -2.2555254241277597e-09  -1.1116557076316315e-09  -1.705831211173991e-09  -3.2639246400832296e-10  -2.3889436331812953e-09  -4.045379083559205e-10  -7.527188961360542e-10  -4.863208830241741e-10  -1.0511458394070816e-09  -4.4530625630137053e-10  
-8.070521528685905e-09  -7.236444610032417e-09  -8.551321760836634e-09  2.88562218868716e-07  -7.745010264250587e-09  -5.956235238070532e-09  -5.7723039236362555e-09  -1.1634887060639999e-08  -1.3364182116588948e-08  -1.2409743773360605e-08  0.0  -5.965621631162748e-09  -5.8325552865982825e-09  -6.776660250808018e-09  -1.0543755288777965e-08  -7.993842866891209e-09  -7.253055050253608e-09  0.0  -9.037701011864412e-09  -5.288453548665916e-09  -7.024489405535302e-09  -3.820549700889485e-09  -6.767731929730876e-09  -6.061268837280205e-09  -4.2709699669330185e-09  0.0  0.0  0.0  -1.0934290454859854e-08  -5.118133737238437e-10  -2.7094295455183835e-09  -2.5504737721937333e-09  -3.123618071601395e-09  -2.632936350243362e-09  -3.0379144874681146e-09  -7.799812092785379e-10  -2.686887132843937e-09  -8.421978991329557e-10  -1.0138187523681727e-09  -1.2920210363135647e-09  -9.451420304996796e-10  -2.386651538415259e-09  -1.4755645851798074e-09  -2.0320830067524098e-09  -1.492277605557678e-09  
-7.632780300414405e-09  -6.7929425751978495e-09  -8.110255911972877e-09  -7.745010264250585e-09  2.555244571198279e-07  -6.958719621185132e-09  -6.498961386633169e-09  -1.0553088857559003e-08  -1.3847522557800962e-08  -1.252516652099476e-08  0.0  -5.769292762104174e-09  -5.524800079427048e-09  -6.465242192013364e-09  -9.259855711178938e-09  -7.597574356996153e-09  -6.992797001000653e-09  0.0  -8.535326322527387e-09  -5.7726238696254745e-09  -7.140435812369333e-09  -3.83596062866334e-09  -7.150904702073224e-09  -6.731611596775417e-09  -4.776048158591368e-09  0.0  0.0  0.0  -1.0918444092624404e-08  1.5672662460822283e-09  -4.799226110438456e-09  -9.22780201931079e-10  -1.951900744683938e-09  -1.5216037193498084e-09  -5.337678559911634e-10  -1.3117943953695383e-09  -5.259249891695349e-10  -9.622896855345152e-10  -1.249931836708441e-10  -1.3425822858352596e-09  -1.875096519832672e-10  -3.1470703937029644e-10  -2.0294259594655997e-10  -5.233389679582547e-10  -1.568004004748091e-10  
-6.780390776481737e-09  -6.254828861470546e-09  -6.79005388786155e-09  -5.956235238070526e-09  -6.958719621185131e-09  2.2772008078392963e-07  -7.3376827711699365e-09  -1.1114008216138438e-08  -1.124497231275414e-08  -1.2345274039770629e-08  0.0  -5.656795563471824e-09  -5.455208945525345e-09  -6.018574188875736e-09  -7.728065729684694e-09  -7.726756647968155e-09  -7.245253900350491e-09  0.0  -8.141335032595964e-09  -5.423923844485944e-09  -6.99044106662421e-09  -3.7365254545052375e-09  -6.599564821846912e-09  -6.380702272551922e-09  -5.3539243351477705e-09  0.0  0.0  0.0  -1.0483783756221104e-08  -5.866904227848049e-09  -6.39962797386496e-09  -5.544352075462209e-10  -1.5141192653205324e-09  -1.0522374597736399e-09  -4.073953620111966e-10  -1.0214182739760844e-09  -3.365358281950582e-10  -7.26753946330383e-10  -5.12754531354396e-11  -1.0168618878170605e-09  -5.90324200762021e-11  -1.9310426901892335e-10  -1.1548119646084028e-10  -3.670149575913578e-10  -5.443980758684695e-11  
-5.651473008415632e-09  -5.308531551306725e-09  -6.1209209599557435e-09  -5.772303923636257e-09  -6.498961386633171e-09  -7.337682771169936e-09  2.10906958049128e-07  -1.0842753820822809e-08  -1.3023278372740114e-08  -1.1750452458838879e-08  0.0  -4.439107706056993e-09  -4.249101244689166e-09  -4.902626871934511e-09  -6.182460575967308e-09  -6.732995654744823e-09  -6.763421006219289e-09  0.0  -7.196099247220697e-09  -4.9304232359100745e-09  -6.789235666203569e-09  -4.1513925716503785e-09  -6.381021505116132e-09  -7.177054874382216e-09  -8.477109844923855e-09  0.0  0.0  0.0  -8.871126248431282e-09  -6.72394746546071e-09  -1.6385256723309057e-09  -7.342824110608181e-10  -1.2638430037732646e-09  -1.1445397930030159e-09  -4.929884571714697e-10  -1.232760577826217e-09  -5.255519084317973e-10  -9.150619838397015e-10  -1.2391661538793004e-10  -1.2733541831894647e-09  -1.7100262678798226e-10  -3.052572679393252e-10  -1.8560364650336138e-10  -5.026680164931455e-10  -1.751957833395116e-10  
-1.2019432260880424e-08  -1.0303094043255736e-08  -1.1736366066675243e-08  -1.1634887060639995e-08  -1.0553088857559001e-08  -1.1114008216138438e-08  -1.0842753820822799e-08  4.4495971808138527e-07  -1.86721469710617e-08  -2.1353967573997078e-08  0.0  -1.1097391929277523e-08  -1.065616065053509e-08  -1.2470630439478015e-08  -1.637760164255767e-08  -1.579108025912854e-08  -1.435689014520458e-08  0.0  -1.3718495727852948e-08  -1.0019931163728386e-08  -1.1641769327059505e-08  -7.56906895741845e-09  -1.0930806306258816e-08  -9.773666886253686e-09  -7.921438665720583e-09  0.0  0.0  0.0  -1.9720312752482412e-08  -5.631579768261812e-09  -2.999558987933562e-10  -3.62647268386891e-09  -4.497740549177401e-09  -4.143274482594294e-09  -3.811934030298603e-09  -2.5186219575657756e-09  -4.117011665695722e-09  -2.535025971517828e-09  -1.2456979909721443e-09  -3.780662488323253e-09  -1.2612279388218538e-09  -2.9129879473442048e-09  -1.783972694390922e-09  -3.769913795489695e-09  -1.8518142436552945e-09  
-1.1745410276014924e-08  -1.0582874932015821e-08  -1.352793104662188e-08  -1.336418211658894e-08  -1.3847522557800965e-08  -1.1244972312754141e-08  -1.3023278372740109e-08  -1.8672146971061692e-08  4.518609036283642e-07  -2.1792772220612453e-08  0.0  -9.85835599805293e-09  -9.278453115457917e-09  -1.1247908944254416e-08  -1.559155924860494e-08  -1.4118316287466944e-08  -1.3553608188791288e-08  0.0  -1.4683386278075362e-08  -1.0282790967272483e-08  -1.2162222842326147e-08  -7.26051070553878e-09  -1.1615137571749826e-08  -1.1601282212956345e-08  -9.357337834755526e-09  0.0  0.0  0.0  -1.8326676153680505e-08  1.0828737024777009e-08  -3.2252760735965283e-09  -2.39413293438523e-09  -4.0419029227944734e-09  -3.3707037814604823e-09  -1.633425382371579e-09  -3.515047115741636e-09  -1.7360112915758221e-09  -2.66500333764504e-09  -5.10856868334202e-10  -3.728439432672452e-09  -6.556453751335069e-10  -1.1480353415716444e-09  -7.487422649219399e-10  -1.6301612929183555e-09  -6.975912891023459e-10  
-1.2446627863956948e-08  -1.1263407624636852e-08  -1.3681251431334243e-08  -1.2409743773360605e-08  -1.252516652099476e-08  -1.2345274039770632e-08  -1.1750452458838874e-08  -2.135396757399705e-08  -2.1792772220612446e-08  4.5565528486829213e-07  0.0  -1.1661806164429855e-08  -1.088595331198899e-08  -1.226970071097188e-08  -1.511504167657113e-08  -1.4103568284003032e-08  -1.266690639120478e-08  0.0  -1.6565085247861653e-08  -1.064196675530177e-08  -1.3119927220434825e-08  -7.073397254282856e-09  -1.2386583847188498e-08  -1.1640082160105374e-08  -8.930302291336716e-09  0.0  0.0  0.0  -1.978360274568104e-08  -3.381165671607622e-09  1.9460192247683828e-08  -2.7998649782804418e-09  -4.223411166823553e-09  -3.782439509654553e-09  -1.4977185893551112e-09  -3.2563623123944867e-09  -1.5735300008700985e-09  -2.4561371666677457e-09  -5.096698054926455e-10  -3.4340776982456408e-09  -7.318715619025917e-10  -1.0685314454638665e-09  -7.491537224508799e-10  -1.4815250777583798e-09  -6.509456414275393e-10  
0.0  0.0  0.0  0.0  0.0  0.0  0.0  0.0  0.0  0.0  3.187661151242783e-05  0.0  0.0  0.0  0.0  0.0  0.0  -2.4953405927969557e-07  0.0  0.0  0.0  0.0  0.0  0.0  0.0  -6.134815029878036e-07  -4.390348086244612e-07  -7.73428874098769e-07  0.0  0.0  0.0  0.0  0.0  0.0  0.0  0.0  0.0  0.0  0.0  0.0  0.0  0.0  0.0  0.0  0.0  
-6.20114721974358e-09  -5.554354067801752e-09  -6.321096359215107e-09  -5.965621631162746e-09  -5.769292762104167e-09  -5.656795563471824e-09  -4.439107706056989e-09  -1.1097391929277518e-08  -9.858355998052927e-09  -1.1661806164429852e-08  0.0  4.2721602389507794e-07  -1.485999547098758e-08  -1.6177372594902625e-08  -1.607654866780109e-08  -1.1942139173862069e-08  -1.0864339306017925e-08  0.0  -7.112693855357261e-09  -6.548475503535633e-09  -5.850277373344788e-09  -4.0527280337344595e-09  -5.283049450977127e-09  -4.4208927972073606e-09  -3.35948635874402e-09  0.0  0.0  0.0  -2.2926903039373886e-08  4.1138180801553965e-09  1.031877052258222e-08  -1.2286554053569544e-08  -1.1066498069261215e-08  -1.0861958079166822e-08  -6.900843017845555e-10  4.786758602136842e-10  -4.046732974742944e-10  3.3927064048104194e-10  -3.4345907507754794e-09  4.3747363055488287e-10  -5.173739159044117e-09  -2.120142786572233e-09  -4.8408842368707474e-09  -2.435848109806918e-10  -1.9239027081223168e-09  
-5.762199952426041e-09  -5.201736890919525e-09  -6.036478287735802e-09  -5.83255528659828e-09  -5.524800079427052e-09  -5.455208945525346e-09  -4.249101244689167e-09  -1.0656160650535095e-08  -9.278453115457917e-09  -1.0885953311988998e-08  0.0  -1.485999547098758e-08  4.597189968163641e-07  -1.771454251416948e-08  -1.550096351895873e-08  -1.1378509570299124e-08  -1.0146633368206159e-08  0.0  -6.97585609752561e-09  -5.8603881764747085e-09  -5.860344568523893e-09  -3.945714067601097e-09  -5.091862163324137e-09  -4.2260878877633145e-09  -3.025141443025003e-09  0.0  0.0  0.0  -2.7832359676440564e-08  7.712555621773159e-09  1.8053703093992111e-09  -1.3391805127827253e-08  -1.2600713407889723e-08  -1.197129602035774e-08  -6.675096603878986e-10  5.027949539987592e-10  -2.829010057588016e-10  3.8396972001479176e-10  -3.1212202949225935e-09  4.905116156024375e-10  -5.60069143200673e-09  -1.9333726152864775e-09  -4.441068524415439e-09  -1.8714270602275254e-10  -1.699836889505964e-09  
-6.913886242544741e-09  -6.05370521787614e-09  -7.352799214217997e-09  -6.776660250808017e-09  -6.46524219201337e-09  -6.018574188875743e-09  -4.902626871934512e-09  -1.2470630439478013e-08  -1.1247908944254419e-08  -1.2269700710971883e-08  0.0  -1.6177372594902625e-08  -1.7714542514169483e-08  4.898659423582134e-07  -1.7852637561103487e-08  -1.2838130645163705e-08  -1.165471310223792e-08  0.0  -8.170125275118338e-09  -6.2443626437580986e-09  -6.880691148585766e-09  -4.536820519867165e-09  -5.983168164935959e-09  -4.949528524887288e-09  -3.5749911152254518e-09  0.0  0.0  0.0  -2.487363304757223e-08  8.033773418505642e-09  -6.940124132746752e-09  -1.6990955904648756e-08  -1.4312321233649715e-08  -1.430896989374144e-08  -3.3036737779731494e-10  7.751982797073265e-10  -5.015228227863857e-11  5.972618257300626e-10  -2.9249780936685468e-09  8.108679981814273e-10  -7.148469319767606e-09  -1.6099206455055096e-09  -4.1253238382777534e-09  5.2295588071514936e-11  -1.5183451741435001e-09  
-1.0823160100656722e-08  -9.259964231945758e-09  -1.113463019137211e-08  -1.0543755288777958e-08  -9.259855711178934e-09  -7.728065729684702e-09  -6.182460575967309e-09  -1.637760164255767e-08  -1.5591559248604944e-08  -1.511504167657113e-08  0.0  -1.607654866780109e-08  -1.550096351895873e-08  -1.7852637561103494e-08  5.237072673600434e-07  -1.713266397713205e-08  -1.4638638901982547e-08  0.0  -1.1904165526039176e-08  -7.73330343338831e-09  -1.0041900653940785e-08  -5.83755515838277e-09  -8.028459469043365e-09  -6.711796747862934e-09  -4.579198325245399e-09  0.0  0.0  0.0  -2.8696838629081113e-08  -8.793324092621928e-09  -1.068049968458419e-08  -8.820076981746367e-09  -8.784916036512477e-09  -8.457097787647635e-09  -1.9113182032042386e-09  1.6650924219660735e-10  -1.5360399226334214e-09  -8.615896888753982e-12  -3.8597483585415095e-09  -8.820390228520781e-11  -3.5812259703551588e-09  -4.812122566683068e-09  -5.47961004497484e-09  -1.0748682962891709e-09  -4.304486598249067e-09  
-8.246432460537362e-09  -7.3762101824437964e-09  -8.410765317586104e-09  -7.993842866891212e-09  -7.59757435699616e-09  -7.726756647968151e-09  -6.732995654744821e-09  -1.579108025912854e-08  -1.411831628746695e-08  -1.4103568284003032e-08  0.0  -1.1942139173862072e-08  -1.1378509570299125e-08  -1.283813064516371e-08  -1.713266397713205e-08  3.785726298447425e-07  -1.2988153169182583e-08  0.0  -9.515897736623567e-09  -6.936931273575683e-09  -7.475315024684095e-09  -5.512914551763962e-09  -7.019405420285843e-09  -6.100534618329519e-09  -4.817425482429952e-09  0.0  0.0  0.0  -2.14464798697113e-08  -4.036054383371635e-09  -4.5429270459720445e-09  -3.0702996453880255e-09  -4.554666013874827e-09  -3.802810240025524e-09  -2.99847774732403e-09  -1.4195841376253324e-09  -3.115058493526716e-09  -1.4350650980659384e-09  -9.399258735589747e-10  -2.1664421078050137e-09  -9.601156779622815e-10  -2.230570852280736e-09  -1.3876915717523231e-09  -2.8969357201501106e-09  -1.3574003705531823e-09  
-7.81921504804019e-09  -6.807522099233633e-09  -7.324903880981529e-09  -7.253055050253602e-09  -6.992797001000658e-09  -7.2452539003504925e-09  -6.7634210062192915e-09  -1.4356890145204579e-08  -1.3553608188791279e-08  -1.2666906391204772e-08  0.0  -1.086433930601792e-08  -1.0146633368206162e-08  -1.1654713102237913e-08  -1.4638638901982549e-08  -1.2988153169182573e-08  3.617528512576464e-07  0.0  -8.275628423742479e-09  -6.725698974932325e-09  -6.4832635646116224e-09  -5.006484725996887e-09  -6.732725262894578e-09  -5.871519215380865e-09  -4.931729398936252e-09  0.0  0.0  0.0  -1.7548086713579026e-08  2.9144463972820414e-09  -7.615054188860319e-09  -5.446288143322149e-09  -5.5459018017026295e-09  -5.368167376472026e-09  -2.325812489945776e-09  -3.6801745473231905e-10  -2.0833609840067805e-09  -4.821420512482743e-10  -2.3254294538609674e-09  -7.539495340984945e-10  -2.19359545507303e-09  -5.3110628775885725e-09  -3.2837996606918848e-09  -1.5090802366612045e-09  -3.5322017631245534e-09  
0.0  0.0  0.0  0.0  0.0  0.0  0.0  0.0  0.0  0.0  -2.4953405927969567e-07  0.0  0.0  0.0  0.0  0.0  0.0  3.6200072374345475e-05  0.0  0.0  0.0  0.0  0.0  0.0  0.0  -5.988461584211982e-07  -4.267373072674796e-07  -7.532842659951399e-07  0.0  0.0  0.0  0.0  0.0  0.0  0.0  0.0  0.0  0.0  0.0  0.0  0.0  0.0  0.0  0.0  0.0  
-9.473436921798386e-09  -8.687251075239067e-09  -1.0097823483767615e-08  -9.037701011864412e-09  -8.535326322527385e-09  -8.141335032595961e-09  -7.196099247220696e-09  -1.3718495727852958e-08  -1.4683386278075362e-08  -1.6565085247861653e-08  0.0  -7.112693855357259e-09  -6.975856097525608e-09  -8.170125275118328e-09  -1.1904165526039176e-08  -9.515897736623567e-09  -8.275628423742479e-09  0.0  3.3533192682032216e-07  -6.9690008962009775e-09  -1.0196709284700368e-08  -4.8224376026333334e-09  -7.79670542124629e-09  -7.345677961053166e-09  -5.441192040056596e-09  0.0  0.0  0.0  -1.4882038449277888e-08  -5.7877486564252755e-09  4.065340482175539e-09  -1.7357109545861067e-09  -2.8513413284668535e-09  -2.38512794962199e-09  -1.1154065416657801e-09  -2.3296468903681815e-09  -1.1164889341603983e-09  -1.749189201651719e-09  -3.4885145339527226e-10  -2.45242564397366e-09  -4.474121197571514e-10  -7.797967233345438e-10  -5.330094521328359e-10  -1.07155033196387e-09  -4.4588910469329564e-10  
-5.73903297608477e-09  -4.77129360736427e-09  -6.0308892386139265e-09  -5.288453548665912e-09  -5.772623869625475e-09  -5.423923844485944e-09  -4.930423235910074e-09  -1.001993116372838e-08  -1.028279096727248e-08  -1.0641966755301765e-08  0.0  -6.548475503535634e-09  -5.860388176474706e-09  -6.2443626437581e-09  -7.733303433388306e-09  -6.936931273575684e-09  -6.725698974932324e-09  0.0  -6.969000896200977e-09  2.502864988649961e-07  -6.1027502653877985e-09  -3.722703491403454e-09  -5.5435977725141166e-09  -4.746707180545731e-09  -3.892418502084103e-09  0.0  0.0  0.0  -1.305524022129935e-08  1.995102979818894e-09  1.8041882242064314e-08  -2.3290085246537583e-09  -2.9708927797066663e-09  -3.061663377385786e-09  -9.070157217791432e-10  -1.9767977306535455e-09  -1.0829840215948289e-09  -1.5310036501436067e-09  -4.1006405160190937e-10  -2.1319957278249868e-09  -6.800561681351774e-10  -7.280162336031619e-10  -5.500000673523274e-10  -9.5992371849089e-10  -5.210742722191299e-10  
-7.616299359480827e-09  -6.8454257550525585e-09  -8.674239774442706e-09  -7.024489405535303e-09  -7.140435812369337e-09  -6.9904410666242095e-09  -6.789235666203569e-09  -1.1641769327059503e-08  -1.2162222842326149e-08  -1.3119927220434821e-08  0.0  -5.850277373344793e-09  -5.8603445685238916e-09  -6.8806911485857665e-09  -1.0041900653940788e-08  -7.475315024684099e-09  -6.483263564611625e-09  0.0  -1.0196709284700367e-08  -6.102750265387799e-09  2.7659292373634446e-07  -4.1852636398361386e-09  -6.252988535788502e-09  -6.104492491176697e-09  -4.734246325961266e-09  0.0  0.0  0.0  -1.2929759319025955e-08  -6.868339009637487e-09  6.455400684721337e-09  -1.728012407594292e-09  -2.595894997053242e-09  -2.2278899715267367e-09  -1.1806795396599422e-09  -2.3265185782586705e-09  -1.1947754718353644e-09  -1.7652058311830573e-09  -3.946270719013951e-10  -2.4792323628939316e-09  -4.821170396514667e-10  -8.663378819448567e-10  -5.928165551809861e-10  -1.130899481721408e-09  -5.135320884099662e-10  
-3.705014370118427e-09  -3.2400595461049003e-09  -3.985501245684918e-09  -3.820549700889488e-09  -3.835960628663343e-09  -3.73652545450524e-09  -4.151392571650383e-09  -7.569068957418451e-09  -7.260510705538785e-09  -7.073397254282861e-09  0.0  -4.0527280337344595e-09  -3.9457140676011e-09  -4.536820519867164e-09  -5.83755515838277e-09  -5.512914551763963e-09  -5.006484725996887e-09  0.0  -4.822437602633335e-09  -3.7227034914034546e-09  -4.18526363983614e-09  1.6181585041580528e-07  -3.782907488105823e-09  -3.565528181768132e-09  -2.991706227668584e-09  0.0  0.0  0.0  -7.1835476382991205e-09  5.3261468039547105e-09  1.3159701657852568e-09  -1.2238304905492297e-09  -1.901971024595833e-09  -1.5460096797664287e-09  -9.571498846786854e-10  -1.3689836479264421e-09  -9.903496022774907e-10  -1.3314358721219678e-09  -3.2073402979769447e-10  -1.972693492848403e-09  -3.664199582062278e-10  -7.148713142006779e-10  -4.735771581134326e-10  -9.244174464324373e-10  -4.3701281790770607e-10  
-6.794540629034194e-09  -5.900721987755863e-09  -6.836388551490402e-09  -6.767731929730872e-09  -7.150904702073223e-09  -6.59956482184691e-09  -6.381021505116132e-09  -1.0930806306258817e-08  -1.1615137571749828e-08  -1.2386583847188503e-08  0.0  -5.283049450977126e-09  -5.091862163324138e-09  -5.983168164935956e-09  -8.02845946904337e-09  -7.019405420285843e-09  -6.7327252628945785e-09  0.0  -7.796705421246292e-09  -5.543597772514117e-09  -6.2529885357885e-09  -3.782907488105823e-09  2.301462657263796e-07  -6.418518601057257e-09  -4.739711802457111e-09  0.0  0.0  0.0  -9.922785780238602e-09  9.747298394671306e-10  -5.228261881581786e-09  -8.428561674851529e-10  -1.6209115790246705e-09  -1.4129097917868161e-09  -4.828902664804168e-10  -1.2771987052975003e-09  -5.372677891553958e-10  -9.49113126048842e-10  -1.1720137385203582e-10  -1.3176280428628058e-09  -1.890387159867251e-10  -2.9169828577759573e-10  -1.696577752357703e-10  -5.094250809623007e-10  -1.7116120180813594e-10  
-6.125055661708603e-09  -5.559737318776217e-09  -6.397397047506081e-09  -6.061268837280205e-09  -6.7316115967754165e-09  -6.3807022725519184e-09  -7.177054874382219e-09  -9.773666886253688e-09  -1.1601282212956341e-08  -1.1640082160105369e-08  0.0  -4.420892797207361e-09  -4.2260878877633145e-09  -4.9495285248872895e-09  -6.711796747862939e-09  -6.100534618329518e-09  -5.871519215380865e-09  0.0  -7.345677961053167e-09  -4.74670718054573e-09  -6.104492491176696e-09  -3.565528181768131e-09  -6.418518601057256e-09  2.0936520573219452e-07  -5.5483894249566325e-09  0.0  0.0  0.0  -8.331218827291733e-09  -8.893014142456984e-10  -1.129165991961889e-09  -8.500262857108748e-10  -1.3131146289594593e-09  -1.3308721724009214e-09  -4.508277539575332e-10  -1.230695858380355e-09  -5.543718881483489e-10  -9.270977246545094e-10  -1.3104697591424465e-10  -1.2826632655479318e-09  -2.2102062785971857e-10  -2.9534177345238393e-10  -1.7101333880795646e-10  -5.038264856927558e-10  -2.0048333817173016e-10  
-4.315933306745267e-09  -3.96311867967629e-09  -4.595415702057367e-09  -4.27096996693302e-09  -4.7760481585913655e-09  -5.353924335147768e-09  -8.477109844923857e-09  -7.921438665720576e-09  -9.357337834755528e-09  -8.930302291336719e-09  0.0  -3.3594863587440237e-09  -3.0251414430250036e-09  -3.574991115225451e-09  -4.5791983252454004e-09  -4.817425482429952e-09  -4.931729398936251e-09  0.0  -5.441192040056596e-09  -3.892418502084102e-09  -4.734246325961265e-09  -2.9917062276685833e-09  -4.739711802457111e-09  -5.54838942495663e-09  1.5813897037105573e-07  0.0  0.0  0.0  -7.096204782681863e-09  -3.0474133716851177e-09  -5.6520712869270865e-09  -3.736988512799988e-10  -7.042846845974431e-10  -8.20737269327182e-10  -4.872078796850666e-11  -4.922448161858827e-10  -1.34877604345271e-10  -3.5638185617478724e-10  1.0673952676937635e-11  -4.794729541719482e-10  -6.614497558477907e-11  1.8736180586018237e-11  3.6226522614616174e-11  -1.1506182194743363e-10  -5.0476477361444676e-12  
0.0  0.0  0.0  0.0  0.0  0.0  0.0  0.0  0.0  0.0  -6.134815029878038e-07  0.0  0.0  0.0  0.0  0.0  0.0  -5.988461584211984e-07  0.0  0.0  0.0  0.0  0.0  0.0  0.0  0.00012038995909236666  -1.6192621459727541e-06  -2.66858249509177e-06  0.0  0.0  0.0  0.0  0.0  0.0  0.0  0.0  0.0  0.0  0.0  0.0  0.0  0.0  0.0  0.0  0.0  
0.0  0.0  0.0  0.0  0.0  0.0  0.0  0.0  0.0  0.0  -4.39034808624461e-07  0.0  0.0  0.0  0.0  0.0  0.0  -4.267373072674795e-07  0.0  0.0  0.0  0.0  0.0  0.0  0.0  -1.619262145972754e-06  0.00015572039667262688  -2.0164060457552066e-06  0.0  0.0  0.0  0.0  0.0  0.0  0.0  0.0  0.0  0.0  0.0  0.0  0.0  0.0  0.0  0.0  0.0  
0.0  0.0  0.0  0.0  0.0  0.0  0.0  0.0  0.0  0.0  -7.73428874098769e-07  0.0  0.0  0.0  0.0  0.0  0.0  -7.532842659951397e-07  0.0  0.0  0.0  0.0  0.0  0.0  0.0  -2.6685824950917704e-06  -2.0164060457552066e-06  0.000633488970841115  0.0  0.0  0.0  0.0  0.0  0.0  0.0  0.0  0.0  0.0  0.0  0.0  0.0  0.0  0.0  0.0  0.0  
-1.2688807742627696e-08  -1.0598555948765482e-08  -1.23657452219841e-08  -1.0934290454859858e-08  -1.0918444092624406e-08  -1.0483783756221106e-08  -8.871126248431282e-09  -1.9720312752482416e-08  -1.8326676153680498e-08  -1.978360274568104e-08  0.0  -2.292690303937389e-08  -2.7832359676440564e-08  -2.4873633047572236e-08  -2.8696838629081113e-08  -2.1446479869711298e-08  -1.7548086713579026e-08  0.0  -1.488203844927789e-08  -1.3055240221299349e-08  -1.2929759319025958e-08  -7.183547638299121e-09  -9.922785780238597e-09  -8.331218827291726e-09  -7.096204782681863e-09  0.0  0.0  0.0  1.1902380358163535e-06  4.549064068742571e-08  3.473989984704159e-08  1.5844452433531004e-07  2.2802148902984145e-07  2.1532854653074029e-07  1.2870693828712643e-08  9.294316221450066e-09  1.2825991743715163e-08  8.296920173725234e-09  2.2849187989570767e-08  1.2017464627421334e-08  4.668747536025497e-08  2.0567799758770696e-08  3.1907078337833414e-08  1.0362462302601287e-08  1.7018410547045183e-08  
-4.876232428064509e-09  -5.516380724154763e-09  -2.0627122798715864e-09  -5.118133737238427e-10  1.567266246082228e-09  -5.866904227848047e-09  -6.723947465460709e-09  -5.6315797682618116e-09  1.0828737024777004e-08  -3.3811656716076195e-09  0.0  4.113818080155397e-09  7.712555621773156e-09  8.033773418505643e-09  -8.793324092621932e-09  -4.036054383371636e-09  2.9144463972820405e-09  0.0  -5.787748656425276e-09  1.9951029798188945e-09  -6.868339009637483e-09  5.3261468039547105e-09  9.7472983946713e-10  -8.89301414245698e-10  -3.0474133716851177e-09  0.0  0.0  0.0  4.5490640687425706e-08  6.902132958701449e-07  6.053326097093445e-08  -1.2953296132528817e-08  -2.6806904026159917e-08  -1.684498359381222e-08  -5.885221453754325e-10  -1.1912379509054528e-10  -4.819717952696838e-10  -1.3072786966316492e-10  -1.7286933646880224e-09  -2.0692596813470063e-10  -3.781517678425261e-09  -1.2815982134524514e-09  -2.431498857349435e-09  -3.6096154655162117e-10  -1.095441354860218e-09  
-5.685684991804306e-09  -5.156112921021487e-09  1.2485305802258006e-09  -2.709429545518384e-09  -4.799226110438456e-09  -6.3996279738649605e-09  -1.6385256723309065e-09  -2.9995589879335535e-10  -3.225276073596529e-09  1.946019224768383e-08  0.0  1.031877052258222e-08  1.8053703093992111e-09  -6.940124132746755e-09  -1.0680499684584186e-08  -4.542927045972045e-09  -7.615054188860322e-09  0.0  4.06534048217554e-09  1.804188224206432e-08  6.455400684721336e-09  1.315970165785257e-09  -5.228261881581786e-09  -1.1291659919618893e-09  -5.652071286927086e-09  0.0  0.0  0.0  3.473989984704159e-08  6.053326097093445e-08  5.629775326928394e-07  -1.5980987484319657e-08  -1.390872993321932e-08  -1.5016354651662522e-08  -9.373311441473095e-10  -7.007267206350289e-10  -9.112878767290432e-10  -6.020220251017591e-10  -2.1194465942605067e-09  -8.663964161118202e-10  -4.5952892302023224e-09  -1.633405698137823e-09  -2.960784007032905e-09  -7.275038621519246e-10  -1.4009610416960637e-09  
-1.6069421095077168e-09  -1.48008884951894e-09  -1.5002436861736092e-09  -2.550473772193741e-09  -9.227802019310789e-10  -5.544352075462171e-10  -7.34282411060817e-10  -3.6264726838688967e-09  -2.3941329343852276e-09  -2.7998649782804447e-09  0.0  -1.228655405356954e-08  -1.3391805127827262e-08  -1.6990955904648752e-08  -8.820076981746364e-09  -3.070299645388021e-09  -5.4462881433221424e-09  0.0  -1.7357109545861024e-09  -2.3290085246537537e-09  -1.728012407594291e-09  -1.2238304905492302e-09  -8.428561674851488e-10  -8.500262857108745e-10  -3.7369885128000074e-10  0.0  0.0  0.0  1.5844452433530986e-07  -1.2953296132528813e-08  -1.5980987484319654e-08  8.936988813853991e-07  -1.474464265401675e-07  -1.6640362768117525e-07  -1.5915180388422977e-08  -9.363163775670949e-09  -1.5558956022006488e-08  -8.627801223221821e-09  -3.401976408813415e-08  -1.257781152545513e-08  -7.243428321788854e-08  -2.8167527551920643e-08  -4.748198838193784e-08  -1.2252340453898915e-08  -2.3902348348679336e-08  
-2.1218904542277583e-09  -2.0425946501100273e-09  -2.4234362344695803e-09  -3.1236180716014017e-09  -1.951900744683939e-09  -1.5141192653205359e-09  -1.2638430037732652e-09  -4.497740549177409e-09  -4.041902922794483e-09  -4.223411166823556e-09  0.0  -1.1066498069261212e-08  -1.260071340788972e-08  -1.4312321233649715e-08  -8.784916036512474e-09  -4.554666013874826e-09  -5.545901801702629e-09  0.0  -2.8513413284668535e-09  -2.9708927797066688e-09  -2.595894997053243e-09  -1.901971024595834e-09  -1.6209115790246727e-09  -1.3131146289594578e-09  -7.042846845974433e-10  0.0  0.0  0.0  2.2802148902984155e-07  -2.680690402615992e-08  -1.3908729933219332e-08  -1.4744642654016751e-07  1.1019100398205537e-06  -2.036835852854661e-07  -9.193139250799512e-09  -5.119497464189894e-09  -8.758089989587576e-09  -4.716011087688919e-09  -1.9861831594015704e-08  -6.910591323060547e-09  -4.2400442499433606e-08  -1.632972735015308e-08  -2.7791228111344748e-08  -6.931938688421785e-09  -1.3799387540308064e-08  
-2.135129452178108e-09  -1.781936225370837e-09  -2.063068782415557e-09  -2.632936350243362e-09  -1.5216037193498057e-09  -1.0522374597736362e-09  -1.144539793003017e-09  -4.1432744825942986e-09  -3.37070378146048e-09  -3.782439509654554e-09  0.0  -1.0861958079166827e-08  -1.1971296020357744e-08  -1.4308969893741447e-08  -8.457097787647636e-09  -3.8028102400255246e-09  -5.368167376472031e-09  0.0  -2.385127949621993e-09  -3.061663377385782e-09  -2.227889971526736e-09  -1.5460096797664273e-09  -1.4129097917868184e-09  -1.3308721724009208e-09  -8.207372693271821e-10  0.0  0.0  0.0  2.1532854653074029e-07  -1.6844983593812227e-08  -1.5016354651662516e-08  -1.6640362768117525e-07  -2.0368358528546613e-07  9.588228376583225e-07  -1.0272428160190396e-08  -5.933441326141715e-09  -1.0089255473037767e-08  -5.499984028750017e-09  -2.243596416663533e-08  -8.015712303219225e-09  -4.796643821111598e-08  -1.8421026064910357e-08  -3.128949313297689e-08  -7.902717454793013e-09  -1.5701927180656895e-08  
-1.4337602413633287e-09  -1.6458815219474355e-09  -1.068581967715375e-09  -3.037914487468109e-09  -5.33767855991162e-10  -4.073953620111968e-10  -4.92988457171469e-10  -3.811934030298612e-09  -1.6334253823715774e-09  -1.4977185893551163e-09  0.0  -6.900843017845575e-10  -6.675096603878981e-10  -3.303673777973131e-10  -1.9113182032042336e-09  -2.9984777473240292e-09  -2.325812489945769e-09  0.0  -1.1154065416657801e-09  -9.070157217791418e-10  -1.1806795396599429e-09  -9.571498846786847e-10  -4.828902664804182e-10  -4.5082775395753463e-10  -4.8720787968505677e-11  0.0  0.0  0.0  1.287069382871265e-08  -5.885221453754318e-10  -9.37331144147307e-10  -1.591518038842297e-08  -9.193139250799499e-09  -1.027242816019039e-08  2.2272587326421691e-07  -1.5711590883091676e-08  -2.5791820171046183e-08  -1.4425821516946217e-08  -9.26250290301124e-09  -2.10397824566973e-08  -7.860580566456037e-09  -2.1715981607383654e-08  -1.305044221937423e-08  -2.038200606855277e-08  -1.4261626566137837e-08  
-1.891682105058241e-09  -1.48568410519425e-09  -2.2555254241277585e-09  -7.799812092785417e-10  -1.3117943953695385e-09  -1.0214182739760849e-09  -1.232760577826217e-09  -2.518621957565766e-09  -3.5150471157416355e-09  -3.2563623123944847e-09  0.0  4.786758602136843e-10  5.027949539987583e-10  7.751982797073255e-10  1.665092421966061e-10  -1.4195841376253316e-09  -3.680174547323166e-10  0.0  -2.3296468903681795e-09  -1.9767977306535455e-09  -2.3265185782586717e-09  -1.3689836479264428e-09  -1.2771987052974988e-09  -1.2306958583803546e-09  -4.922448161858826e-10  0.0  0.0  0.0  9.294316221450087e-09  -1.1912379509054564e-10  -7.00726720635029e-10  -9.363163775670918e-09  -5.119497464189902e-09  -5.933441326141704e-09  -1.571159088309167e-08  1.7539316893759031e-07  -1.7216460338241443e-08  -2.1096781226916146e-08  -5.5055693920544205e-09  -2.9748212592981142e-08  -4.673335585673592e-09  -1.2900573488942973e-08  -7.740176179327106e-09  -1.5460182132331814e-08  -8.49564680002525e-09  
-1.6286600385060794e-09  -1.7465565248225498e-09  -1.1116557076316326e-09  -2.6868871328439378e-09  -5.25924989169535e-10  -3.3653582819505653e-10  -5.255519084317966e-10  -4.117011665695719e-09  -1.7360112915758213e-09  -1.5735300008701014e-09  0.0  -4.0467329747429264e-10  -2.82901005758802e-10  -5.0152282278639584e-11  -1.5360399226334224e-09  -3.1150584935267216e-09  -2.083360984006785e-09  0.0  -1.1164889341604018e-09  -1.082984021594827e-09  -1.1947754718353634e-09  -9.903496022774905e-10  -5.372677891553965e-10  -5.543718881483503e-10  -1.3487760434527105e-10  0.0  0.0  0.0  1.2825991743715164e-08  -4.819717952696843e-10  -9.112878767290419e-10  -1.5558956022006495e-08  -8.758089989587573e-09  -1.008925547303777e-08  -2.579182017104619e-08  -1.721646033824146e-08  2.2671779737134812e-07  -1.5821593424448273e-08  -9.034785786156723e-09  -2.3062909595419653e-08  -7.704006816381092e-09  -2.1159978133589098e-08  -1.2698730265667735e-08  -2.231599085169654e-08  -1.393661109712315e-08  
-1.8898540304965797e-09  -1.4861887448058761e-09  -1.7058312111739917e-09  -8.421978991329553e-10  -9.622896855345147e-10  -7.267539463303824e-10  -9.150619838397001e-10  -2.5350259715178348e-09  -2.6650033376450406e-09  -2.456137166667746e-09  0.0  3.392706404810427e-10  3.8396972001479326e-10  5.972618257300622e-10  -8.61589688875336e-12  -1.4350650980659373e-09  -4.82142051248277e-10  0.0  -1.7491892016517167e-09  -1.5310036501436067e-09  -1.7652058311830546e-09  -1.331435872121968e-09  -9.49113126048842e-10  -9.270977246545106e-10  -3.5638185617478755e-10  0.0  0.0  0.0  8.296920173725222e-09  -1.3072786966316437e-10  -6.020220251017574e-10  -8.627801223221816e-09  -4.716011087688924e-09  -5.499984028750027e-09  -1.4425821516946217e-08  -2.109678122691615e-08  -1.5821593424448273e-08  1.626177075090043e-07  -5.057270338409732e-09  -2.7341372573736373e-08  -4.3017035805709395e-09  -1.1845945066103692e-08  -7.105488991537232e-09  -1.4203649577031e-08  -7.806640935268731e-09  
-4.5053524842519e-10  -5.056357422626333e-10  -3.2639246400832156e-10  -1.0138187523681756e-09  -1.2499318367084328e-10  -5.127545313543919e-11  -1.239166153879304e-10  -1.24569799097214e-09  -5.10856868334203e-10  -5.096698054926447e-10  0.0  -3.4345907507754802e-09  -3.1212202949225964e-09  -2.924978093668545e-09  -3.859748358541508e-09  -9.399258735589755e-10  -2.325429453860965e-09  0.0  -3.4885145339527184e-10  -4.1006405160191014e-10  -3.9462707190139674e-10  -3.207340297976951e-10  -1.1720137385203571e-10  -1.3104697591424336e-10  1.067395267693764e-11  0.0  0.0  0.0  2.284918798957072e-08  -1.7286933646880211e-09  -2.1194465942605063e-09  -3.401976408813414e-08  -1.986183159401573e-08  -2.2435964166635328e-08  -9.262502903011237e-09  -5.505569392054421e-09  -9.03478578615672e-09  -5.057270338409738e-09  2.3692897186048054e-07  -7.373295051839523e-09  -1.6711654619131252e-08  -1.6277961117470307e-08  -2.7326053862067874e-08  -7.134662133554204e-09  -1.378023912660455e-08  
-2.7971855148022814e-09  -2.2175983138252893e-09  -2.3889436331812933e-09  -1.2920210363135647e-09  -1.3425822858352562e-09  -1.016861887817062e-09  -1.2733541831894655e-09  -3.7806624883232505e-09  -3.728439432672453e-09  -3.4340776982456338e-09  0.0  4.374736305548836e-10  4.905116156024354e-10  8.108679981814278e-10  -8.820390228520864e-11  -2.1664421078050137e-09  -7.539495340984999e-10  0.0  -2.4524256439736615e-09  -2.131995727824987e-09  -2.479232362893931e-09  -1.972693492848404e-09  -1.3176280428628044e-09  -1.28266326554793e-09  -4.794729541719482e-10  0.0  0.0  0.0  1.2017464627421314e-08  -2.0692596813470158e-10  -8.663964161118196e-10  -1.257781152545515e-08  -6.910591323060535e-09  -8.015712303219221e-09  -2.1039782456697314e-08  -2.9748212592981125e-08  -2.3062909595419657e-08  -2.7341372573736376e-08  -7.373295051839525e-09  2.235022574274189e-07  -6.267386074895019e-09  -1.727367242843527e-08  -1.036365158352267e-08  -2.0708715155339393e-08  -1.1378169883169395e-08  
-5.205441894673913e-10  -4.936541481950466e-10  -4.0453790835592004e-10  -9.451420304996777e-10  -1.8750965198326796e-10  -5.903242007620293e-11  -1.7100262678798234e-10  -1.261227938821858e-09  -6.556453751335065e-10  -7.318715619025948e-10  0.0  -5.173739159044115e-09  -5.600691432006726e-09  -7.148469319767612e-09  -3.5812259703551687e-09  -9.601156779622827e-10  -2.193595455073028e-09  0.0  -4.4741211975715233e-10  -6.800561681351772e-10  -4.82117039651466e-10  -3.6641995820622874e-10  -1.8903871598672435e-10  -2.2102062785971888e-10  -6.614497558477734e-11  0.0  0.0  0.0  4.668747536025498e-08  -3.781517678425262e-09  -4.5952892302023266e-09  -7.243428321788852e-08  -4.2400442499433606e-08  -4.796643821111599e-08  -7.860580566456033e-09  -4.673335585673595e-09  -7.704006816381096e-09  -4.3017035805709395e-09  -1.6711654619131265e-08  -6.267386074895029e-09  3.5364168784988243e-07  -1.3871317320682787e-08  -2.332036103453061e-08  -6.06877941823996e-09  -1.1767597746916757e-08  
-1.0605404243783257e-09  -1.2248458849124342e-09  -7.52718896136055e-10  -2.3866515384152597e-09  -3.14707039370298e-10  -1.9310426901892368e-10  -3.0525726793932427e-10  -2.912987947344208e-09  -1.1480353415716403e-09  -1.068531445463865e-09  0.0  -2.1201427865722304e-09  -1.933372615286479e-09  -1.609920645505508e-09  -4.812122566683067e-09  -2.2305708522807362e-09  -5.311062877588574e-09  0.0  -7.797967233345432e-10  -7.280162336031623e-10  -8.663378819448565e-10  -7.148713142006769e-10  -2.9169828577759423e-10  -2.9534177345238424e-10  1.8736180586018215e-11  0.0  0.0  0.0  2.056779975877067e-08  -1.2815982134524508e-09  -1.6334056981378245e-09  -2.8167527551920633e-08  -1.632972735015308e-08  -1.8421026064910376e-08  -2.1715981607383654e-08  -1.2900573488942965e-08  -2.1159978133589092e-08  -1.184594506610369e-08  -1.6277961117470304e-08  -1.7273672428435268e-08  -1.3871317320682798e-08  2.812521990485703e-07  -2.2910030409379124e-08  -1.6717300783351127e-08  -2.50780265412223e-08  
-6.236483438003015e-10  -7.373876282931605e-10  -4.863208830241742e-10  -1.4755645851798037e-09  -2.029425959465591e-10  -1.1548119646084038e-10  -1.8560364650335973e-10  -1.7839726943909243e-09  -7.487422649219377e-10  -7.491537224508794e-10  0.0  -4.840884236870755e-09  -4.441068524415439e-09  -4.1253238382777534e-09  -5.479610044974833e-09  -1.3876915717523217e-09  -3.283799660691887e-09  0.0  -5.330094521328362e-10  -5.500000673523278e-10  -5.928165551809871e-10  -4.73577158113433e-10  -1.6965777523576821e-10  -1.7101333880795555e-10  3.6226522614617105e-11  0.0  0.0  0.0  3.1907078337833394e-08  -2.4314988573494383e-09  -2.960784007032914e-09  -4.748198838193784e-08  -2.7791228111344725e-08  -3.1289493132976925e-08  -1.3050442219374232e-08  -7.740176179327117e-09  -1.2698730265667743e-08  -7.105488991537229e-09  -2.7326053862067878e-08  -1.0363651583522664e-08  -2.332036103453061e-08  -2.2910030409379124e-08  3.2078238190602265e-07  -1.0037406435532107e-08  -1.9379213348330047e-08  
-1.4795584980738296e-09  -1.618190700704523e-09  -1.0511458394070791e-09  -2.0320830067524077e-09  -5.233389679582556e-10  -3.6701495759135974e-10  -5.026680164931443e-10  -3.769913795489693e-09  -1.6301612929183557e-09  -1.4815250777583775e-09  0.0  -2.435848109806911e-10  -1.8714270602274973e-10  5.2295588071514645e-11  -1.07486829628917e-09  -2.8969357201501052e-09  -1.5090802366612025e-09  0.0  -1.0715503319638692e-09  -9.599237184908904e-10  -1.1308994817214076e-09  -9.244174464324366e-10  -5.094250809623029e-10  -5.038264856927548e-10  -1.1506182194743361e-10  0.0  0.0  0.0  1.0362462302601283e-08  -3.609615465516225e-10  -7.275038621519265e-10  -1.2252340453898917e-08  -6.931938688421786e-09  -7.902717454793007e-09  -2.0382006068552777e-08  -1.5460182132331808e-08  -2.231599085169654e-08  -1.4203649577030998e-08  -7.134662133554204e-09  -2.0708715155339383e-08  -6.068779418239958e-09  -1.6717300783351124e-08  -1.0037406435532114e-08  1.9010961885087982e-07  -1.0998648743558134e-08  
-6.919965066826569e-10  -7.552818650383186e-10  -4.453062563013689e-10  -1.4922776055576797e-09  -1.5680040047480913e-10  -5.443980758684739e-11  -1.7519578333951034e-10  -1.8518142436552963e-09  -6.975912891023478e-10  -6.509456414275399e-10  0.0  -1.92390270812232e-09  -1.699836889505964e-09  -1.5183451741435024e-09  -4.3044865982490676e-09  -1.3574003705531813e-09  -3.532201763124552e-09  0.0  -4.4588910469329486e-10  -5.210742722191308e-10  -5.135320884099655e-10  -4.370128179077053e-10  -1.7116120180813602e-10  -2.0048333817172977e-10  -5.047647736145053e-12  0.0  0.0  0.0  1.7018410547045203e-08  -1.0954413548602185e-09  -1.4009610416960614e-09  -2.390234834867933e-08  -1.3799387540308066e-08  -1.57019271806569e-08  -1.4261626566137827e-08  -8.495646800025253e-09  -1.3936611097123151e-08  -7.806640935268731e-09  -1.3780239126604549e-08  -1.13781698831694e-08  -1.1767597746916757e-08  -2.5078026541222293e-08  -1.9379213348330047e-08  -1.0998648743558132e-08  2.2223356548229642e-07  
