45 45
5.357212275798786e-07  6.205500920066968e-08  8.461722148172907e-08  7.79490852684629e-08  7.392162785920505e-08  6.722481357311103e-08  5.735758659257698e-09  1.6577615336962422e-09  7.497696755841722e-09  5.708647296849423e-09  -9.680816909890542e-10  -3.178996733130266e-09  4.723756676441343e-09  -5.521600210277242e-10  2.9829358052064664e-10  6.524968623482262e-09  7.020852497970326e-09  4.828079438540624e-11  -6.283993118965278e-09  -2.268844509048713e-09  -9.237538787873949e-09  1.8237520492463848e-09  0.0  0.0  3.969388486966358e-10  -1.7445228613442442e-09  2.248294504389767e-10  2.081181501607863e-10  -1.4920833603851907e-09  -4.835405909252347e-10  -1.1839125998699388e-09  0.0  0.0  0.0  -1.9606544048300797e-09  2.544305625514819e-09  -1.9242614720745573e-09  4.01544382660729e-09  -1.3172031544565424e-09  1.0956171027978931e-08  1.1923424495548914e-09  1.3759262388697621e-09  1.2099440930726083e-08  4.61883185112047e-09  -2.003408925695505e-09  
6.205500920066968e-08  4.2217793893313694e-07  6.827304475819998e-08  6.615970964551335e-08  6.817233204694861e-08  5.242419477311267e-08  8.864106758414853e-09  1.5102227843078972e-09  -1.2743760541662653e-11  -2.292588247288213e-09  -2.1662366251887923e-09  -7.6213088578592e-09  -1.3883709532908578e-09  2.226887652620027e-09  2.252381508024894e-09  7.198736404087614e-09  8.049790643941863e-09  -3.377052879310439e-09  2.595919103369074e-09  -2.526799481361336e-09  2.7379578086775213e-09  -6.39933454660876e-09  0.0  0.0  -2.961553369368125e-10  3.4112883365911947e-09  9.040768144612731e-10  -2.110931942545734e-10  3.187430367180397e-09  1.1557520508779016e-09  -8.663442701880095e-10  0.0  0.0  0.0  -2.4151925727204244e-09  -1.0508508364092334e-10  -1.28477686130527e-10  1.744550205396021e-09  -1.1038493691185666e-09  5.5767044380892925e-09  5.025420278949151e-09  4.067619084101723e-09  5.098228514228669e-09  8.511650106074222e-09  8.05702494389799e-09  
8.461722148172907e-08  6.827304475819998e-08  6.252078628062108e-07  8.907395001653531e-08  9.092943603196664e-08  7.825232502405707e-08  1.0424075843317242e-08  -4.798051399467753e-10  8.546227944137903e-09  9.148611779589828e-10  -2.900488030558051e-09  1.599271414334236e-08  1.6201011438107517e-09  6.171135645823966e-09  8.962602504935275e-10  1.06108892292825e-08  -2.339138791933517e-10  5.718963634499949e-09  5.175489681344667e-09  -6.593226001485113e-10  -1.581651061357896e-08  3.6012840132951344e-09  0.0  0.0  -1.1379178858773325e-09  -1.2648747460786457e-09  -5.733573544245745e-10  2.35272723354691e-09  1.9897061854066403e-09  -1.9589920332805324e-10  9.717770306416012e-09  0.0  0.0  0.0  5.1181698234804434e-09  7.677806858630179e-09  -2.2993893125233536e-09  6.816982872709216e-09  2.211272457129853e-08  1.3624874820137256e-09  -1.4547756290101223e-09  6.196309904793444e-09  1.0101882570199001e-08  -1.4012865907285626e-09  6.140435859111385e-09  
7.794908526846292e-08  6.615970964551335e-08  8.907395001653534e-08  5.580368851277004e-07  8.480850976862612e-08  7.836543948071754e-08  -1.7455094502756083e-10  7.2203645279554885e-09  -5.048173960622747e-09  6.482050978288431e-09  1.3329325323028072e-08  9.501111245610758e-09  5.141755271659773e-09  7.780227307564357e-09  -2.6159453598740963e-09  5.445479285801033e-09  7.23131099396106e-09  -1.0080618423269555e-09  5.982231962875522e-10  -3.360092998906703e-09  3.18517537800988e-09  1.8797076114944463e-09  0.0  0.0  2.065933589886259e-09  -2.8357604342408774e-09  2.170935507573065e-09  -6.255747983395737e-10  3.7066702692533088e-09  1.3816504666995795e-09  1.5407549221101329e-09  0.0  0.0  0.0  3.1877931166083897e-10  3.418469159063234e-09  6.960201129955571e-09  -1.9745609325005977e-10  -1.3429705985752273e-09  7.395662866028323e-09  6.70030107648221e-09  -1.1068383600923926e-09  7.474683567142106e-09  6.992485543891423e-09  6.240287207520619e-09  
7.392162785920504e-08  6.81723320469486e-08  9.092943603196664e-08  8.480850976862608e-08  5.846544356612464e-07  7.924313785218141e-08  -2.300360603285409e-09  6.344817264870013e-09  5.070680966727331e-09  -3.037881067545534e-09  3.280044535425421e-09  1.1183216979412705e-08  4.205987452069059e-09  8.43615330512051e-09  -2.9055018751260004e-09  6.965162247218776e-09  4.807497786460322e-09  -5.664317135309154e-10  -4.679148090363316e-09  -3.3837326313278215e-09  -2.167379481750727e-09  -2.082304387918512e-09  0.0  0.0  1.7003475899934078e-10  5.048335859187504e-09  1.0095347444651825e-09  -6.822557295882851e-10  1.7569499864607307e-09  2.368515889484403e-09  7.729597398546681e-10  0.0  0.0  0.0  4.290922230560574e-09  5.26632785623709e-09  -1.4779419645573977e-09  -7.749234426866677e-10  6.27053534996006e-11  5.832149724712316e-09  1.0818173883472752e-08  2.150205480301381e-09  7.412387755776622e-09  4.0677724450647814e-09  5.7499171009631354e-09  
6.722481357311103e-08  5.2424194773112676e-08  7.825232502405709e-08  7.836543948071754e-08  7.924313785218144e-08  4.3682370874787394e-07  3.2216482656742593e-09  1.3174387694963046e-09  5.728041198244741e-09  9.383730348682644e-09  1.4985395388334207e-08  4.80725426830234e-09  3.321969658479731e-10  1.8374551690391368e-09  -1.2521229086472155e-09  1.9699839473369233e-09  1.9459100874413957e-09  -1.5193752085615535e-09  -1.839544187182733e-10  -2.579541468624383e-09  2.251652960893625e-10  -1.1731160434221747e-09  0.0  0.0  1.0741579298414395e-10  -1.24923725304795e-09  -7.214133544943088e-10  2.7059237671116513e-09  -6.861933351729122e-10  3.4887280533437297e-10  6.755133492441814e-10  0.0  0.0  0.0  2.2242607795276924e-09  2.837168609858059e-09  9.745047598604685e-10  -4.3316206446676995e-09  -4.473515166049891e-09  1.3729560616633864e-09  4.0667440807705195e-09  -6.156591541506454e-10  1.7887977365067846e-09  2.121610196785706e-09  1.4079490110162543e-09  
5.735758659257696e-09  8.864106758414848e-09  1.0424075843317239e-08  -1.7455094502756122e-10  -2.3003606032854103e-09  3.2216482656742576e-09  3.727427973077818e-07  -8.337457606765207e-09  -5.8312287448307245e-09  -5.30620008877305e-09  -9.458321583197567e-09  -1.0404369462855433e-08  -7.80860776852632e-09  -1.043870861799145e-08  -9.67904143355494e-09  -1.0033258580625509e-08  -1.1177634455344958e-08  -1.1834643232879013e-08  -1.1043346211005421e-08  -1.1007077248604114e-08  -9.552443654581757e-09  -1.0356154071658709e-08  0.0  0.0  -1.3293491264741305e-09  -1.8750445310259317e-09  -1.6589201269182932e-09  -1.1258032836538579e-09  -3.2842113554109244e-09  -2.048298738330715e-09  -2.5068330889926686e-09  0.0  0.0  0.0  -2.7073289041360413e-09  -7.740590430917797e-10  -2.4652662879179896e-09  -3.279772572458979e-09  -2.423384074181571e-09  -1.569911401987547e-08  -1.3335906378515108e-08  -1.4947671827309666e-08  -1.6132457300850077e-08  -1.1648044047714422e-08  -1.1638742286931851e-08  
1.6577615336962442e-09  1.5102227843078983e-09  -4.798051399467732e-10  7.220364527955495e-09  6.344817264870013e-09  1.3174387694963054e-09  -8.337457606765215e-09  3.685597335673212e-07  -5.94863035400062e-09  -5.215623352843251e-09  -8.949805000315301e-09  -1.1776173421011494e-08  -9.622880464453891e-09  -1.1002095610736171e-08  -8.485060806838606e-09  -9.134078173753532e-09  -1.1183844198113932e-08  -9.833258956875386e-09  -1.0003330387554459e-08  -9.498183784731302e-09  -8.98343319506468e-09  -9.505783204800317e-09  0.0  0.0  -9.128871294494296e-10  -1.4449814045071446e-09  -1.2751418873151566e-09  -1.0557330578623347e-09  -2.757713869087253e-09  -1.7400264963955927e-09  -1.5723871451402652e-09  0.0  0.0  0.0  -2.561704272985218e-09  -8.73889716218102e-10  -2.2253582278171978e-09  -3.3779470199379592e-09  -2.687280071993301e-09  -1.700374033408293e-08  -1.4107538186903762e-08  -1.528268761513423e-08  -1.600821012073712e-08  -1.1640468882798539e-08  -1.264371234051912e-08  
7.497696755841724e-09  -1.2743760541662427e-11  8.546227944137912e-09  -5.048173960622748e-09  5.070680966727334e-09  5.7280411982447426e-09  -5.831228744830737e-09  -5.948630354000628e-09  2.2734329723100724e-07  -6.4602268404995634e-09  -8.989812400247191e-09  -7.984552092347492e-09  -5.015181374493261e-09  -6.53189012593302e-09  -4.2428871865977856e-09  -5.3119365511165965e-09  -6.47055564329952e-09  -4.3300400392446255e-09  -5.058311738139638e-09  -4.187854512921009e-09  -5.063626678801109e-09  -4.32669124257326e-09  0.0  0.0  -1.7926229719310243e-09  -2.480652512113978e-09  -1.957637604449833e-09  -1.6710427757287605e-09  -2.8035154090942694e-09  -2.6805593523001803e-09  -2.3226843136950738e-09  0.0  0.0  0.0  -4.049696761125613e-09  -5.817226469562e-10  -3.851480837696896e-09  -5.115578183347823e-09  -3.6150274314228268e-09  -8.93440157977996e-09  -9.099458760374773e-09  -8.397995741182499e-09  -8.8190335558397e-09  -7.0868826290272755e-09  -6.789246135836824e-09  
5.708647296849424e-09  -2.292588247288212e-09  9.148611779589826e-10  6.48205097828843e-09  -3.0378810675455354e-09  9.383730348682641e-09  -5.3062000887730495e-09  -5.215623352843245e-09  -6.460226840499562e-09  2.1546627917368568e-07  -1.0434932007896988e-08  -7.30449939839523e-09  -4.44840360928544e-09  -5.801101430076546e-09  -3.796630283407255e-09  -4.8370049592697355e-09  -5.661516272856893e-09  -3.7496008446713155e-09  -4.331174258001175e-09  -3.6074820745770728e-09  -4.54044873432133e-09  -3.6503523826602986e-09  0.0  0.0  -2.4561351237134685e-09  -2.249711191831162e-09  -2.4097435788488754e-09  -2.045925367638617e-09  -2.76253527565576e-09  -2.9732862372767047e-09  -2.6019357594930164e-09  0.0  0.0  0.0  -5.297284059644236e-09  -7.809525065724367e-10  -4.627557931601498e-09  -6.670672430864902e-09  -3.6664527393777096e-09  -7.95958480698691e-09  -8.235780122412076e-09  -7.690451559286575e-09  -8.077488676721151e-09  -6.245474105972476e-09  -6.163101397195253e-09  
-9.680816909890523e-10  -2.1662366251887923e-09  -2.9004880305580515e-09  1.3329325323028067e-08  3.2800445354254213e-09  1.4985395388334207e-08  -9.45832158319757e-09  -8.949805000315298e-09  -8.989812400247188e-09  -1.0434932007896988e-08  3.4483027271225765e-07  -1.2539174341084769e-08  -7.363214562361165e-09  -9.970193409112362e-09  -6.731276047877122e-09  -7.997112427142434e-09  -9.878904352149605e-09  -6.914737033067762e-09  -7.759266103408663e-09  -6.548294359833783e-09  -7.754876709595604e-09  -6.7179333365091355e-09  0.0  0.0  -2.7546275515326185e-09  -3.6403997166262065e-09  -3.3406694889175248e-09  -2.37598562930561e-09  -4.49401809565493e-09  -4.250498068127338e-09  -3.5933673868380712e-09  0.0  0.0  0.0  -6.0845989011411915e-09  -1.0675172197966969e-09  -5.257671631500007e-09  -7.978347489387147e-09  -4.31898548683579e-09  -1.3872920650718646e-08  -1.404816555537566e-08  -1.280740137043362e-08  -1.3915170163420955e-08  -1.0766492581438213e-08  -1.037187586442743e-08  
-3.1789967331302673e-09  -7.621308857859196e-09  1.5992714143342358e-08  9.501111245610765e-09  1.1183216979412703e-08  4.807254268302339e-09  -1.040436946285544e-08  -1.1776173421011492e-08  -7.984552092347494e-09  -7.304499398395231e-09  -1.253917434108476e-08  4.716293814817703e-07  -1.010900450781863e-08  -1.3148908701581854e-08  -1.192120285501817e-08  -1.2269237230488972e-08  -1.2628947660368548e-08  -1.4388937813815075e-08  -1.4382114230496957e-08  -1.341275554607029e-08  -1.0066352170981644e-08  -1.1145131886630118e-08  0.0  0.0  -1.5102865292776085e-09  -2.3034748857592218e-09  -2.0051689540215123e-09  -1.4697811928026455e-09  -3.3288673582748873e-09  -2.592261174452116e-09  -2.9114136025045775e-09  0.0  0.0  0.0  -3.4567025511248166e-09  -6.880150682586985e-10  -3.304859707324054e-09  -4.761904459105171e-09  -3.1819540692452853e-09  -1.867567201833004e-08  -1.5810523549947432e-08  -2.149517842749644e-08  -1.9002700436784495e-08  -1.3246825376203169e-08  -1.4509425305704743e-08  
4.723756676441341e-09  -1.3883709532908571e-09  1.6201011438107515e-09  5.141755271659773e-09  4.205987452069057e-09  3.3219696584797363e-10  -7.808607768526322e-09  -9.622880464453896e-09  -5.015181374493262e-09  -4.4484036092854365e-09  -7.363214562361163e-09  -1.0109004507818635e-08  4.090213457476897e-07  -1.0127172625495977e-08  -7.897712436354176e-09  -9.181065575167946e-09  -1.0035101485323764e-08  -8.972416983042503e-09  -9.053601155722468e-09  -1.2752686071688563e-08  -1.0457649821653847e-08  -1.0209595707053358e-08  0.0  0.0  -7.399296128886376e-10  -1.1780871410393596e-09  -1.0464410458804764e-09  -8.774076562463391e-10  -2.2976960380908475e-09  -1.4822086703949987e-09  -1.5403465686344075e-09  0.0  0.0  0.0  -2.2867446942876873e-09  -4.2448663241394617e-10  -2.037928181316083e-09  -2.9135073150091283e-09  -2.2592250986081193e-09  -1.5415996612620565e-08  -1.3101798025407866e-08  -1.5659904591000307e-08  -1.5565972888648076e-08  -9.90157421425398e-09  -1.1462348283532376e-08  
-5.521600210277252e-10  2.2268876526200276e-09  6.171135645823965e-09  7.780227307564359e-09  8.436153305120504e-09  1.8374551690391368e-09  -1.0438708617991458e-08  -1.1002095610736166e-08  -6.531890125933024e-09  -5.801101430076541e-09  -9.97019340911236e-09  -1.3148908701581854e-08  -1.0127172625495977e-08  4.3941413884219217e-07  -1.0600127280729605e-08  -1.0931996264340765e-08  -1.3277380553126624e-08  -1.7049953118341288e-08  -1.3954845278388959e-08  -1.6122670892459786e-08  -1.4350451463843998e-08  -1.5140971047674413e-08  0.0  0.0  -1.7770836165892434e-09  -2.4174990318007933e-09  -2.083052189838579e-09  -1.4306342138314805e-09  -3.927318318507433e-09  -2.354930890448416e-09  -2.834042261539829e-09  0.0  0.0  0.0  -2.8553421568205534e-09  -7.440364165499933e-10  -2.5693810459755814e-09  -3.730206969782111e-09  -2.872684084153414e-09  -1.8261697549508172e-08  -1.8528847325352265e-08  -1.596290722515148e-08  -1.8976732931001013e-08  -1.2926888079169236e-08  -1.4103166113831466e-08  
2.982935805206462e-10  2.2523815080248936e-09  8.96260250493529e-10  -2.6159453598740963e-09  -2.9055018751260012e-09  -1.2521229086472162e-09  -9.679041433554937e-09  -8.485060806838597e-09  -4.242887186597786e-09  -3.796630283407255e-09  -6.731276047877118e-09  -1.1921202855018175e-08  -7.897712436354173e-09  -1.0600127280729608e-08  4.577324487494657e-07  -1.0979413964853474e-08  -1.2530335901842297e-08  -1.8995531865148993e-08  -1.6185927358915074e-08  -1.871740424362669e-08  -1.4889993578812044e-08  -1.6204921222190883e-08  0.0  0.0  -1.4701488116345606e-09  -1.9029706088296223e-09  -1.641224350713656e-09  -1.032529048427966e-09  -2.969688785131024e-09  -1.7371817166747306e-09  -2.593562096036792e-09  0.0  0.0  0.0  -1.968112547589347e-09  -5.961232226840093e-10  -1.749980436570514e-09  -2.3836744071057694e-09  -1.9560633460914974e-09  -1.745645342502956e-08  -1.252877944790849e-08  -1.9340443169918808e-08  -1.692495566534144e-08  -1.0677277782539553e-08  -1.2155309734338095e-08  
6.5249686234822584e-09  7.198736404087615e-09  1.0610889229282497e-08  5.445479285801031e-09  6.965162247218776e-09  1.969983947336923e-09  -1.0033258580625507e-08  -9.134078173753535e-09  -5.3119365511165965e-09  -4.837004959269735e-09  -7.997112427142436e-09  -1.2269237230488974e-08  -9.181065575167948e-09  -1.0931996264340764e-08  -1.097941396485347e-08  4.0411890023606345e-07  -1.2489744130921301e-08  -1.4780960927877255e-08  -1.3614482391455579e-08  -1.5027242204774775e-08  -1.023289774441602e-08  -1.18848406425738e-08  0.0  0.0  -1.2726649767810439e-09  -1.762765508759026e-09  -1.5570610818294088e-09  -1.0884974312562736e-09  -3.0362579575109677e-09  -1.844036414991751e-09  -2.425758868911629e-09  0.0  0.0  0.0  -2.2739822133379692e-09  -9.552180293770995e-10  -2.0892799734494545e-09  -2.8901413602580675e-09  -2.1267470398488323e-09  -1.5831884124661537e-08  -1.2586582646157892e-08  -1.9064812451795756e-08  -1.655163386068419e-08  -1.1417601427211835e-08  -1.233325304595372e-08  
7.020852497970324e-09  8.04979064394186e-09  -2.3391387919335077e-10  7.231310993961059e-09  4.807497786460322e-09  1.9459100874413957e-09  -1.117763445534496e-08  -1.1183844198113928e-08  -6.470555643299525e-09  -5.661516272856898e-09  -9.878904352149593e-09  -1.2628947660368543e-08  -1.0035101485323759e-08  -1.3277380553126629e-08  -1.2530335901842292e-08  -1.2489744130921298e-08  4.5801452098706464e-07  -2.100494362744288e-08  -1.8808231762061407e-08  -2.1031746371338997e-08  -1.8531801298555155e-08  -1.835851090870215e-08  0.0  0.0  -2.2561829994055228e-09  -2.894024774680039e-09  -2.493327174693591e-09  -1.6330252017929694e-09  -4.5019599373347606e-09  -2.6294524707015487e-09  -3.3531697507642485e-09  0.0  0.0  0.0  -3.0819295408876776e-09  -6.496987060394946e-10  -2.6239939046686005e-09  -3.728571546246347e-09  -3.278573950560792e-09  -1.9011436448355517e-08  -1.4184308953495561e-08  -1.8349595097599823e-08  -1.802673681841508e-08  -1.4509939251432358e-08  -1.4174350654559129e-08  
4.828079438540605e-11  -3.3770528793104387e-09  5.7189636344999445e-09  -1.0080618423269555e-09  -5.66431713530914e-10  -1.5193752085615537e-09  -1.1834643232879018e-08  -9.833258956875388e-09  -4.3300400392446255e-09  -3.749600844671318e-09  -6.914737033067754e-09  -1.438893781381508e-08  -8.972416983042504e-09  -1.7049953118341285e-08  -1.8995531865148996e-08  -1.478096092787726e-08  -2.100494362744287e-08  5.900497297662019e-07  -3.6966677257269895e-08  -4.434525375895869e-08  -3.370638612209492e-08  -3.7296132547425854e-08  0.0  0.0  -4.00941529878597e-09  -4.846455825131667e-09  -3.9334142855646926e-09  -2.001807111648076e-09  -6.101087644160565e-09  -3.1845202467927496e-09  -5.832285056508513e-09  0.0  0.0  0.0  -1.918717438584117e-09  -8.918071491478329e-10  -1.7541390814990495e-09  -2.333473495701112e-09  -2.1445912750056136e-09  -1.78922268365088e-08  -1.3803855708702236e-08  -2.2668550548031824e-08  -1.8242994731612252e-08  -1.219851089127112e-08  -1.414936167312041e-08  
-6.283993118965279e-09  2.595919103369075e-09  5.175489681344665e-09  5.982231962875511e-10  -4.679148090363317e-09  -1.83954418718274e-10  -1.1043346211005426e-08  -1.0003330387554467e-08  -5.05831173813964e-09  -4.3311742580011784e-09  -7.759266103408671e-09  -1.4382114230496967e-08  -9.05360115572247e-09  -1.3954845278388967e-08  -1.6185927358915077e-08  -1.3614482391455585e-08  -1.880823176206141e-08  -3.69666772572699e-08  5.373458496213084e-07  -3.8904565673573133e-08  -2.9564161926306232e-08  -3.0026015818989984e-08  0.0  0.0  -3.4042664950391055e-09  -4.173056150995779e-09  -3.4431647335139204e-09  -1.8296656811823123e-09  -5.521202325982577e-09  -2.9784220581754412e-09  -5.17027173453479e-09  0.0  0.0  0.0  -2.1690170320553166e-09  -1.1026687661274038e-09  -1.881553741357452e-09  -2.6983651048574417e-09  -2.3163641672362136e-09  -1.4407819664790885e-08  -1.110188080545494e-08  -2.023766404016234e-08  -1.3924864462885884e-08  -1.190935495849164e-08  -1.3949754612422417e-08  
-2.2688445090487123e-09  -2.526799481361335e-09  -6.593226001485112e-10  -3.3600929989067057e-09  -3.3837326313278224e-09  -2.579541468624383e-09  -1.100707724860411e-08  -9.4981837847313e-09  -4.187854512921007e-09  -3.607482074577074e-09  -6.548294359833782e-09  -1.3412755546070291e-08  -1.2752686071688568e-08  -1.6122670892459783e-08  -1.8717404243626698e-08  -1.502724220477478e-08  -2.1031746371338997e-08  -4.434525375895869e-08  -3.890456567357314e-08  6.329499506376399e-07  -3.6247677204177405e-08  -3.79716934296754e-08  0.0  0.0  -3.970599847161867e-09  -4.628558590905205e-09  -3.845507895241508e-09  -1.9833835548779715e-09  -5.895820489218522e-09  -3.1011722101943052e-09  -5.750129137778743e-09  0.0  0.0  0.0  -2.092620698988803e-09  -3.6432127260595023e-10  -1.84511349526178e-09  -2.415430715509705e-09  -2.374823892816447e-09  -1.4848816596367346e-08  -1.2910228314156339e-08  -2.3187273304389395e-08  -1.526169984556378e-08  -1.1458278561333366e-08  -1.4236843110010869e-08  
-9.237538787873946e-09  2.7379578086775197e-09  -1.5816510613578965e-08  3.185175378009879e-09  -2.1673794817507267e-09  2.2516529608936284e-10  -9.552443654581763e-09  -8.983433195064679e-09  -5.063626678801111e-09  -4.540448734321331e-09  -7.754876709595599e-09  -1.0066352170981644e-08  -1.0457649821653854e-08  -1.4350451463844003e-08  -1.4889993578812047e-08  -1.023289774441602e-08  -1.853180129855516e-08  -3.3706386122094924e-08  -2.9564161926306236e-08  -3.6247677204177405e-08  5.223547592726903e-07  -3.444402258271299e-08  0.0  0.0  -3.754686941261288e-09  -4.467875703905134e-09  -3.738359406398369e-09  -2.105495011760326e-09  -5.919975010316468e-09  -3.192434452728294e-09  -4.9005061678588775e-09  0.0  0.0  0.0  -2.6717800002700907e-09  -7.399625676429786e-10  -2.066344872779995e-09  -3.2974561524951795e-09  -2.857038219825571e-09  -1.576606833400957e-08  -1.469362771210705e-08  -1.130084643049492e-08  -1.4194361969810077e-08  -1.1536370141324182e-08  -1.2444699891546597e-08  
1.8237520492463846e-09  -6.399334546608762e-09  3.601284013295138e-09  1.879707611494445e-09  -2.082304387918512e-09  -1.1731160434221756e-09  -1.0356154071658706e-08  -9.505783204800324e-09  -4.326691242573261e-09  -3.6503523826603003e-09  -6.717933336509142e-09  -1.1145131886630123e-08  -1.0209595707053351e-08  -1.5140971047674403e-08  -1.6204921222190897e-08  -1.18848406425738e-08  -1.8358510908702162e-08  -3.729613254742586e-08  -3.002601581898999e-08  -3.797169342967539e-08  -3.444402258271299e-08  5.359446011968802e-07  0.0  0.0  -3.60847878584942e-09  -4.430467069875983e-09  -3.5693861149424423e-09  -1.859376325067424e-09  -5.5936844328189605e-09  -2.9669531419350723e-09  -5.315351386144097e-09  0.0  0.0  0.0  -2.0083487966778983e-09  -5.806236593416274e-10  -1.7813561184819575e-09  -2.4185072651285214e-09  -2.2267157991910615e-09  -1.6972458781033005e-08  -1.4304028273581293e-08  -1.364026899289691e-08  -1.6563204987173377e-08  -1.0701288258224428e-08  -1.2341802759320539e-08  
0.0  0.0  0.0  0.0  0.0  0.0  0.0  0.0  0.0  0.0  0.0  0.0  0.0  0.0  0.0  0.0  0.0  0.0  0.0  0.0  0.0  0.0  2.1263757113836366e-06  -1.1620403709358254e-07  0.0  0.0  0.0  0.0  0.0  0.0  0.0  -1.7092177653008704e-07  -1.36702214005342e-07  -7.962122374106916e-08  0.0  0.0  0.0  0.0  0.0  0.0  0.0  0.0  0.0  0.0  0.0  
0.0  0.0  0.0  0.0  0.0  0.0  0.0  0.0  0.0  0.0  0.0  0.0  0.0  0.0  0.0  0.0  0.0  0.0  0.0  0.0  0.0  0.0  -1.1620403709358254e-07  2.5423010735102922e-06  0.0  0.0  0.0  0.0  0.0  0.0  0.0  -1.9206407581640688e-07  -1.577145917886928e-07  -8.869770734425601e-08  0.0  0.0  0.0  0.0  0.0  0.0  0.0  0.0  0.0  0.0  0.0  
3.9693884869663583e-10  -2.961553369368127e-10  -1.137917885877332e-09  2.0659335898862595e-09  1.7003475899934065e-10  1.0741579298414373e-10  -1.329349126474132e-09  -9.128871294494278e-10  -1.7926229719310252e-09  -2.45613512371347e-09  -2.7546275515326214e-09  -1.5102865292776095e-09  -7.399296128886392e-10  -1.7770836165892448e-09  -1.4701488116345602e-09  -1.2726649767810445e-09  -2.2561829994055228e-09  -4.009415298785968e-09  -3.404266495039106e-09  -3.9705998471618675e-09  -3.754686941261289e-09  -3.6084787858494204e-09  0.0  0.0  7.002149171550117e-08  -1.7236661581841148e-09  -1.2987111767946595e-09  -9.730427740680243e-10  -1.3238061078129777e-09  -1.5322421151023957e-09  -1.4428189163758789e-09  0.0  0.0  0.0  -2.972524922779721e-09  -5.773734861217848e-10  -2.6543162680098325e-09  -3.2393073082447247e-09  -1.78348492262764e-09  -1.3517325279886152e-09  -1.5917395825328865e-09  -1.290879628728457e-09  -1.403541482951741e-09  -1.3120662317862363e-09  -1.2446873165742437e-09  
-1.7445228613442436e-09  3.4112883365911934e-09  -1.2648747460786447e-09  -2.835760434240876e-09  5.048335859187501e-09  -1.2492372530479495e-09  -1.8750445310259305e-09  -1.4449814045071435e-09  -2.4806525121139754e-09  -2.2497111918311597e-09  -3.6403997166262053e-09  -2.303474885759221e-09  -1.1780871410393598e-09  -2.417499031800793e-09  -1.9029706088296223e-09  -1.7627655087590243e-09  -2.8940247746800343e-09  -4.8464558251316625e-09  -4.173056150995775e-09  -4.628558590905203e-09  -4.467875703905133e-09  -4.430467069875979e-09  0.0  0.0  -1.7236661581841133e-09  8.913258019248208e-08  -1.5731007249862799e-09  -9.70615532336385e-10  -1.664112000771774e-09  -1.8324465793148958e-09  -1.6742908120840684e-09  0.0  0.0  0.0  -3.58827069316972e-09  -9.277254821229053e-10  -2.724837313108124e-09  -3.419232286649108e-09  -2.1090218602742896e-09  -2.0728003176881926e-09  -2.3251378991556122e-09  -1.8564926897623068e-09  -2.0452405870190026e-09  -1.852748487488343e-09  -1.6642748913186774e-09  
2.2482945043897663e-10  9.040768144612732e-10  -5.733573544245746e-10  2.1709355075730657e-09  1.009534744465183e-09  -7.214133544943091e-10  -1.6589201269182957e-09  -1.2751418873151566e-09  -1.9576376044498346e-09  -2.4097435788488762e-09  -3.3406694889175248e-09  -2.0051689540215123e-09  -1.0464410458804756e-09  -2.083052189838581e-09  -1.6412243507136573e-09  -1.5570610818294105e-09  -2.493327174693591e-09  -3.933414285564693e-09  -3.4431647335139196e-09  -3.845507895241509e-09  -3.738359406398369e-09  -3.569386114942444e-09  0.0  0.0  -1.2987111767946592e-09  -1.5731007249862797e-09  7.859438970893772e-08  -7.996209734705301e-10  -1.4860360821794605e-09  -1.5613696928412198e-09  -1.55252730282634e-09  0.0  0.0  0.0  -2.100699356416753e-09  -1.4989928878283884e-10  -1.8309216269301553e-09  -2.539213836626886e-09  -1.3606109886671157e-09  -1.880063875504923e-09  -2.1235243709374495e-09  -1.783825737343563e-09  -1.9609443631797357e-09  -1.693652396388013e-09  -1.734125513794707e-09  
2.081181501607863e-10  -2.110931942545733e-10  2.352727233546909e-09  -6.255747983395739e-10  -6.822557295882854e-10  2.705923767111651e-09  -1.1258032836538573e-09  -1.0557330578623337e-09  -1.6710427757287617e-09  -2.045925367638615e-09  -2.37598562930561e-09  -1.469781192802645e-09  -8.774076562463381e-10  -1.4306342138314793e-09  -1.0325290484279644e-09  -1.0884974312562723e-09  -1.6330252017929696e-09  -2.0018071116480766e-09  -1.8296656811823123e-09  -1.983383554877972e-09  -2.105495011760326e-09  -1.859376325067423e-09  0.0  0.0  -9.73042774068024e-10  -9.706155323363847e-10  -7.996209734705299e-10  5.973158367222407e-08  -9.49380709185453e-10  -9.99203625882545e-10  -9.723812771127792e-10  0.0  0.0  0.0  -2.1810526856584514e-09  5.774497450888771e-11  -1.910356188874574e-09  -2.626221441873542e-09  -1.5242341827601528e-09  -1.5757333912527926e-09  -1.6966323415476184e-09  -1.4395215353249326e-09  -1.5976851964546177e-09  -1.339730560079098e-09  -1.3638052028003515e-09  
-1.4920833603851913e-09  3.1874303671803946e-09  1.98970618540664e-09  3.70667026925331e-09  1.7569499864607315e-09  -6.861933351729128e-10  -3.284211355410924e-09  -2.7577138690872534e-09  -2.803515409094268e-09  -2.7625352756557607e-09  -4.494018095654933e-09  -3.3288673582748873e-09  -2.2976960380908454e-09  -3.927318318507432e-09  -2.9696887851310227e-09  -3.03625795751097e-09  -4.501959937334758e-09  -6.1010876441605674e-09  -5.521202325982577e-09  -5.895820489218521e-09  -5.919975010316465e-09  -5.593684432818961e-09  0.0  0.0  -1.3238061078129775e-09  -1.664112000771773e-09  -1.4860360821794605e-09  -9.493807091854527e-10  1.2964163245234045e-07  -1.6292021157534936e-09  -1.9756372586619454e-09  0.0  0.0  0.0  -1.8697929358772006e-09  -2.8090885373980293e-10  -1.6250269531877845e-09  -2.287726200360454e-09  -1.6221049920550342e-09  -4.103087637697741e-09  -4.456098039603556e-09  -3.84435698382674e-09  -4.1329573000528644e-09  -3.5057447141010507e-09  -3.311642005900648e-09  
-4.835405909252343e-10  1.1557520508779016e-09  -1.9589920332805368e-10  1.3816504666995792e-09  2.3685158894844035e-09  3.4887280533437235e-10  -2.048298738330716e-09  -1.7400264963955935e-09  -2.680559352300182e-09  -2.9732862372767014e-09  -4.250498068127337e-09  -2.5922611744521155e-09  -1.482208670394998e-09  -2.3549308904484145e-09  -1.7371817166747298e-09  -1.8440364149917526e-09  -2.629452470701548e-09  -3.184520246792748e-09  -2.9784220581754424e-09  -3.1011722101943052e-09  -3.192434452728292e-09  -2.9669531419350715e-09  0.0  0.0  -1.5322421151023957e-09  -1.832446579314895e-09  -1.5613696928412203e-09  -9.99203625882545e-10  -1.6292021157534936e-09  9.264239676557131e-08  -1.691524477980505e-09  0.0  0.0  0.0  -2.6957690014804413e-09  -3.926293825624139e-10  -2.3894094776169693e-09  -3.3285418767092053e-09  -1.7435910889098662e-09  -2.64911430451593e-09  -2.806816876083742e-09  -2.5089164305194894e-09  -2.7377238332265886e-09  -2.217513635391509e-09  -2.1550099689722095e-09  
-1.183912599869939e-09  -8.663442701880098e-10  9.717770306416019e-09  1.5407549221101337e-09  7.72959739854668e-10  6.755133492441815e-10  -2.506833088992671e-09  -1.572387145140266e-09  -2.322684313695075e-09  -2.601935759493017e-09  -3.5933673868380737e-09  -2.9114136025045783e-09  -1.5403465686344065e-09  -2.8340422615398277e-09  -2.593562096036791e-09  -2.4257588689116307e-09  -3.353169750764248e-09  -5.832285056508515e-09  -5.170271734534794e-09  -5.750129137778745e-09  -4.900506167858879e-09  -5.315351386144099e-09  0.0  0.0  -1.4428189163758793e-09  -1.6742908120840686e-09  -1.55252730282634e-09  -9.723812771127788e-10  -1.9756372586619454e-09  -1.6915244779805052e-09  1.0828689302418998e-07  0.0  0.0  0.0  -2.0033974283464906e-09  5.77967634823312e-11  -1.8921250726040427e-09  -2.4487694447928784e-09  -1.6970919705672925e-09  -2.4971895030296495e-09  -2.4440265587211344e-09  -2.8587669555918583e-09  -2.8241115438107556e-09  -2.1481526625720512e-09  -2.4989602460964353e-09  
0.0  0.0  0.0  0.0  0.0  0.0  0.0  0.0  0.0  0.0  0.0  0.0  0.0  0.0  0.0  0.0  0.0  0.0  0.0  0.0  0.0  0.0  -1.7092177653008704e-07  -1.9206407581640686e-07  0.0  0.0  0.0  0.0  0.0  0.0  0.0  5.220611947527441e-06  -2.620795881895269e-07  -1.413687846586535e-07  0.0  0.0  0.0  0.0  0.0  0.0  0.0  0.0  0.0  0.0  0.0  
0.0  0.0  0.0  0.0  0.0  0.0  0.0  0.0  0.0  0.0  0.0  0.0  0.0  0.0  0.0  0.0  0.0  0.0  0.0  0.0  0.0  0.0  -1.36702214005342e-07  -1.5771459178869282e-07  0.0  0.0  0.0  0.0  0.0  0.0  0.0  -2.620795881895269e-07  8.69904916395091e-06  -1.2027120874950512e-07  0.0  0.0  0.0  0.0  0.0  0.0  0.0  0.0  0.0  0.0  0.0  
0.0  0.0  0.0  0.0  0.0  0.0  0.0  0.0  0.0  0.0  0.0  0.0  0.0  0.0  0.0  0.0  0.0  0.0  0.0  0.0  0.0  0.0  -7.962122374106916e-08  -8.869770734425601e-08  0.0  0.0  0.0  0.0  0.0  0.0  0.0  -1.413687846586535e-07  -1.2027120874950517e-07  1.1687896285580322e-05  0.0  0.0  0.0  0.0  0.0  0.0  0.0  0.0  0.0  0.0  0.0  
-1.96065440483008e-09  -2.4151925727204228e-09  5.118169823480446e-09  3.1877931166083886e-10  4.290922230560577e-09  2.2242607795276936e-09  -2.7073289041360404e-09  -2.561704272985217e-09  -4.049696761125612e-09  -5.297284059644236e-09  -6.084598901141192e-09  -3.4567025511248174e-09  -2.2867446942876873e-09  -2.855342156820556e-09  -1.9681125475893456e-09  -2.2739822133379697e-09  -3.08192954088768e-09  -1.91871743858412e-09  -2.16901703205532e-09  -2.092620698988801e-09  -2.671780000270092e-09  -2.008348796677899e-09  0.0  0.0  -2.972524922779723e-09  -3.5882706931697214e-09  -2.1006993564167525e-09  -2.181052685658451e-09  -1.869792935877201e-09  -2.6957690014804413e-09  -2.003397428346491e-09  0.0  0.0  0.0  1.5921435495838924e-07  8.316637417847562e-10  -9.38987782197193e-09  -9.427458322645981e-09  -6.7074014043483055e-09  -4.1657898870744186e-09  -4.160091441673154e-09  -3.891191111678202e-09  -4.3441938777326855e-09  -3.3255354281022857e-09  -3.589796160001521e-09  
2.5443056255148187e-09  -1.0508508364092396e-10  7.677806858630175e-09  3.4184691590632354e-09  5.266327856237089e-09  2.8371686098580606e-09  -7.740590430917797e-10  -8.738897162181024e-10  -5.817226469562e-10  -7.809525065724367e-10  -1.0675172197966967e-09  -6.880150682586983e-10  -4.244866324139464e-10  -7.440364165499939e-10  -5.961232226840096e-10  -9.55218029377099e-10  -6.49698706039495e-10  -8.91807149147833e-10  -1.1026687661274036e-09  -3.6432127260595054e-10  -7.399625676429785e-10  -5.80623659341628e-10  0.0  0.0  -5.773734861217849e-10  -9.27725482122905e-10  -1.4989928878283882e-10  5.7744974508887724e-11  -2.8090885373980293e-10  -3.926293825624138e-10  5.7796763482331325e-11  0.0  0.0  0.0  8.316637417847563e-10  6.743989176786127e-08  -1.4274888994248592e-10  -2.914680197497104e-10  -4.207683741013951e-10  -8.393059794510817e-10  -1.0675823105281305e-09  -7.087077018912041e-10  -1.930719860052231e-10  -6.620892715224755e-10  3.2492726981958743e-10  
-1.9242614720745564e-09  -1.2847768613052683e-10  -2.2993893125233536e-09  6.960201129955572e-09  -1.477941964557398e-09  9.74504759860469e-10  -2.465266287917987e-09  -2.2253582278171974e-09  -3.851480837696896e-09  -4.627557931601497e-09  -5.257671631500007e-09  -3.304859707324057e-09  -2.037928181316083e-09  -2.5693810459755823e-09  -1.7499804365705142e-09  -2.089279973449456e-09  -2.6239939046686005e-09  -1.754139081499051e-09  -1.881553741357453e-09  -1.8451134952617795e-09  -2.066344872779998e-09  -1.7813561184819586e-09  0.0  0.0  -2.6543162680098313e-09  -2.7248373131081238e-09  -1.8309216269301555e-09  -1.910356188874575e-09  -1.6250269531877855e-09  -2.3894094776169705e-09  -1.8921250726040443e-09  0.0  0.0  0.0  -9.389877821971931e-09  -1.4274888994248592e-10  1.3542896457497215e-07  -8.046141243856296e-09  -5.530734497889859e-09  -3.6538849453721153e-09  -3.6757558483874127e-09  -3.5681614235683347e-09  -3.947128547497866e-09  -2.8384259718285544e-09  -3.2146641296277742e-09  
4.01544382660729e-09  1.7445502053960203e-09  6.816982872709212e-09  -1.974560932500604e-10  -7.749234426866681e-10  -4.3316206446676995e-09  -3.279772572458977e-09  -3.3779470199379605e-09  -5.115578183347822e-09  -6.670672430864903e-09  -7.978347489387146e-09  -4.761904459105172e-09  -2.9135073150091332e-09  -3.730206969782105e-09  -2.3836744071057714e-09  -2.890141360258071e-09  -3.728571546246348e-09  -2.333473495701111e-09  -2.6983651048574413e-09  -2.4154307155097072e-09  -3.2974561524951787e-09  -2.418507265128519e-09  0.0  0.0  -3.2393073082447243e-09  -3.4192322866491067e-09  -2.539213836626886e-09  -2.626221441873541e-09  -2.2877262003604534e-09  -3.3285418767092057e-09  -2.448769444792878e-09  0.0  0.0  0.0  -9.427458322645983e-09  -2.914680197497103e-10  -8.046141243856297e-09  1.7549868059122554e-07  -6.398514402239997e-09  -5.162075762248251e-09  -5.4297820894515245e-09  -4.8642571049324505e-09  -5.283279292243189e-09  -4.1132294918796446e-09  -4.364270390749497e-09  
-1.317203154456543e-09  -1.1038493691185664e-09  2.2112724571298526e-08  -1.3429705985752264e-09  6.270535349959992e-11  -4.473515166049892e-09  -2.423384074181568e-09  -2.687280071993301e-09  -3.615027431422827e-09  -3.666452739377711e-09  -4.318985486835791e-09  -3.1819540692452844e-09  -2.2592250986081193e-09  -2.872684084153414e-09  -1.9560633460914978e-09  -2.126747039848832e-09  -3.2785739505607923e-09  -2.1445912750056136e-09  -2.3163641672362128e-09  -2.374823892816448e-09  -2.857038219825572e-09  -2.2267157991910606e-09  0.0  0.0  -1.7834849226276396e-09  -2.1090218602742896e-09  -1.3606109886671153e-09  -1.5242341827601526e-09  -1.6221049920550338e-09  -1.7435910889098662e-09  -1.6970919705672931e-09  0.0  0.0  0.0  -6.707401404348304e-09  -4.20768374101395e-10  -5.530734497889857e-09  -6.398514402239996e-09  1.2986916745174197e-07  -4.1431606990973485e-09  -3.898299223757789e-09  -3.593397331485318e-09  -3.993815752822789e-09  -3.3701929636892204e-09  -3.3103352643873655e-09  
1.0956171027978933e-08  5.576704438089293e-09  1.3624874820137212e-09  7.395662866028326e-09  5.8321497247123156e-09  1.3729560616633845e-09  -1.5699114019875463e-08  -1.700374033408294e-08  -8.934401579779967e-09  -7.959584806986918e-09  -1.3872920650718644e-08  -1.867567201833004e-08  -1.5415996612620565e-08  -1.8261697549508165e-08  -1.7456453425029565e-08  -1.583188412466154e-08  -1.9011436448355524e-08  -1.7892226836508796e-08  -1.4407819664790878e-08  -1.4848816596367367e-08  -1.576606833400959e-08  -1.6972458781032995e-08  0.0  0.0  -1.3517325279886152e-09  -2.0728003176881934e-09  -1.8800638755049237e-09  -1.5757333912527929e-09  -4.1030876376977425e-09  -2.6491143045159304e-09  -2.497189503029649e-09  0.0  0.0  0.0  -4.165789887074419e-09  -8.393059794510819e-10  -3.653884945372116e-09  -5.162075762248251e-09  -4.143160699097352e-09  6.449115057434862e-07  -2.4986421425458642e-08  -2.707963225638734e-08  -3.212419979428778e-08  -2.0018489992840297e-08  -2.107213383356904e-08  
1.192342449554892e-09  5.02542027894915e-09  -1.4547756290101216e-09  6.700301076482211e-09  1.0818173883472748e-08  4.06674408077052e-09  -1.3335906378515103e-08  -1.4107538186903744e-08  -9.099458760374776e-09  -8.23578012241207e-09  -1.4048165555375657e-08  -1.581052354994744e-08  -1.310179802540786e-08  -1.8528847325352258e-08  -1.2528779447908486e-08  -1.2586582646157902e-08  -1.4184308953495556e-08  -1.380385570870223e-08  -1.1101880805454938e-08  -1.2910228314156329e-08  -1.4693627712107043e-08  -1.4304028273581295e-08  0.0  0.0  -1.5917395825328865e-09  -2.3251378991556122e-09  -2.12352437093745e-09  -1.6966323415476173e-09  -4.456098039603554e-09  -2.806816876083742e-09  -2.4440265587211344e-09  0.0  0.0  0.0  -4.160091441673154e-09  -1.067582310528131e-09  -3.675755848387413e-09  -5.429782089451523e-09  -3.898299223757787e-09  -2.4986421425458632e-08  5.744107119201126e-07  -1.991799753776972e-08  -2.5062207583078783e-08  -1.6447781829996285e-08  -1.7053130100800956e-08  
1.375926238869763e-09  4.067619084101724e-09  6.196309904793449e-09  -1.1068383600923946e-09  2.1502054803013823e-09  -6.156591541506456e-10  -1.494767182730967e-08  -1.528268761513424e-08  -8.397995741182493e-09  -7.690451559286584e-09  -1.2807401370433624e-08  -2.1495178427496442e-08  -1.5659904591000303e-08  -1.5962907225151494e-08  -1.9340443169918808e-08  -1.906481245179575e-08  -1.834959509759983e-08  -2.266855054803181e-08  -2.023766404016235e-08  -2.318727330438938e-08  -1.1300846430494929e-08  -1.3640268992896917e-08  0.0  0.0  -1.2908796287284582e-09  -1.856492689762305e-09  -1.7838257373435627e-09  -1.4395215353249326e-09  -3.844356983826741e-09  -2.508916430519491e-09  -2.85876695559186e-09  0.0  0.0  0.0  -3.891191111678203e-09  -7.087077018912045e-10  -3.568161423568334e-09  -4.864257104932454e-09  -3.593397331485319e-09  -2.707963225638735e-08  -1.9917997537769726e-08  7.337624225422705e-07  -2.7407271190698876e-08  -1.800451309576029e-08  -2.0873321875864543e-08  
1.2099440930726085e-08  5.098228514228668e-09  1.0101882570198998e-08  7.47468356714211e-09  7.4123877557766174e-09  1.788797736506784e-09  -1.613245730085009e-08  -1.6008210120737126e-08  -8.819033555839696e-09  -8.07748867672114e-09  -1.3915170163420962e-08  -1.9002700436784482e-08  -1.5565972888648073e-08  -1.8976732931001007e-08  -1.6924955665341435e-08  -1.6551633860684197e-08  -1.8026736818415074e-08  -1.824299473161224e-08  -1.3924864462885884e-08  -1.5261699845563773e-08  -1.419436196981007e-08  -1.6563204987173387e-08  0.0  0.0  -1.4035414829517385e-09  -2.045240587019002e-09  -1.9609443631797353e-09  -1.5976851964546173e-09  -4.1329573000528644e-09  -2.7377238332265878e-09  -2.8241115438107523e-09  0.0  0.0  0.0  -4.3441938777326855e-09  -1.9307198600522306e-10  -3.947128547497865e-09  -5.2832792922431855e-09  -3.993815752822787e-09  -3.212419979428778e-08  -2.506220758307879e-08  -2.7407271190698866e-08  6.480556727590787e-07  -1.973910980872476e-08  -2.1243066855361003e-08  
4.618831851120469e-09  8.511650106074225e-09  -1.4012865907285626e-09  6.99248554389142e-09  4.067772445064782e-09  2.1216101967857066e-09  -1.1648044047714412e-08  -1.1640468882798537e-08  -7.0868826290272755e-09  -6.2454741059724785e-09  -1.0766492581438213e-08  -1.3246825376203164e-08  -9.901574214253986e-09  -1.2926888079169238e-08  -1.0677277782539557e-08  -1.1417601427211835e-08  -1.450993925143235e-08  -1.2198510891271114e-08  -1.190935495849164e-08  -1.1458278561333363e-08  -1.1536370141324184e-08  -1.0701288258224418e-08  0.0  0.0  -1.3120662317862357e-09  -1.8527484874883431e-09  -1.6936523963880118e-09  -1.3397305600790978e-09  -3.50574471410105e-09  -2.217513635391509e-09  -2.148152662572052e-09  0.0  0.0  0.0  -3.3255354281022853e-09  -6.620892715224755e-10  -2.8384259718285557e-09  -4.1132294918796446e-09  -3.3701929636892204e-09  -2.001848999284031e-08  -1.6447781829996285e-08  -1.8004513095760296e-08  -1.9739109808724758e-08  4.345014483932562e-07  -1.4633570543276024e-08  
-2.003408925695505e-09  8.057024943897984e-09  6.140435859111388e-09  6.240287207520616e-09  5.7499171009631396e-09  1.4079490110162547e-09  -1.1638742286931843e-08  -1.2643712340519125e-08  -6.78924613583682e-09  -6.163101397195252e-09  -1.0371875864427429e-08  -1.4509425305704741e-08  -1.1462348283532375e-08  -1.4103166113831471e-08  -1.2155309734338085e-08  -1.2333253045953711e-08  -1.4174350654559127e-08  -1.414936167312042e-08  -1.3949754612422417e-08  -1.423684311001087e-08  -1.244469989154659e-08  -1.2341802759320539e-08  0.0  0.0  -1.2446873165742441e-09  -1.6642748913186785e-09  -1.7341255137947078e-09  -1.363805202800352e-09  -3.311642005900648e-09  -2.15500996897221e-09  -2.498960246096437e-09  0.0  0.0  0.0  -3.5897961600015216e-09  3.249272698195872e-10  -3.214664129627775e-09  -4.364270390749495e-09  -3.3103352643873663e-09  -2.1072133833569035e-08  -1.7053130100800956e-08  -2.0873321875864547e-08  -2.1243066855361003e-08  -1.4633570543276021e-08  4.873232188958876e-07  
