48 48
1.2008035677644023e-06  -6.346195269794269e-09  -1.0792155498446705e-08  -3.2862383855739393e-08  9.763237650536921e-08  1.5158086531620558e-07  1.0751697507047425e-07  1.5416281290798253e-07  -5.721406134325896e-09  -1.1130933906013498e-08  1.5675822264898404e-07  -1.5760872062428856e-08  -3.474736212636846e-08  2.5437274328087053e-07  2.1717327827890385e-07  2.191961886204312e-07  -2.1076736352783468e-08  -2.5427252464718367e-08  -1.9383578008824036e-08  -2.558506488802305e-08  1.4345104416753576e-07  -2.9447484245575863e-08  -1.9529224218450197e-09  -1.7398843758857317e-09  -9.324940712761456e-10  -1.623689095031922e-09  -7.887258841966799e-10  -6.688234972174012e-10  -1.2613584267613837e-08  -1.9570016281693593e-09  -9.357800642644682e-09  -9.430248762667434e-09  -2.386654714235697e-08  -2.6934635574471978e-08  -3.0360196717106615e-08  -1.8776162425125873e-08  -2.5985982018572878e-08  0.0  0.0  0.0  0.0  0.0  -5.0241702454617305e-08  -5.001949249884894e-08  -2.2148635596580867e-08  -9.892698252678327e-09  -8.731035227747448e-09  -2.388930052090214e-08  
-6.346195269794291e-09  1.072348715932703e-06  -3.259176508885855e-09  -3.013488527794628e-08  1.5706242593317637e-07  2.187554799633504e-07  1.609198655436508e-07  2.3110294903883689e-07  -5.541271718486946e-09  -2.3423720238138514e-09  2.281666803647296e-07  -9.288738335644209e-09  -2.696030554394625e-08  3.4711862287741256e-07  3.5740640661682306e-07  2.9619088394536726e-07  -1.2869765366861796e-08  -1.474261979455629e-08  -7.64647205323573e-09  -1.9639941563280216e-08  2.3792386103595515e-07  -2.058442198070262e-08  -5.91043220941251e-10  5.608309277507552e-10  -4.3711469691810056e-10  -5.866633524711228e-10  -3.059640925218323e-09  -3.0543678645979395e-10  -1.755740196158113e-08  -1.0174987243717082e-09  -1.2123545526123072e-08  -6.626416665072253e-09  -2.523251023854824e-08  -2.5171577548296453e-08  -3.215524415127109e-08  -1.8454179852963728e-08  -2.436578953808492e-08  0.0  0.0  0.0  0.0  0.0  -3.440875412948881e-08  -3.296509383120041e-08  -8.504890192164213e-09  -1.2964942003904903e-09  -2.2363767296762274e-10  -1.2967838749461343e-08  
-1.079215549844666e-08  -3.259176508885849e-09  1.5302152781160534e-06  -4.378054240235794e-08  2.2213251034726862e-07  2.9106381168415107e-07  2.1485625114603212e-07  3.076297604606449e-07  -8.064907163040649e-09  -5.809332061977125e-09  3.328562983385473e-07  -1.3872864691395251e-08  -4.046222233007258e-08  5.011296697056934e-07  4.580533453443233e-07  3.988419319668862e-07  -2.029439652152961e-08  -2.0647348443792925e-08  -1.1728003153397114e-08  -2.5120904563571823e-08  3.005674900879267e-07  -3.2632718138571746e-08  -3.517657215713276e-10  1.0797172911934645e-09  -5.65850451764646e-10  9.240199794979546e-11  -2.0027606658717414e-09  -7.751942670341543e-11  -2.4910443137382188e-08  -3.866370935860654e-10  -1.6283299931379724e-08  -9.006494511659015e-09  -4.089330497417098e-08  -3.706896293422297e-08  -4.821715145750338e-08  -2.354342472529572e-08  -3.342972932615789e-08  0.0  0.0  0.0  0.0  0.0  -4.911608238184551e-08  -5.3452382648098475e-08  -7.974589313039253e-09  -1.1064819116876413e-09  3.289359401004917e-10  -1.7408512096096954e-08  
-3.286238385573941e-08  -3.013488527794628e-08  -4.378054240235797e-08  2.4168737531731827e-06  -1.435758419497547e-07  -1.8262705163712904e-07  -1.529239695510984e-07  -2.0199572379122105e-07  -1.0715224558735725e-08  -4.439461493376207e-08  -2.0988927904781714e-07  -5.012618450410206e-08  -8.555332067890471e-08  -3.171993966676326e-07  -2.903401225770433e-07  -2.7349001480316987e-07  -9.278664088685873e-08  -8.190561812906683e-08  -7.802708994803299e-08  -9.077369268420758e-08  -2.1447127963532436e-07  -7.968940560827129e-08  -1.1780291813971166e-08  -1.5489502618376607e-08  -4.708157090212823e-09  -1.271231052464297e-08  -1.0206846385293212e-08  -3.689975895411088e-09  -2.0283590327850415e-08  -1.181322411525876e-08  -2.582310568521191e-08  -2.744414721617343e-08  -4.695129923065893e-08  -5.7495561585634487e-08  -5.6029949815143004e-08  -5.02555496315773e-08  -5.297003982504626e-08  0.0  0.0  0.0  0.0  0.0  -1.3519439291597537e-07  -1.45446587103758e-07  -1.0889581549999104e-07  -5.4474948715075835e-08  -5.384341792812678e-08  -7.537662424358014e-08  
9.763237650536918e-08  1.570624259331764e-07  2.2213251034726868e-07  -1.4357584194975472e-07  4.100559299556035e-06  2.777505096746344e-06  2.1194554831767794e-06  2.9726388716599426e-06  -2.526801516862791e-08  2.2201095617923896e-07  3.1416081726507815e-06  1.5419938235976433e-07  8.67374420170343e-08  4.8073223218316674e-06  4.503515542468413e-06  4.154580838640647e-06  3.900911864603432e-07  3.315634897073324e-07  4.062065670546621e-07  2.97146433855075e-07  3.207074812083253e-06  1.6627312597304985e-07  8.593057949555345e-08  1.1408083642425875e-07  2.42027038663337e-08  1.0012852509172409e-07  8.97622695797824e-08  2.7727116141111505e-08  -5.5504548950119035e-08  1.2552785233247507e-07  5.271312676993132e-08  1.490381662683451e-07  1.1106086680604807e-09  2.6639181998439057e-08  -6.350383963627248e-08  1.3944481635408186e-07  3.162712031075982e-08  0.0  0.0  0.0  0.0  0.0  3.0352153189283006e-07  3.4582898519581675e-07  6.137895749981733e-07  3.433950185031329e-07  3.2960780785357615e-07  3.0061363242027084e-07  
1.5158086531620566e-07  2.1875547996335044e-07  2.910638116841513e-07  -1.8262705163712898e-07  2.777505096746345e-06  6.255123894409055e-06  2.8110934398556995e-06  3.928594486623533e-06  -3.3417132241080774e-08  3.250029009732317e-07  4.1501372071053136e-06  2.052478611265625e-07  1.1681612732814668e-07  6.3622829981433235e-06  5.950141269110056e-06  5.4995959165191455e-06  5.124139140951265e-07  4.3625941981417074e-07  5.762782396410978e-07  3.9303688407437077e-07  4.251237483425245e-06  2.1879479648946566e-07  1.0886120337832386e-07  1.5879019522890608e-07  4.5900692680576093e-08  1.619429069815742e-07  1.2189563752375176e-07  3.145506377995165e-08  -8.426731586003473e-08  1.3373939481368466e-07  5.831445479047734e-08  2.2976980128423174e-07  -8.381909927638878e-09  3.308556636656977e-08  -9.048022417784202e-08  2.302954625410137e-07  3.240166146024501e-08  0.0  0.0  0.0  0.0  0.0  4.274823862258391e-07  4.616004882677197e-07  8.72867392440013e-07  5.050200942314182e-07  4.937360505266563e-07  3.9900306619936526e-07  
1.0751697507047424e-07  1.6091986554365087e-07  2.148562511460322e-07  -1.529239695510984e-07  2.1194554831767806e-06  2.811093439855698e-06  4.072137708136998e-06  3.003757748399233e-06  -2.7540718936286497e-08  2.4054288272399393e-07  3.169849266551219e-06  1.4641289643677357e-07  7.016576280845441e-08  4.84362400858803e-06  4.533813261005044e-06  4.186828422723037e-06  3.76495623407527e-07  3.1638492759172653e-07  4.282287453311472e-07  2.841413148275045e-07  3.234425161658424e-06  1.5043279207720496e-07  1.005307540875601e-07  1.55959877682833e-07  4.305457035725372e-08  1.1838569578014346e-07  8.81257897488791e-08  2.935526377862962e-08  -7.481581409233755e-08  1.1270646496555015e-07  3.525749472083438e-08  1.6838074247474777e-07  -2.0341499909311564e-08  7.626511698556518e-09  -8.407479996581826e-08  1.6273599083000864e-07  1.337925393493949e-08  0.0  0.0  0.0  0.0  0.0  2.954144431889801e-07  3.2314751734314514e-07  6.769906763966452e-07  3.7404843236509054e-07  3.783421564962509e-07  2.877817981501276e-07  
1.5416281290798246e-07  2.3110294903883678e-07  3.076297604606447e-07  -2.0199572379122105e-07  2.9726388716599422e-06  3.928594486623529e-06  3.003757748399231e-06  6.975080791847762e-06  -3.757418970009494e-08  3.448783011090435e-07  4.4363497704040975e-06  2.1386443990356215e-07  1.149713313431734e-07  6.781897835291152e-06  6.352503914315355e-06  5.86826973198004e-06  5.406596430281518e-07  4.34829509016128e-07  5.90271682858239e-07  4.2268764982143617e-07  4.539751952893949e-06  2.22936738777918e-07  1.2935399644389709e-07  1.8598755186863657e-07  4.1358014975480435e-08  1.4212052795103733e-07  1.2292418059087328e-07  3.677992279936296e-08  -1.091524497035286e-07  1.4069541732005689e-07  4.9253173867047135e-08  2.1756975803171016e-07  -3.0821981244954113e-08  1.5248263355599367e-08  -1.2178227893340066e-07  2.136214088698179e-07  9.986032198214434e-09  0.0  0.0  0.0  0.0  0.0  4.3985024958695494e-07  4.829223354261576e-07  9.693196559523105e-07  4.875228329056229e-07  5.644233632974956e-07  4.191394072606993e-07  
-5.721406134325892e-09  -5.541271718486945e-09  -8.064907163040655e-09  -1.0715224558735722e-08  -2.526801516862789e-08  -3.3417132241080774e-08  -2.754071893628648e-08  -3.757418970009496e-08  4.639480157847384e-07  -8.053753039249445e-09  -3.8433587354638755e-08  -9.136716514697441e-09  -1.512123055526773e-08  -5.689162484485331e-08  -5.277275068133235e-08  -4.9435982071757165e-08  -1.6903448908627006e-08  -1.4428464823339451e-08  -1.4060395855035815e-08  -1.5412651266312077e-08  -3.78111169526009e-08  -1.4482048546723326e-08  -2.4925196099986593e-09  -3.083997168170488e-09  -1.0360744242612184e-09  -2.958298689751719e-09  -3.3889951811688408e-09  -8.94771858324009e-10  -6.455388073914848e-09  -3.098104644284161e-09  -7.22632985916272e-09  -6.895129125912229e-09  -1.1699903828722323e-08  -1.2648120878283783e-08  -1.1643069114705929e-08  -1.1389488001292209e-08  -1.166898839835817e-08  0.0  0.0  0.0  0.0  0.0  -2.4022821231792358e-08  -2.5477329749008788e-08  -1.961871737597629e-08  -9.789443102549741e-09  -9.82406764767449e-09  -1.3198958740485083e-08  
-1.113093390601347e-08  -2.3423720238138167e-09  -5.8093320619771e-09  -4.439461493376203e-08  2.2201095617923902e-07  3.250029009732318e-07  2.4054288272399393e-07  3.4487830110904377e-07  -8.053753039249438e-09  1.4754508372224139e-06  3.535244061657883e-07  -1.2671768848506903e-08  -3.902840225598508e-08  5.572573195754284e-07  5.088292822589106e-07  4.7540173418369696e-07  -1.4976760205518627e-08  -1.7296963158928554e-08  -9.22806854488012e-09  -2.2633337803721684e-08  3.358970901103929e-07  -2.9140559648287397e-08  8.29471921196015e-10  2.246458300663869e-09  1.69146809330764e-10  1.9612298900231337e-09  1.8841019992415762e-09  2.6940845375398103e-10  -1.811733853022093e-08  1.8542827959389417e-09  -1.0243633861044288e-08  -5.667556389993608e-09  -3.00870026166307e-08  -2.9625903486433577e-08  -3.999286731067637e-08  -1.540534137790386e-08  -2.8289555842020978e-08  0.0  0.0  0.0  0.0  0.0  -4.819768077480395e-08  -4.820528607909243e-08  -5.806282715909003e-09  1.731744488714797e-10  2.1644323206543625e-09  -1.69472864542962e-08  
1.56758222648984e-07  2.2816668036472965e-07  3.328562983385473e-07  -2.0988927904781722e-07  3.141608172650782e-06  4.150137207105313e-06  3.1698492665512197e-06  4.436349770404101e-06  -3.8433587354638775e-08  3.5352440616578806e-07  7.685259659734901e-06  2.2945144200206334e-07  1.357790036757653e-07  7.1861544172958415e-06  6.72044371529699e-06  6.2145435294567975e-06  5.844807066271692e-07  4.823866505208742e-07  6.423138054838027e-07  4.455345763301465e-07  4.800096197646535e-06  2.4739017354382605e-07  1.1534351062795604e-07  1.5481942177210385e-07  4.8890054765098266e-08  1.4536736932398703e-07  1.1175476560824906e-07  3.7328134274625503e-08  -9.363072226314811e-08  1.524421420065033e-07  7.142137898175532e-08  2.3848481374421775e-07  -6.37016721547844e-09  3.481468793882594e-08  -1.0250915967043915e-07  2.642216794328193e-07  3.4822560743509995e-08  0.0  0.0  0.0  0.0  0.0  4.821735419904279e-07  5.169652244200562e-07  9.536755392401262e-07  4.967014188767966e-07  5.280301647683913e-07  4.416325508005626e-07  
-1.576087206242884e-08  -9.288738335644201e-09  -1.3872864691395273e-08  -5.012618450410204e-08  1.5419938235976446e-07  2.0524786112656256e-07  1.4641289643677357e-07  2.1386443990356217e-07  -9.136716514697436e-09  -1.2671768848506889e-08  2.2945144200206345e-07  1.6946321474417458e-06  -5.710874572828838e-08  3.4583747764849074e-07  3.333497202994202e-07  3.0121474483240404e-07  -3.401916368873386e-08  -3.372289408062585e-08  -2.047218807186627e-08  -3.847732961070839e-08  2.1824013630568603e-07  -4.437873465982343e-08  -8.913454228225881e-10  -6.489082615146621e-10  -3.824873052390407e-10  1.927619666504002e-10  -4.391825763130654e-10  -2.919830129444015e-10  -1.9959151547184553e-08  7.878030297415334e-10  -1.5654562320727758e-08  -6.077161001924174e-09  -3.419713232906902e-08  -4.3251821066228614e-08  -4.1620388388934854e-08  -2.408940389238726e-08  -3.622744284485577e-08  0.0  0.0  0.0  0.0  0.0  -6.87278950600858e-08  -7.551438908957174e-08  -2.41626292996232e-08  -8.973904674800984e-09  -7.437826910936465e-09  -3.182066847291842e-08  
-3.474736212636844e-08  -2.696030554394629e-08  -4.046222233007256e-08  -8.555332067890482e-08  8.673744201703434e-08  1.1681612732814668e-07  7.016576280845439e-08  1.1497133134317356e-07  -1.512123055526773e-08  -3.90284022559851e-08  1.357790036757654e-07  -5.71087457282884e-08  3.1098783573304964e-06  1.7517593148388504e-07  1.8282110144168341e-07  1.6156416313889285e-07  -9.489997705481447e-08  -8.5264172207005e-08  -6.668867588316546e-08  -8.949967398955105e-08  1.039312773574772e-07  -9.471736677102276e-08  -7.223348048660203e-09  -9.061286875224413e-09  -2.908899815019584e-09  -6.227891720089294e-09  -4.52113137704322e-09  -2.1781876314909714e-09  -3.055488199027804e-08  -4.688084130377276e-09  -3.329522345666529e-08  -2.066406720681972e-08  -7.041001870395486e-08  -8.273501769510343e-08  -8.056125385297546e-08  -5.1759021943088155e-08  -6.767007893663371e-08  0.0  0.0  0.0  0.0  0.0  -1.6081902374164056e-07  -1.684203853797136e-07  -8.942237836313889e-08  -4.052558406010168e-08  -3.83300270070921e-08  -7.977669560296983e-08  
2.5437274328087053e-07  3.471186228774125e-07  5.011296697056933e-07  -3.1719939666763273e-07  4.8073223218316674e-06  6.362282998143323e-06  4.843624008588029e-06  6.781897835291152e-06  -5.689162484485332e-08  5.572573195754283e-07  7.1861544172958415e-06  3.458374776484907e-07  1.7517593148388496e-07  1.5344335032541878e-05  1.0285994744112416e-05  9.47452873225668e-06  8.243564356702346e-07  7.019364298712836e-07  9.371974002853815e-07  6.021319402264323e-07  7.310716260620293e-06  3.6420798563587367e-07  1.8899367185457e-07  2.3933624120320203e-07  7.321967325216192e-08  2.4883780536271023e-07  2.1004239193232433e-07  6.343769710054136e-08  -1.3344150458004018e-07  2.3100527545485914e-07  6.748470195639334e-08  3.245597114073615e-07  -6.2377630855766865e-09  6.236081252274938e-08  -1.5778047874652284e-07  3.0042674297081515e-07  2.780414832414547e-08  0.0  0.0  0.0  0.0  0.0  6.713334211768116e-07  7.728537274170276e-07  1.4394330428384848e-06  7.451278646372776e-07  7.646894429587957e-07  6.323533292164248e-07  
2.171732782789038e-07  3.5740640661682295e-07  4.5805334534432335e-07  -2.9034012257704353e-07  4.503515542468412e-06  5.950141269110055e-06  4.533813261005044e-06  6.352503914315357e-06  -5.277275068133236e-08  5.088292822589103e-07  6.7204437152969904e-06  3.3334972029942005e-07  1.8282110144168333e-07  1.0285994744112418e-05  1.380128260285681e-05  8.906229660441022e-06  8.395359176788998e-07  5.879817514413549e-07  8.287003831185398e-07  5.762646677452119e-07  6.847129384260798e-06  3.516819948053515e-07  1.9432272269720506e-07  2.3644826784459602e-07  8.051144132099519e-08  2.098538387990656e-07  1.9866021155526584e-07  6.055977270238018e-08  -1.403374317145123e-07  2.2189338586201837e-07  1.1265769736552215e-07  3.377494515317595e-07  -2.4444253332686022e-08  6.618631346486938e-08  -1.6380407439645677e-07  3.4065146839554993e-07  -1.341864847331209e-08  0.0  0.0  0.0  0.0  0.0  6.599341714724034e-07  7.258820984275442e-07  1.2406857418835592e-06  7.637655809872654e-07  7.198531520795586e-07  5.746475842546741e-07  
2.1919618862043127e-07  2.9619088394536737e-07  3.9884193196688626e-07  -2.734900148031699e-07  4.154580838640647e-06  5.499595916519145e-06  4.186828422723036e-06  5.868269731980042e-06  -4.943598207175718e-08  4.754017341836969e-07  6.2145435294567975e-06  3.01214744832404e-07  1.6156416313889285e-07  9.474528732256678e-06  8.906229660441025e-06  1.1928454217410667e-05  7.138558356550675e-07  5.818713050727669e-07  7.652204027277802e-07  5.274580465659567e-07  6.3184629938135875e-06  2.952042821717118e-07  1.7399100048637385e-07  2.1521738410257625e-07  8.119850726286747e-08  2.018184188333965e-07  1.5156164668092823e-07  6.293719518607967e-08  -1.4799649148833557e-07  1.8564156624699457e-07  1.0407107793202691e-07  3.311258405258424e-07  -5.848337789203121e-08  5.3491094948810424e-08  -1.8033547833907255e-07  2.979299991223416e-07  6.837262590371777e-08  0.0  0.0  0.0  0.0  0.0  5.859480964618954e-07  6.25416077359865e-07  1.1575427655318399e-06  6.633397447302501e-07  6.658723421064146e-07  5.663911000976182e-07  
-2.10767363527835e-08  -1.2869765366861803e-08  -2.0294396521529555e-08  -9.278664088685872e-08  3.900911864603432e-07  5.124139140951266e-07  3.7649562340752684e-07  5.406596430281519e-07  -1.690344890862699e-08  -1.49767602055186e-08  5.844807066271693e-07  -3.401916368873385e-08  -9.489997705481433e-08  8.243564356702349e-07  8.395359176788995e-07  7.138558356550676e-07  3.130457820248582e-06  -5.7525677641646286e-08  -3.647361971286349e-08  -6.57040742489027e-08  5.572606141316579e-07  -7.409904230798506e-08  1.159468444793368e-10  1.882416862336429e-09  -1.0402920961159929e-10  2.394147762309682e-09  2.000368750704258e-09  1.892604414364845e-10  -3.775362409624884e-08  3.8166691091711425e-09  -2.909967077270654e-08  -1.4171907186651444e-08  -6.813589764453688e-08  -6.801195475678322e-08  -8.551644120757413e-08  -4.492235354988183e-08  -6.237650681126041e-08  0.0  0.0  0.0  0.0  0.0  -1.1689882055019594e-07  -1.2343096958677298e-07  -3.5499872544894e-08  -8.475732743570859e-09  -4.867638854788786e-09  -4.7304384450851545e-08  
-2.542725246471843e-08  -1.4742619794556286e-08  -2.064734844379286e-08  -8.190561812906687e-08  3.315634897073322e-07  4.362594198141707e-07  3.1638492759172627e-07  4.3482950901612793e-07  -1.4428464823339455e-08  -1.729696315892857e-08  4.823866505208741e-07  -3.372289408062584e-08  -8.526417220700502e-08  7.019364298712835e-07  5.879817514413546e-07  5.818713050727669e-07  -5.752567764164624e-08  3.048903875516625e-06  -5.064948305680541e-08  -7.460518713011919e-08  4.666956217467244e-07  -7.613182347342488e-08  -5.018454836515554e-09  -3.378974132322568e-09  -2.4284885969995935e-09  -3.9069925759735465e-09  -4.286960229544331e-09  -1.3158356784533154e-09  -5.007757803301342e-08  -4.2138788991431716e-09  -2.737744379672105e-08  -2.3266760750800735e-08  -7.206709050253846e-08  -6.736128482699015e-08  -9.483746856185683e-08  -5.975621948894785e-08  -8.12869435760313e-08  0.0  0.0  0.0  0.0  0.0  -1.2121791602081828e-07  -1.3193546158425059e-07  -5.167490125569205e-08  -1.8254615820659624e-08  -1.722131281132296e-08  -6.182529976979217e-08  
-1.9383578008824033e-08  -7.646472053235671e-09  -1.1728003153397033e-08  -7.8027089948033e-08  4.0620656705466224e-07  5.762782396410978e-07  4.2822874533114707e-07  5.902716828582394e-07  -1.4060395855035807e-08  -9.228068544880127e-09  6.423138054838029e-07  -2.0472188071866246e-08  -6.668867588316541e-08  9.371974002853818e-07  8.287003831185398e-07  7.652204027277804e-07  -3.6473619712863525e-08  -5.0649483056805415e-08  2.7724140934090463e-06  -5.505225092889103e-08  5.976944208413601e-07  -5.217902296494394e-08  -3.5782841495110708e-09  -7.304239644541626e-10  -2.127281056054435e-09  -2.8002293504604742e-09  -5.930708578523836e-10  -3.4680363160082224e-10  -3.823153052630048e-08  -3.9183836728204546e-09  -2.0045743241476918e-08  -2.1720716907366037e-08  -5.828923435677172e-08  -4.9680915768645503e-08  -7.669424565536474e-08  -4.4619209247655024e-08  -6.168236308290033e-08  0.0  0.0  0.0  0.0  0.0  -8.719431589824098e-08  -8.593490193649107e-08  -3.33799083931075e-08  -1.0173962894228124e-08  -8.531795547244258e-09  -3.5643336910784576e-08  
-2.558506488802309e-08  -1.9639941563280232e-08  -2.5120904563571832e-08  -9.077369268420754e-08  2.97146433855075e-07  3.930368840743708e-07  2.8414131482750455e-07  4.226876498214364e-07  -1.5412651266312074e-08  -2.2633337803721687e-08  4.455345763301464e-07  -3.8477329610708475e-08  -8.949967398955106e-08  6.021319402264324e-07  5.762646677452118e-07  5.274580465659568e-07  -6.570407424890276e-08  -7.460518713011924e-08  -5.505225092889105e-08  3.251393858996726e-06  4.1604018819918573e-07  -7.879581628294652e-08  -4.74123912320714e-09  -3.7148135493055246e-09  -2.23973435676514e-09  -3.5107975715160707e-09  -3.6668505593829506e-09  -1.3513429531382576e-09  -4.8416659657933745e-08  -2.7833208209123953e-09  -2.9661370542704533e-08  -2.452108632221922e-08  -7.168679755367643e-08  -7.29782488923265e-08  -9.24845641127551e-08  -6.488255558886065e-08  -7.668947661052111e-08  0.0  0.0  0.0  0.0  0.0  -1.4124342187259106e-07  -1.4949505945944717e-07  -6.446710916750658e-08  -2.541823162185205e-08  -2.111890688335975e-08  -6.87549173883789e-08  
1.4345104416753576e-07  2.3792386103595507e-07  3.005674900879266e-07  -2.1447127963532447e-07  3.207074812083252e-06  4.251237483425244e-06  3.2344251616584224e-06  4.539751952893948e-06  -3.781111695260089e-08  3.358970901103927e-07  4.800096197646535e-06  2.1824013630568592e-07  1.0393127735747712e-07  7.310716260620292e-06  6.847129384260796e-06  6.318462993813587e-06  5.57260614131658e-07  4.666956217467246e-07  5.976944208413603e-07  4.160401881991859e-07  7.5203745673381286e-06  2.2464546695131838e-07  1.1588824191679184e-07  1.6311038991702144e-07  6.51383730230826e-08  1.564938527974521e-07  1.3622998260440948e-07  4.536294824830029e-08  -1.0246104410684521e-07  1.7370843736757922e-07  5.612587726080343e-08  2.248853972421728e-07  -3.2665184829642336e-08  5.685706845350548e-09  -1.269010957586172e-07  2.4150918870491656e-07  2.0387790064846807e-08  0.0  0.0  0.0  0.0  0.0  4.2478196200687404e-07  4.717618820472881e-07  9.956562603725768e-07  5.068406313237123e-07  5.735483435772224e-07  4.206197579635647e-07  
-2.9447484245575886e-08  -2.058442198070266e-08  -3.263271813857174e-08  -7.968940560827135e-08  1.662731259730499e-07  2.187947964894657e-07  1.5043279207720493e-07  2.22936738777918e-07  -1.4482048546723342e-08  -2.9140559648287378e-08  2.4739017354382605e-07  -4.437873465982347e-08  -9.47173667710227e-08  3.642079856358737e-07  3.516819948053515e-07  2.9520428217171175e-07  -7.409904230798503e-08  -7.613182347342488e-08  -5.2179022964943924e-08  -7.879581628294655e-08  2.2464546695131835e-07  2.9784893327155038e-06  -4.921426700875553e-09  -5.414617009567161e-09  -2.096629433184998e-09  -3.948623689389631e-09  -5.1717148767228506e-09  -1.6375365444023144e-09  -4.568699180768871e-08  -3.231097267979655e-09  -3.267016759962647e-08  -2.111512252703775e-08  -7.971912783478923e-08  -7.2294143486091e-08  -9.454694974428578e-08  -5.835590924897333e-08  -7.277464675205648e-08  0.0  0.0  0.0  0.0  0.0  -1.4286617415945096e-07  -1.593783870840147e-07  -6.410422498094237e-08  -2.6992015696460998e-08  -2.488650595425939e-08  -6.588262720322735e-08  
-1.952922421845012e-09  -5.910432209412528e-10  -3.517657215713198e-10  -1.1780291813971174e-08  8.593057949555346e-08  1.0886120337832387e-07  1.0053075408756015e-07  1.2935399644389717e-07  -2.492519609998662e-09  8.294719211960232e-10  1.1534351062795611e-07  -8.913454228225805e-10  -7.223348048660201e-09  1.8899367185457011e-07  1.943227226972051e-07  1.7399100048637395e-07  1.1594684447934126e-10  -5.01845483651555e-09  -3.578284149511052e-09  -4.741239123207132e-09  1.1588824191679188e-07  -4.921426700875542e-09  7.292864155892131e-07  -2.478539459905745e-08  -1.42096123315493e-08  -3.3333106125329125e-08  -2.173038519284839e-08  -3.899394258854157e-09  -4.146279595136213e-08  -2.347338580276285e-08  -2.9210220269050787e-08  -2.398311178668799e-08  -2.992797989658239e-08  -2.6897541881154574e-08  -3.2113232577987436e-08  -2.4657927533205088e-08  -3.041482466594033e-08  0.0  0.0  0.0  0.0  0.0  -7.01671134057384e-09  -5.1766636690580834e-09  -8.66588531860253e-09  -5.555405289086217e-09  -1.659713991684937e-08  -2.556024215901277e-09  
-1.739884375885729e-09  5.608309277507486e-10  1.0797172911934858e-09  -1.5489502618376603e-08  1.1408083642425874e-07  1.587901952289061e-07  1.5595987768283294e-07  1.8598755186863668e-07  -3.0839971681704888e-09  2.2464583006638687e-09  1.5481942177210385e-07  -6.48908261514672e-10  -9.061286875224415e-09  2.3933624120320193e-07  2.36448267844596e-07  2.1521738410257617e-07  1.8824168623364344e-09  -3.378974132322566e-09  -7.304239644541677e-10  -3.714813549305524e-09  1.6311038991702147e-07  -5.414617009567162e-09  -2.4785394599057448e-08  7.90729088339451e-07  -1.849967535545387e-08  -3.3972369791682716e-08  -1.9717060284757802e-08  -3.6092785717813965e-09  -4.033708839481899e-08  -2.2373604520090345e-08  -2.709838289515259e-08  -2.0596899979111622e-08  -2.6539265960564855e-08  -2.3871358650855558e-08  -2.9911377283598026e-08  -1.9944999809809284e-08  -2.657772209888753e-08  0.0  0.0  0.0  0.0  0.0  -7.793351043504148e-09  -5.81062540780553e-09  -3.615516755576229e-09  -3.2308670787136054e-09  -1.4014110890838569e-08  -1.0830842419304758e-09  
-9.324940712761433e-10  -4.371146969180966e-10  -5.658504517646393e-10  -4.7081570902128225e-09  2.4202703866333728e-08  4.5900692680576127e-08  4.305457035725376e-08  4.135801497548048e-08  -1.0360744242612184e-09  1.6914680933076522e-10  4.8890054765098326e-08  -3.8248730523904013e-10  -2.9088998150195912e-09  7.321967325216198e-08  8.051144132099528e-08  8.11985072628675e-08  -1.0402920961159923e-10  -2.4284885969995807e-09  -2.1272810560544207e-09  -2.2397343567651316e-09  6.513837302308268e-08  -2.096629433184991e-09  -1.4209612331549292e-08  -1.8499675355453865e-08  3.738419967310527e-07  -2.1076869706322565e-08  -1.6016901611773042e-08  -2.7162839108794926e-09  -2.8398465889669876e-08  -1.4849266820745395e-08  -1.964549657953745e-08  -1.5443592698977952e-08  -1.5090712537082337e-08  -1.3551279631733384e-08  -1.58113237778792e-08  -1.2337457665100916e-08  -1.510055315095267e-08  0.0  0.0  0.0  0.0  0.0  -2.856355796505473e-09  -2.1091375028676297e-09  -4.68532617434893e-09  -3.039348859793572e-09  -8.340068456123787e-09  -1.3016308238858417e-09  
-1.6236890950319155e-09  -5.866633524711292e-10  9.240199794979095e-11  -1.271231052464294e-08  1.0012852509172404e-07  1.6194290698157414e-07  1.183856957801433e-07  1.4212052795103727e-07  -2.958298689751719e-09  1.961229890023128e-09  1.453673693239869e-07  1.9276196665039345e-10  -6.227891720089285e-09  2.488378053627102e-07  2.0985383879906546e-07  2.018184188333964e-07  2.3941477623096773e-09  -3.906992575973536e-09  -2.8002293504604556e-09  -3.5107975715160616e-09  1.5649385279745197e-07  -3.948623689389624e-09  -3.333310612532911e-08  -3.39723697916827e-08  -2.107686970632256e-08  1.007329590504567e-06  -4.6568926723782336e-08  -8.053232222659206e-09  -8.342946479804113e-08  -4.299624455775741e-08  -5.913111993538913e-08  -4.6865469441780936e-08  -4.9007096389821444e-08  -4.4535797426257016e-08  -5.0835875329095483e-08  -4.100601218614037e-08  -4.976623304471094e-08  0.0  0.0  0.0  0.0  0.0  -4.1718159076618755e-09  -1.2482884386789155e-09  -8.842581591557092e-09  -6.900324442797844e-09  -2.27628772582553e-08  -1.3261230787639823e-09  
-7.887258841966722e-10  -3.059640925218333e-09  -2.0027606658717543e-09  -1.020684638529318e-08  8.976226957978233e-08  1.2189563752375173e-07  8.812578974887911e-08  1.2292418059087323e-07  -3.388995181168839e-09  1.884101999241569e-09  1.1175476560824904e-07  -4.391825763130672e-10  -4.5211313770431945e-09  2.1004239193232428e-07  1.9866021155526578e-07  1.5156164668092812e-07  2.000368750704225e-09  -4.286960229544312e-09  -5.930708578523859e-10  -3.6668505593829667e-09  1.3622998260440945e-07  -5.171714876722858e-09  -2.1730385192848392e-08  -1.9717060284757802e-08  -1.6016901611773045e-08  -4.6568926723782336e-08  1.2725752575620392e-06  -1.2447104203888085e-08  -1.4702520022911094e-07  -5.13007212849886e-08  -1.0835574716063655e-07  -8.310862198209957e-08  -1.029293568414862e-07  -9.595408352990962e-08  -1.0336894345094958e-07  -8.573928335780855e-08  -1.0507608480729892e-07  0.0  0.0  0.0  0.0  0.0  -3.412602529802475e-09  1.1688995258280066e-09  2.400922948622558e-09  2.5126637447849842e-09  -1.094013309526634e-09  -3.897448023203942e-09  
-6.688234972174019e-10  -3.054367864597953e-10  -7.751942670341243e-11  -3.6899758954110874e-09  2.7727116141111525e-08  3.145506377995165e-08  2.9355263778629615e-08  3.677992279936297e-08  -8.947718583240103e-10  2.6940845375398527e-10  3.7328134274625503e-08  -2.9198301294440324e-10  -2.178187631490973e-09  6.343769710054136e-08  6.05597727023802e-08  6.29371951860797e-08  1.892604414364904e-10  -1.3158356784533167e-09  -3.4680363160082084e-10  -1.3513429531382588e-09  4.53629482483003e-08  -1.6375365444023156e-09  -3.899394258854155e-09  -3.6092785717813936e-09  -2.7162839108794922e-09  -8.053232222659204e-09  -1.2447104203888085e-08  2.769124320601527e-07  -2.2878872843405616e-08  -8.783175583154427e-09  -1.7047398866813325e-08  -1.3627732978182013e-08  -1.6521352337642774e-08  -1.54894031139603e-08  -1.6923920145042296e-08  -1.404167028503424e-08  -1.7293511106841618e-08  0.0  0.0  0.0  0.0  0.0  -2.074967547405087e-09  -1.1413071103377354e-09  -3.628373591585559e-10  -3.894197418329289e-10  -1.2375628890311036e-09  -1.2168110965756377e-09  
-1.2613584267613824e-08  -1.7557401961581112e-08  -2.4910443137382188e-08  -2.0283590327850468e-08  -5.550454895011903e-08  -8.42673158600348e-08  -7.481581409233754e-08  -1.0915244970352868e-07  -6.455388073914839e-09  -1.8117338530220914e-08  -9.363072226314811e-08  -1.995915154718455e-08  -3.055488199027798e-08  -1.3344150458004018e-07  -1.4033743171451228e-07  -1.4799649148833554e-07  -3.775362409624881e-08  -5.007757803301347e-08  -3.823153052630049e-08  -4.841665965793376e-08  -1.0246104410684525e-07  -4.568699180768867e-08  -4.146279595136212e-08  -4.0337088394819005e-08  -2.8398465889669853e-08  -8.342946479804109e-08  -1.470252002291109e-07  -2.287887284340562e-08  2.567020200902091e-06  -9.224003252221538e-08  -2.0163866590359264e-07  -1.6086379175628609e-07  -2.093017157625681e-07  -1.9066191527616795e-07  -2.0748949872872687e-07  -1.8074400181502368e-07  -2.156228405709491e-07  0.0  0.0  0.0  0.0  0.0  -6.143201399497657e-08  -6.819079974989208e-08  -4.0644926023554564e-08  -1.7854450225707156e-08  -2.476260978739267e-08  -4.2288838778404595e-08  
-1.9570016281693527e-09  -1.01749872437171e-09  -3.866370935860518e-10  -1.1813224115258744e-08  1.255278523324751e-07  1.3373939481368473e-07  1.1270646496555017e-07  1.4069541732005694e-07  -3.0981046442841606e-09  1.8542827959389406e-09  1.5244214200650333e-07  7.878030297415481e-10  -4.6880841303772814e-09  2.3100527545485922e-07  2.2189338586201837e-07  1.8564156624699463e-07  3.81666910917114e-09  -4.213878899143174e-09  -3.918383672820481e-09  -2.7833208209123916e-09  1.7370843736757932e-07  -3.2310972679796665e-09  -2.347338580276284e-08  -2.2373604520090335e-08  -1.4849266820745405e-08  -4.29962445577574e-08  -5.130072128498863e-08  -8.783175583154428e-09  -9.224003252221537e-08  1.0751549636834098e-06  -6.798286126253566e-08  -5.6840140464150546e-08  -6.824408855225301e-08  -6.248168642421136e-08  -6.91799995385583e-08  -5.803445742542032e-08  -6.976581491865554e-08  0.0  0.0  0.0  0.0  0.0  -1.9343718765713967e-09  1.7012822532414748e-09  -9.372033129944028e-09  -7.469416071364978e-09  -2.049149312250332e-08  -1.3256016493661943e-09  
-9.357800642644722e-09  -1.2123545526123092e-08  -1.628329993137973e-08  -2.582310568521192e-08  5.271312676993134e-08  5.831445479047735e-08  3.5257494720834456e-08  4.925317386704729e-08  -7.226329859162725e-09  -1.0243633861044266e-08  7.142137898175543e-08  -1.5654562320727735e-08  -3.3295223456665316e-08  6.748470195639352e-08  1.1265769736552233e-07  1.0407107793202694e-07  -2.909967077270649e-08  -2.7377443796721016e-08  -2.0045743241476918e-08  -2.9661370542704576e-08  5.6125877260803515e-08  -3.26701675996265e-08  -2.9210220269050763e-08  -2.7098382895152606e-08  -1.964549657953745e-08  -5.913111993538912e-08  -1.0835574716063656e-07  -1.7047398866813315e-08  -2.016386659035927e-07  -6.798286126253568e-08  2.2671685439356716e-06  -1.2128799220798753e-07  -1.6994931841273348e-07  -1.643468520645987e-07  -1.6739214188698344e-07  -1.3591409568862337e-07  -1.7676210906848863e-07  0.0  0.0  0.0  0.0  0.0  -4.0182946168053765e-08  -4.3477740383928943e-08  -2.3103414023576998e-08  -7.498180446730652e-09  -1.3300455045497856e-08  -2.8414980290870214e-08  
-9.430248762667439e-09  -6.626416665072252e-09  -9.006494511659015e-09  -2.7444147216173457e-08  1.4903816626834507e-07  2.2976980128423177e-07  1.6838074247474775e-07  2.175697580317102e-07  -6.895129125912235e-09  -5.667556389993645e-09  2.3848481374421754e-07  -6.077161001924191e-09  -2.0664067206819764e-08  3.2455971140736144e-07  3.377494515317594e-07  3.311258405258423e-07  -1.417190718665139e-08  -2.3266760750800765e-08  -2.1720716907366097e-08  -2.4521086322219287e-08  2.2488539724217278e-07  -2.1115122527037753e-08  -2.398311178668799e-08  -2.0596899979111615e-08  -1.5443592698977946e-08  -4.686546944178092e-08  -8.310862198209961e-08  -1.362773297818202e-08  -1.6086379175628603e-07  -5.6840140464150507e-08  -1.2128799220798756e-07  2.1009139910501805e-06  -1.4157337274500269e-07  -1.2804633660007558e-07  -1.43147209634586e-07  -1.2585786777977745e-07  -1.4590905351247901e-07  0.0  0.0  0.0  0.0  0.0  -2.624636839392755e-08  -2.3932193603697287e-08  -1.5913325356244365e-08  -6.796927316591533e-09  -1.1016222294011651e-08  -1.7018297436955613e-08  
-2.3866547142356942e-08  -2.5232510238548242e-08  -4.0893304974170943e-08  -4.6951299230658845e-08  1.1106086680604133e-09  -8.38190992763894e-09  -2.0341499909311584e-08  -3.0821981244954146e-08  -1.169990382872232e-08  -3.008700261663068e-08  -6.37016721547856e-09  -3.4197132329069045e-08  -7.041001870395485e-08  -6.237763085576827e-09  -2.4444253332686224e-08  -5.848337789203133e-08  -6.813589764453684e-08  -7.206709050253843e-08  -5.8289234356771715e-08  -7.168679755367638e-08  -3.266518482964247e-08  -7.971912783478924e-08  -2.992797989658238e-08  -2.653926596056487e-08  -1.509071253708234e-08  -4.9007096389821405e-08  -1.0292935684148617e-07  -1.6521352337642774e-08  -2.093017157625681e-07  -6.824408855225298e-08  -1.699493184127334e-07  -1.4157337274500266e-07  3.437660069743472e-06  -2.364584958625149e-07  -2.654750990254583e-07  -2.1195349646960284e-07  -2.5549385610983924e-07  0.0  0.0  0.0  0.0  0.0  -1.0649401295548452e-07  -1.1930173890788898e-07  -6.804267980345663e-08  -3.0605745294973425e-08  -3.870416113668245e-08  -6.167662652733633e-08  
-2.6934635574472e-08  -2.5171577548296444e-08  -3.706896293422298e-08  -5.7495561585634473e-08  2.663918199843916e-08  3.308556636656999e-08  7.626511698556624e-09  1.524826335559955e-08  -1.264812087828378e-08  -2.9625903486433557e-08  3.481468793882624e-08  -4.3251821066228634e-08  -8.273501769510339e-08  6.23608125227498e-08  6.618631346486971e-08  5.349109494881072e-08  -6.801195475678323e-08  -6.736128482699024e-08  -4.9680915768645503e-08  -7.297824889232652e-08  5.68570684535078e-09  -7.2294143486091e-08  -2.6897541881154624e-08  -2.3871358650855575e-08  -1.3551279631733386e-08  -4.4535797426257016e-08  -9.595408352990962e-08  -1.5489403113960302e-08  -1.9066191527616808e-07  -6.248168642421136e-08  -1.643468520645987e-07  -1.280463366000756e-07  -2.36458495862515e-07  3.503861032206433e-06  -2.438404857471739e-07  -1.9926188183296428e-07  -2.460564895287624e-07  0.0  0.0  0.0  0.0  0.0  -1.0996728174369725e-07  -1.243820642382944e-07  -6.214884241314006e-08  -2.66368523722532e-08  -3.454699706987595e-08  -6.754968439532293e-08  
-3.0360196717106615e-08  -3.215524415127107e-08  -4.8217151457503346e-08  -5.602994981514301e-08  -6.35038396362725e-08  -9.048022417784205e-08  -8.407479996581827e-08  -1.2178227893340077e-07  -1.1643069114705932e-08  -3.999286731067638e-08  -1.0250915967043914e-07  -4.1620388388934795e-08  -8.056125385297549e-08  -1.5778047874652292e-07  -1.6380407439645674e-07  -1.8033547833907252e-07  -8.551644120757414e-08  -9.48374685618568e-08  -7.669424565536481e-08  -9.248456411275497e-08  -1.2690109575861725e-07  -9.454694974428582e-08  -3.2113232577987416e-08  -2.991137728359804e-08  -1.581132377787918e-08  -5.0835875329095483e-08  -1.0336894345094958e-07  -1.6923920145042303e-08  -2.074894987287267e-07  -6.917999953855829e-08  -1.6739214188698355e-07  -1.4314720963458601e-07  -2.654750990254582e-07  -2.438404857471739e-07  3.81062556018835e-06  -2.2182828008748244e-07  -2.7153534635847013e-07  0.0  0.0  0.0  0.0  0.0  -1.388859783349421e-07  -1.499799786142448e-07  -9.380530698468051e-08  -4.4202978717195464e-08  -5.199960562211361e-08  -8.370673584486767e-08  
-1.877616242512584e-08  -1.8454179852963725e-08  -2.354342472529576e-08  -5.025554963157734e-08  1.3944481635408178e-07  2.3029546254101357e-07  1.6273599083000846e-07  2.1362140886981792e-07  -1.1389488001292209e-08  -1.540534137790389e-08  2.64221679432819e-07  -2.4089403892387284e-08  -5.1759021943088115e-08  3.0042674297081483e-07  3.4065146839554956e-07  2.979299991223412e-07  -4.492235354988187e-08  -5.975621948894783e-08  -4.461920924765502e-08  -6.488255558886073e-08  2.415091887049164e-07  -5.835590924897339e-08  -2.465792753320508e-08  -1.9944999809809274e-08  -1.2337457665100916e-08  -4.10060121861404e-08  -8.573928335780852e-08  -1.4041670285034246e-08  -1.8074400181502368e-07  -5.803445742542034e-08  -1.3591409568862326e-07  -1.2585786777977753e-07  -2.1195349646960276e-07  -1.9926188183296425e-07  -2.2182828008748247e-07  3.218723604383319e-06  -2.2057651793609706e-07  0.0  0.0  0.0  0.0  0.0  -8.928466464317648e-08  -8.64665341926922e-08  -4.818641123314524e-08  -1.9419605041999207e-08  -2.4693366442328826e-08  -4.702527327759457e-08  
-2.598598201857288e-08  -2.4365789538084913e-08  -3.3429729326157877e-08  -5.297003982504623e-08  3.162712031075988e-08  3.2401661460245115e-08  1.3379253934939552e-08  9.98603219821449e-09  -1.1668988398358165e-08  -2.828955584202098e-08  3.482256074351012e-08  -3.6227442844855734e-08  -6.767007893663381e-08  2.7804148324145536e-08  -1.3418648473311927e-08  6.837262590371782e-08  -6.237650681126043e-08  -8.128694357603124e-08  -6.16823630829003e-08  -7.668947661052111e-08  2.0387790064846903e-08  -7.277464675205643e-08  -3.041482466594036e-08  -2.6577722098887522e-08  -1.510055315095268e-08  -4.976623304471097e-08  -1.0507608480729897e-07  -1.7293511106841605e-08  -2.1562284057094912e-07  -6.976581491865553e-08  -1.7676210906848857e-07  -1.4590905351247907e-07  -2.554938561098392e-07  -2.460564895287625e-07  -2.7153534635847013e-07  -2.205765179360971e-07  3.5970570920115197e-06  0.0  0.0  0.0  0.0  0.0  -1.0013046897308794e-07  -1.0962877431013607e-07  -6.928791903354211e-08  -3.081011202230813e-08  -3.8234048463422425e-08  -7.34069411149064e-08  
0.0  0.0  0.0  0.0  0.0  0.0  0.0  0.0  0.0  0.0  0.0  0.0  0.0  0.0  0.0  0.0  0.0  0.0  0.0  0.0  0.0  0.0  0.0  0.0  0.0  0.0  0.0  0.0  0.0  0.0  0.0  0.0  0.0  0.0  0.0  0.0  0.0  1.3143981038913498e-05  -8.775342024510254e-07  -6.397403405544391e-07  -5.06284172986051e-07  -5.718542012285432e-07  0.0  0.0  0.0  0.0  0.0  0.0  
0.0  0.0  0.0  0.0  0.0  0.0  0.0  0.0  0.0  0.0  0.0  0.0  0.0  0.0  0.0  0.0  0.0  0.0  0.0  0.0  0.0  0.0  0.0  0.0  0.0  0.0  0.0  0.0  0.0  0.0  0.0  0.0  0.0  0.0  0.0  0.0  0.0  -8.775342024510252e-07  2.3347394138376835e-05  -6.823025657302644e-07  -5.346775505420158e-07  -6.109186840837662e-07  0.0  0.0  0.0  0.0  0.0  0.0  
0.0  0.0  0.0  0.0  0.0  0.0  0.0  0.0  0.0  0.0  0.0  0.0  0.0  0.0  0.0  0.0  0.0  0.0  0.0  0.0  0.0  0.0  0.0  0.0  0.0  0.0  0.0  0.0  0.0  0.0  0.0  0.0  0.0  0.0  0.0  0.0  0.0  -6.397403405544392e-07  -6.823025657302642e-07  3.968932520929635e-05  -3.775679877448381e-07  -4.3483125672771537e-07  0.0  0.0  0.0  0.0  0.0  0.0  
0.0  0.0  0.0  0.0  0.0  0.0  0.0  0.0  0.0  0.0  0.0  0.0  0.0  0.0  0.0  0.0  0.0  0.0  0.0  0.0  0.0  0.0  0.0  0.0  0.0  0.0  0.0  0.0  0.0  0.0  0.0  0.0  0.0  0.0  0.0  0.0  0.0  -5.06284172986051e-07  -5.346775505420157e-07  -3.775679877448381e-07  5.084140180297696e-05  -3.6617583348950377e-07  0.0  0.0  0.0  0.0  0.0  0.0  
0.0  0.0  0.0  0.0  0.0  0.0  0.0  0.0  0.0  0.0  0.0  0.0  0.0  0.0  0.0  0.0  0.0  0.0  0.0  0.0  0.0  0.0  0.0  0.0  0.0  0.0  0.0  0.0  0.0  0.0  0.0  0.0  0.0  0.0  0.0  0.0  0.0  -5.718542012285433e-07  -6.109186840837661e-07  -4.348312567277154e-07  -3.661758334895038e-07  5.348872164734731e-05  0.0  0.0  0.0  0.0  0.0  0.0  
-5.0241702454617325e-08  -3.4408754129488774e-08  -4.911608238184541e-08  -1.3519439291597527e-07  3.0352153189283017e-07  4.27482386225839e-07  2.9541444318898e-07  4.3985024958695457e-07  -2.4022821231792355e-08  -4.8197680774803956e-08  4.821735419904278e-07  -6.872789506008576e-08  -1.6081902374164049e-07  6.713334211768114e-07  6.599341714724033e-07  5.859480964618951e-07  -1.1689882055019604e-07  -1.212179160208182e-07  -8.719431589824086e-08  -1.412434218725909e-07  4.2478196200687404e-07  -1.428661741594508e-07  -7.016711340573861e-09  -7.793351043504153e-09  -2.8563557965054785e-09  -4.171815907661857e-09  -3.4126025298024733e-09  -2.074967547405076e-09  -6.143201399497655e-08  -1.934371876571412e-09  -4.018294616805373e-08  -2.6246368393927535e-08  -1.0649401295548443e-07  -1.0996728174369723e-07  -1.3888597833494202e-07  -8.92846646431764e-08  -1.0013046897308788e-07  0.0  0.0  0.0  0.0  0.0  4.86005363994231e-06  -2.570047335384473e-07  -1.1180089661035339e-07  -4.65851494384192e-08  -4.1784037932926814e-08  -1.2090231023902994e-07  
-5.001949249884894e-08  -3.2965093831200384e-08  -5.345238264809855e-08  -1.4544658710375797e-07  3.458289851958167e-07  4.616004882677193e-07  3.2314751734314504e-07  4.829223354261574e-07  -2.5477329749008805e-08  -4.820528607909243e-08  5.169652244200559e-07  -7.551438908957169e-08  -1.684203853797136e-07  7.728537274170273e-07  7.25882098427544e-07  6.25416077359865e-07  -1.2343096958677303e-07  -1.3193546158425066e-07  -8.593490193649103e-08  -1.494950594594471e-07  4.7176188204728814e-07  -1.5937838708401475e-07  -5.1766636690580785e-09  -5.810625407805539e-09  -2.1091375028676305e-09  -1.2482884386789215e-09  1.1688995258280378e-09  -1.1413071103377447e-09  -6.819079974989217e-08  1.7012822532414636e-09  -4.347774038392893e-08  -2.3932193603697306e-08  -1.1930173890788898e-07  -1.2438206423829435e-07  -1.499799786142448e-07  -8.646653419269218e-08  -1.0962877431013608e-07  0.0  0.0  0.0  0.0  0.0  -2.5700473353844736e-07  5.048888233232998e-06  -1.0410337827158286e-07  -4.2741426265493136e-08  -3.757244232069368e-08  -1.1878014447479214e-07  
-2.2148635596580847e-08  -8.504890192164238e-09  -7.974589313039267e-09  -1.0889581549999104e-07  6.137895749981729e-07  8.728673924400126e-07  6.76990676396645e-07  9.693196559523103e-07  -1.9618717375976284e-08  -5.8062827159090456e-09  9.536755392401255e-07  -2.4162629299623225e-08  -8.94223783631388e-08  1.4394330428384842e-06  1.240685741883558e-06  1.1575427655318392e-06  -3.549987254489408e-08  -5.1674901255692005e-08  -3.337990839310759e-08  -6.446710916750664e-08  9.956562603725761e-07  -6.410422498094243e-08  -8.665885318602549e-09  -3.6155167555762554e-09  -4.685326174348937e-09  -8.842581591557109e-09  2.4009229486225446e-09  -3.6283735915855966e-10  -4.0644926023554604e-08  -9.372033129944074e-09  -2.310341402357703e-08  -1.5913325356244385e-08  -6.804267980345657e-08  -6.214884241314013e-08  -9.380530698468044e-08  -4.818641123314528e-08  -6.928791903354214e-08  0.0  0.0  0.0  0.0  0.0  -1.118008966103533e-07  -1.0410337827158285e-07  3.746390527689897e-06  -1.151814826533477e-08  -1.8291162964706043e-08  -3.9943130811490906e-08  
-9.892698252678323e-09  -1.2964942003904888e-09  -1.1064819116876347e-09  -5.447494871507583e-08  3.4339501850313286e-07  5.050200942314181e-07  3.7404843236509044e-07  4.875228329056229e-07  -9.789443102549743e-09  1.7317444887146545e-10  4.967014188767964e-07  -8.973904674800999e-09  -4.0525584060101694e-08  7.451278646372775e-07  7.637655809872649e-07  6.6333974473025e-07  -8.475732743570842e-09  -1.8254615820659637e-08  -1.0173962894228156e-08  -2.5418231621852068e-08  5.068406313237123e-07  -2.6992015696460982e-08  -5.555405289086227e-09  -3.230867078713612e-09  -3.0393488597935735e-09  -6.900324442797832e-09  2.512663744784986e-09  -3.8941974183293253e-10  -1.785445022570715e-08  -7.469416071364975e-09  -7.498180446730675e-09  -6.796927316591533e-09  -3.060574529497345e-08  -2.66368523722532e-08  -4.420297871719547e-08  -1.9419605041999167e-08  -3.081011202230813e-08  0.0  0.0  0.0  0.0  0.0  -4.658514943841926e-08  -4.2741426265493136e-08  -1.1518148265334669e-08  1.835749604622345e-06  -9.80641552847015e-09  -1.4169623525629858e-08  
-8.731035227747471e-09  -2.2363767296761286e-10  3.289359401004713e-10  -5.38434179281268e-08  3.29607807853576e-07  4.937360505266561e-07  3.783421564962509e-07  5.644233632974953e-07  -9.824067647674491e-09  2.164432320654353e-09  5.280301647683912e-07  -7.437826910936469e-09  -3.833002700709209e-08  7.64689442958795e-07  7.198531520795585e-07  6.658723421064144e-07  -4.867638854788801e-09  -1.7221312811322947e-08  -8.531795547244264e-09  -2.1118906883359764e-08  5.735483435772223e-07  -2.488650595425938e-08  -1.6597139916849397e-08  -1.401411089083856e-08  -8.34006845612379e-09  -2.2762877258255304e-08  -1.0940133095266334e-09  -1.2375628890311067e-09  -2.4762609787392635e-08  -2.0491493122503337e-08  -1.3300455045497858e-08  -1.1016222294011618e-08  -3.870416113668247e-08  -3.454699706987601e-08  -5.199960562211362e-08  -2.4693366442328737e-08  -3.8234048463422445e-08  0.0  0.0  0.0  0.0  0.0  -4.178403793292687e-08  -3.7572442320693744e-08  -1.8291162964706047e-08  -9.806415528470123e-09  1.9192096136168587e-06  -1.0658684364349095e-08  
-2.3889300520902147e-08  -1.2967838749461353e-08  -1.740851209609694e-08  -7.537662424358009e-08  3.0061363242027094e-07  3.990030661993655e-07  2.8778179815012755e-07  4.191394072606995e-07  -1.3198958740485084e-08  -1.6947286454296193e-08  4.416325508005626e-07  -3.182066847291841e-08  -7.97766956029698e-08  6.323533292164252e-07  5.746475842546742e-07  5.663911000976184e-07  -4.7304384450851545e-08  -6.182529976979214e-08  -3.564333691078453e-08  -6.875491738837891e-08  4.206197579635649e-07  -6.588262720322735e-08  -2.556024215901279e-09  -1.0830842419304752e-09  -1.3016308238858366e-09  -1.326123078763966e-09  -3.897448023203941e-09  -1.216811096575638e-09  -4.228883877840456e-08  -1.3256016493662014e-09  -2.8414980290870214e-08  -1.701829743695556e-08  -6.167662652733635e-08  -6.754968439532294e-08  -8.370673584486773e-08  -4.702527327759455e-08  -7.340694111490636e-08  0.0  0.0  0.0  0.0  0.0  -1.2090231023903e-07  -1.1878014447479209e-07  -3.994313081149085e-08  -1.4169623525629824e-08  -1.0658684364349062e-08  2.759930462068902e-06  
