28 28
1.3150621642356146e-06  -7.983879420461768e-08  -7.963163023947566e-08  -7.578928204795131e-08  -1.0334149982218252e-07  -9.184362582346255e-08  -2.020909738152264e-08  -1.7519012166032182e-08  -4.2206959858651366e-08  -2.2363675223003635e-08  -8.90281887573285e-09  -4.765117869263379e-08  -5.809162731261974e-08  -4.4203539088259574e-08  -4.070220309891398e-08  -2.335804278910057e-08  -4.5769469469622275e-08  -3.541311659295651e-08  0.0  0.0  0.0  0.0  0.0  -2.684987376611529e-08  8.848186239732265e-09  -5.456997343355544e-08  3.829918062260869e-08  2.6622664928147024e-08  
-7.983879420461768e-08  1.289006937213331e-06  -7.535486010584649e-08  -8.527352056778134e-08  -8.637849669585058e-08  -9.766532500369928e-08  -2.443246615068063e-08  -2.106721124359871e-08  -5.0314459384045096e-08  -2.678501245516261e-08  -1.084374585845657e-08  -4.0979970287439463e-08  -6.219187385296404e-08  -3.61558280349281e-08  -4.075408993230834e-08  -2.91564682056962e-08  -3.921086061247521e-08  -3.565263019091547e-08  0.0  0.0  0.0  0.0  0.0  -1.9220747864721096e-08  3.417196402251682e-08  -6.107713417230619e-08  -1.5063102726476184e-08  4.122398856652643e-08  
-7.963163023947572e-08  -7.535486010584644e-08  1.3289227851605012e-06  -1.032834262846886e-07  -9.353650461302652e-08  -8.756369746731873e-08  -2.538736200756479e-08  -2.4243388107713003e-08  -5.0648015902428425e-08  -3.0641306363011204e-08  -1.1792204811593512e-08  -5.783897199471164e-08  -5.7455528555266126e-08  -3.404677182844204e-08  -4.391881337117625e-08  -3.183567151632964e-08  -3.471118841802044e-08  -4.877554318565881e-08  0.0  0.0  0.0  0.0  0.0  -2.129774791334779e-10  -7.363651696532015e-09  -6.87674558209781e-08  3.4066052270908154e-08  -4.935585501272872e-09  
-7.578928204795127e-08  -8.527352056778134e-08  -1.0328342628468859e-07  1.3442203802947548e-06  -8.963128869511484e-08  -9.580606071118112e-08  -2.9308505340142378e-08  -2.940504485486296e-08  -5.9581464500102385e-08  -3.704965881327537e-08  -1.4375729835843467e-08  -5.502158194510599e-08  -5.384477036771567e-08  -3.161903086659542e-08  -4.320653975831835e-08  -3.914099593999526e-08  -3.0746264142495e-08  -4.79423159915114e-08  0.0  0.0  0.0  0.0  0.0  -3.896252390324352e-09  1.0819372990748715e-08  -7.312464482567364e-08  7.793091923064204e-09  5.609812506329742e-09  
-1.0334149982218247e-07  -8.637849669585056e-08  -9.353650461302648e-08  -8.963128869511484e-08  1.6178920676575923e-06  -1.1547847361736942e-07  -2.2108763673537995e-08  -1.962467197775313e-08  -4.577946670637873e-08  -2.4154655038283106e-08  -1.0214855105732768e-08  -5.480801334484312e-08  -6.090614791080813e-08  -6.337830534587947e-08  -4.357362246430689e-08  -2.662207424386226e-08  -6.487763266667643e-08  -4.049559723068528e-08  0.0  0.0  0.0  0.0  0.0  -2.405597010423021e-08  -2.1418164154537614e-08  -5.996526835569403e-08  4.112297212929113e-08  6.050796442777276e-08  
-9.184362582346254e-08  -9.766532500369936e-08  -8.756369746731875e-08  -9.580606071118114e-08  -1.1547847361736938e-07  1.5053747592834783e-06  -2.432760681906888e-08  -2.105446659292321e-08  -5.0887467896802066e-08  -2.649303278769332e-08  -1.1454854709459805e-08  -4.486679087578073e-08  -6.710759383465981e-08  -4.8896875234410427e-08  -4.405412246268306e-08  -3.025833165039003e-08  -5.2747302223369774e-08  -4.016962257369483e-08  0.0  0.0  0.0  0.0  0.0  -1.8344059316379846e-08  2.0586023916961444e-08  -6.995456821689936e-08  -2.6606752425090977e-08  7.697316900030556e-08  
-2.0209097381522632e-08  -2.443246615068065e-08  -2.5387362007564792e-08  -2.930850534014236e-08  -2.2108763673537988e-08  -2.4327606819068874e-08  5.267173749668584e-07  -2.1987816675867344e-08  -3.7751375320087804e-08  -2.3549760161831893e-08  -8.908320428434682e-09  -3.3683483165031356e-08  -3.376162060948438e-08  -2.3806206250120456e-08  -2.4299521566103663e-08  -2.3366053930263433e-08  -2.6440895917741658e-08  -2.4254899940153998e-08  0.0  0.0  0.0  0.0  0.0  -1.2689971080728333e-08  -7.110281388720917e-09  -1.8296868024647576e-08  -4.6052837872500804e-09  1.919675819120834e-08  
-1.7519012166032192e-08  -2.1067211243598705e-08  -2.4243388107713e-08  -2.9405044854862974e-08  -1.9624671977753133e-08  -2.1054466592923193e-08  -2.1987816675867344e-08  5.186868350693961e-07  -3.700068308952589e-08  -2.9459917403488976e-08  -1.6389968055207913e-08  -3.387530973120288e-08  -3.191283871462924e-08  -2.3538652150544143e-08  -2.290259720408819e-08  -3.248070529092852e-08  -2.5717436010928473e-08  -2.7540056660184522e-08  0.0  0.0  0.0  0.0  0.0  -3.026526637418255e-09  9.840072446062011e-09  -1.6990234872362628e-08  -1.0284064903923851e-08  9.620317721454441e-10  
-4.220695985865138e-08  -5.031445938404515e-08  -5.0648015902428405e-08  -5.958146450010239e-08  -4.5779466706378744e-08  -5.088746789680205e-08  -3.77513753200878e-08  -3.7000683089525887e-08  1.0297714348248782e-06  -4.1788214292327904e-08  -1.4548791247507158e-08  -7.03706612776092e-08  -7.022931704633486e-08  -5.0876873687532165e-08  -5.073263689339304e-08  -4.286040566317041e-08  -5.548149720992442e-08  -5.29747687348057e-08  0.0  0.0  0.0  0.0  0.0  -1.549245026124801e-08  1.706242496270684e-08  -3.9050720324859535e-08  -1.4603044077723845e-08  1.0026832709247068e-08  
-2.2363675223003635e-08  -2.6785012455162612e-08  -3.0641306363011224e-08  -3.704965881327537e-08  -2.4154655038283113e-08  -2.649303278769332e-08  -2.354976016183189e-08  -2.9459917403488982e-08  -4.178821429232791e-08  5.894330579637629e-07  -1.3089116432156788e-08  -3.75314068258411e-08  -3.572993688018781e-08  -2.5085633223619583e-08  -2.6017438108859587e-08  -2.6697495977834273e-08  -2.7875898471874996e-08  -2.9165401258248923e-08  0.0  0.0  0.0  0.0  0.0  -3.579245914030491e-09  -1.6981981775379333e-08  -2.2523827298594015e-08  -1.233507590083047e-08  2.2745122192283764e-08  
-8.902818875732846e-09  -1.0843745858456575e-08  -1.1792204811593518e-08  -1.4375729835843467e-08  -1.0214855105732761e-08  -1.1454854709459799e-08  -8.908320428434683e-09  -1.6389968055207913e-08  -1.4548791247507158e-08  -1.308911643215679e-08  2.3806217887383716e-07  -1.238977526642708e-08  -1.2198797865481115e-08  -8.680277910249046e-09  -9.010244016821496e-09  -1.310801336948076e-08  -9.096770019589915e-09  -1.05306307115789e-08  0.0  0.0  0.0  0.0  0.0  1.00122223904369e-09  1.3763234286185648e-09  -8.437131996609812e-09  8.81519686798925e-09  -1.1062190680173491e-08  
-4.765117869263376e-08  -4.097997028743945e-08  -5.7838971994711626e-08  -5.502158194510599e-08  -5.480801334484311e-08  -4.486679087578071e-08  -3.368348316503135e-08  -3.387530973120289e-08  -7.037066127760921e-08  -3.7531406825841113e-08  -1.2389775266427083e-08  1.0685470747218672e-06  -7.38845963505159e-08  -5.816016197863965e-08  -5.088505668621127e-08  -3.884988183544132e-08  -6.452075549408166e-08  -5.6165794192518666e-08  0.0  0.0  0.0  0.0  0.0  -7.30769193464015e-09  -1.0983563733172068e-08  -3.551547437322197e-08  3.420708666307078e-08  -1.3815092371909044e-08  
-5.809162731261977e-08  -6.219187385296404e-08  -5.745552855526615e-08  -5.384477036771568e-08  -6.090614791080812e-08  -6.71075938346598e-08  -3.3761620609484396e-08  -3.191283871462926e-08  -7.022931704633487e-08  -3.572993688018782e-08  -1.2198797865481113e-08  -7.388459635051591e-08  1.2282111556084033e-06  -6.154599186769883e-08  -5.5924082405908384e-08  -3.797331171485733e-08  -7.280189563076611e-08  -5.814891816343257e-08  0.0  0.0  0.0  0.0  0.0  -4.996172566157129e-09  1.7061157782285028e-08  -4.496824800762374e-08  -6.9418202063007125e-09  1.183082788337411e-08  
-4.420353908825952e-08  -3.61558280349281e-08  -3.404677182844202e-08  -3.161903086659543e-08  -6.337830534587945e-08  -4.889687523441043e-08  -2.380620625012048e-08  -2.353865215054415e-08  -5.087687368753216e-08  -2.5085633223619583e-08  -8.680277910249044e-09  -5.816016197863965e-08  -6.154599186769883e-08  1.0017779522513131e-06  -3.9418601877571766e-08  -2.7344220651012375e-08  -6.882827277656455e-08  -4.0154910098995324e-08  0.0  0.0  0.0  0.0  0.0  -1.3901185105705989e-08  -1.4694459723522257e-08  -2.3092727267375594e-08  1.0031590616398811e-08  2.981046677232316e-08  
-4.070220309891399e-08  -4.075408993230833e-08  -4.3918813371176244e-08  -4.320653975831833e-08  -4.357362246430687e-08  -4.405412246268309e-08  -2.429952156610365e-08  -2.2902597204088185e-08  -5.0732636893393024e-08  -2.601743810885958e-08  -9.01024401682149e-09  -5.0885056686211255e-08  -5.59240824059084e-08  -3.9418601877571766e-08  8.487371086284228e-07  -2.7340630163392074e-08  -4.246894105326336e-08  -3.953035873995363e-08  0.0  0.0  0.0  0.0  0.0  -1.6164846043440664e-08  7.145929347519891e-09  -3.045567843891961e-08  7.3090568777767525e-09  3.98280471032911e-09  
-2.3358042789100566e-08  -2.9156468205696168e-08  -3.183567151632963e-08  -3.914099593999524e-08  -2.6622074243862247e-08  -3.0258331650390035e-08  -2.336605393026344e-08  -3.248070529092851e-08  -4.286040566317041e-08  -2.669749597783427e-08  -1.3108013369480764e-08  -3.884988183544132e-08  -3.7973311714857355e-08  -2.7344220651012385e-08  -2.7340630163392068e-08  6.292163298643228e-07  -2.9337277020764396e-08  -3.234105486906512e-08  0.0  0.0  0.0  0.0  0.0  -7.466363296168736e-09  5.178390682827642e-09  -2.2934025252867257e-08  2.4953451339680448e-08  -2.274782448310798e-08  
-4.576946946962231e-08  -3.921086061247524e-08  -3.471118841802045e-08  -3.074626414249501e-08  -6.487763266667645e-08  -5.274730222336978e-08  -2.644089591774166e-08  -2.5717436010928477e-08  -5.5481497209924426e-08  -2.7875898471875002e-08  -9.096770019589915e-09  -6.452075549408163e-08  -7.280189563076607e-08  -6.882827277656452e-08  -4.246894105326336e-08  -2.9337277020764413e-08  1.2422856439332851e-06  -4.450284819584324e-08  0.0  0.0  0.0  0.0  0.0  -1.0468605104690638e-08  9.922173049422595e-10  -3.132888255708312e-08  5.20002278870917e-09  -2.7077618963601703e-09  
-3.541311659295647e-08  -3.565263019091547e-08  -4.8775543185658845e-08  -4.7942315991511395e-08  -4.049559723068525e-08  -4.0169622573694846e-08  -2.4254899940153995e-08  -2.7540056660184525e-08  -5.29747687348057e-08  -2.9165401258248896e-08  -1.05306307115789e-08  -5.616579419251869e-08  -5.814891816343259e-08  -4.0154910098995304e-08  -3.953035873995361e-08  -3.2341054869065123e-08  -4.450284819584326e-08  8.631747786271887e-07  0.0  0.0  0.0  0.0  0.0  5.945436543695319e-10  6.739102235227283e-09  -3.293182011388418e-08  1.5050405729048827e-08  -2.3720330152877273e-08  
0.0  0.0  0.0  0.0  0.0  0.0  0.0  0.0  0.0  0.0  0.0  0.0  0.0  0.0  0.0  0.0  0.0  0.0  1.2394173253884872e-05  -5.898731924228018e-07  -4.734209415540741e-07  -4.055352858326838e-07  -3.0857267272510554e-07  0.0  0.0  0.0  0.0  0.0  
0.0  0.0  0.0  0.0  0.0  0.0  0.0  0.0  0.0  0.0  0.0  0.0  0.0  0.0  0.0  0.0  0.0  0.0  -5.898731924228018e-07  1.81378624377187e-05  -5.041043244108136e-07  -4.6209839004416734e-07  -3.339893289230098e-07  0.0  0.0  0.0  0.0  0.0  
0.0  0.0  0.0  0.0  0.0  0.0  0.0  0.0  0.0  0.0  0.0  0.0  0.0  0.0  0.0  0.0  0.0  0.0  -4.7342094155407425e-07  -5.041043244108136e-07  3.7057751559663077e-05  -3.3143422588198774e-07  -2.7492099673303877e-07  0.0  0.0  0.0  0.0  0.0  
0.0  0.0  0.0  0.0  0.0  0.0  0.0  0.0  0.0  0.0  0.0  0.0  0.0  0.0  0.0  0.0  0.0  0.0  -4.055352858326839e-07  -4.620983900441673e-07  -3.3143422588198774e-07  4.507778185149744e-05  -2.086537628117101e-07  0.0  0.0  0.0  0.0  0.0  
0.0  0.0  0.0  0.0  0.0  0.0  0.0  0.0  0.0  0.0  0.0  0.0  0.0  0.0  0.0  0.0  0.0  0.0  -3.0857267272510554e-07  -3.339893289230098e-07  -2.7492099673303877e-07  -2.086537628117101e-07  4.5372788553343633e-05  0.0  0.0  0.0  0.0  0.0  
-2.684987376611527e-08  -1.92207478647211e-08  -2.129774791334782e-10  -3.89625239032435e-09  -2.4055970104230207e-08  -1.834405931637984e-08  -1.2689971080728332e-08  -3.026526637418254e-09  -1.5492450261248018e-08  -3.5792459140304915e-09  1.0012222390436914e-09  -7.307691934640151e-09  -4.996172566157124e-09  -1.390118510570598e-08  -1.6164846043440667e-08  -7.466363296168733e-09  -1.0468605104690641e-08  5.945436543695306e-10  0.0  0.0  0.0  0.0  0.0  9.352216060970033e-07  2.039962518156144e-07  3.6836871314897266e-09  2.80789960629112e-07  3.6215496538959197e-07  
8.848186239732268e-09  3.417196402251681e-08  -7.363651696532018e-09  1.0819372990748712e-08  -2.14181641545376e-08  2.058602391696144e-08  -7.1102813887209085e-09  9.840072446062013e-09  1.7062424962706837e-08  -1.6981981775379327e-08  1.3763234286185646e-09  -1.0983563733172063e-08  1.7061157782285028e-08  -1.4694459723522254e-08  7.145929347519895e-09  5.178390682827639e-09  9.92217304942253e-10  6.739102235227282e-09  0.0  0.0  0.0  0.0  0.0  2.0399625181561438e-07  1.6557171309807364e-06  4.252253546345882e-08  5.556592586536926e-07  7.009002601136871e-07  
-5.456997343355545e-08  -6.107713417230616e-08  -6.876745582097809e-08  -7.312464482567364e-08  -5.996526835569403e-08  -6.995456821689936e-08  -1.8296868024647583e-08  -1.699023487236263e-08  -3.9050720324859555e-08  -2.2523827298594015e-08  -8.437131996609804e-09  -3.551547437322197e-08  -4.496824800762374e-08  -2.309272726737558e-08  -3.045567843891961e-08  -2.293402525286724e-08  -3.132888255708309e-08  -3.2931820113884144e-08  0.0  0.0  0.0  0.0  0.0  3.683687131489724e-09  4.25225354634588e-08  1.0794688829337795e-06  1.7101487728832127e-09  -8.716785101235593e-09  
3.829918062260869e-08  -1.5063102726476177e-08  3.406605227090815e-08  7.793091923064204e-09  4.1122972129291124e-08  -2.6606752425090984e-08  -4.605283787250076e-09  -1.028406490392385e-08  -1.460304407772384e-08  -1.2335075900830468e-08  8.815196867989247e-09  3.420708666307079e-08  -6.941820206300706e-09  1.0031590616398813e-08  7.309056877776752e-09  2.4953451339680445e-08  5.200022788709166e-09  1.5050405729048824e-08  0.0  0.0  0.0  0.0  0.0  2.8078996062911194e-07  5.556592586536926e-07  1.7101487728832135e-09  2.5340456037729173e-06  9.839623685854663e-07  
2.6622664928147024e-08  4.122398856652642e-08  -4.93558550127287e-09  5.60981250632974e-09  6.050796442777278e-08  7.697316900030558e-08  1.9196758191208353e-08  9.620317721454431e-10  1.0026832709247071e-08  2.2745122192283767e-08  -1.1062190680173496e-08  -1.381509237190904e-08  1.183082788337412e-08  2.9810466772323156e-08  3.982804710329111e-09  -2.2747824483107994e-08  -2.707761896360186e-09  -2.372033015287728e-08  0.0  0.0  0.0  0.0  0.0  3.621549653895919e-07  7.009002601136871e-07  -8.71678510123558e-09  9.839623685854663e-07  3.1245940999577507e-06  
